svm_type c_svc
kernel_type gkm_esttrunc
L 10
k 7
d 3
norc 0
nr_class 2
total_sv 1125
rho 0.233994
label 1 -1
nr_sv 519 606
SV
0.3923060342972407 GCGGGCGCGGAGGCGGGCGGGGAGGCCCCGCAGCCCGCGCCGCCGCCAGCCGCCCCGAGCCGCGTGCGCGCGCGGCCGCATCAGCTGAGCGCGCGGCGCGTGTCACGTGGTGTGCGTGTCGAAGGTCACGGCGCGCTCACAATGGAGCTCTCGGAGTCTGTGCAGAAAGGCTTCCAGATGCTGGCGGATCCCCGCTCCTTCGACTCCAACGCCTTCACGCTTCTCCTCCGGGCGGC
1 CGCGCGGCGGCTCACCACGCCAGGGACTGGCCCGTCGGCCCCGAGGAGGCGCGGGGTCCGGAGTCCGGGAAGCGGAGGCCTCGTGATCCAAGACCGGCAGCCGGACGTGGGTCACGGGGTGCAGAGGAGGAAGTGCCATTGCCGGGCCCGCCAAGATGTCACCAATGGGAAACGCGTGCCTGCAGGTGCGGCCCCGTGGCCCGCGCGCTGGGCCCAGGCAGGAAGTGGGGGAAGGA
0.9107375408537481 GTTTACACATTCTCTCAGGTTGTTGGCAGAACACAGCTCCCTAAAGCTTGAGGACTGAGGGCCCGTCTGCTGGCTGACTCCACCTGGGGCAGGCCACATGCATCTGCAGTCACATGACCCCTTCCCATCTTCAAAGCCCACTTGCGGTATCAATCTCTCTGACTTCCCTTTCTGCCACCAGTCAGAGAACGTTCTCTGCTTTTTAAGCACTTGTGGGATTCCATTGGGCCTGTATT
0.8107682664925682 AGGATCCTCAGCATGCTGACCCCCAAGTTCATGCTGGCGCTCTGCTCTTGGCTCCTGGCTCCTGGCTGCTGGCAGCGCAGGCACAATGAGCCATGTGACCCAAGGCTCTGGGGACAGGACAAGACCCACGTGACTGATGGGGAAGGAAACCACTGTCACAGCCAGGAGGCTGTTCAGTTCCTCTCAGCCTCTCTGAAGACAGGGCTGAAGGAAGCCCCTGTCATTCTGGACTCCAC
0.7115185908577779 CAGCCTTAATGACTTTATGCATATATGATTTTAAGACATTTTTGTTGCACTTTCTTTGTTAAAAAATAACTCTTTTGTGAAGAGAAATTCAATAGACCATTGAATTCAATGGACCATTAAGGCAAATCACGTGATGCCTCTGTGACTCAGGTTCTATAAATGGAGAAACTGCTTCCAGTTTGATCTTTCTCCTTTTAGGAACAATAAAAGTCTAAGGCAAGGTTTATAATCAGGGT
0.7979714263958955 GTGCCTTCCCTCCCCCCGAAGAGTGTAATCTCTTTCAATTTCTTTTTTTCTCTCAGGCTCTGCACGGAATTTTCCTCTCCTCTTCATCCTGATGGTGTAATACATGATCACGTGTTTGTTGTCTTGTTTTCCTCTGGGTCACATGGGTACTTCTATTTCCTTCTCCTTTTTCATCTTTTCTCTCATTATGGTCTCTAACAAGATCCTCTCCAGGGTCCCTCTGATCTCTATGCTAA
0.2046366668856064 TAATTTAAAAAAAGAATGTTACGGGGCATATCCTTTCTCTCAAATAATGGAACGAGGTTAAAAAAAAAAGGTTAAACATAAAATGGCGGCGGGCTGGATCGGATCACGTGACCGCCATTTCTTTCCTTCCCACCCAAAGGAAAGCCCTTCCTTCAGAGCAAGCGCAAGACATATAGCCCCGCTCATTGTTAAGCGAGGCCAAGGCAACCCTTAGGCGCGCTCTATTTCCCCTTTCG
0.06562239468231459 CCTCCAAGCGGCCTCTCCCCGGAGTGCCTGGCGGCCAGCAGGGCGGGGCAGGAGGCTGGGAGAGGGACGGGTGCGGGGGTGGGGGAGAGGAAGGGAGCGGTCACGTGTGAGGGGCGGCCCGAGGTCACGTGACGGAGCGCCGGAGCGGAGGGAGCCGGGGCTGGGAGTTCTCCTGAGGGAAGAGGAGTGGAGTAGGGGGGACGCGGCGGCGGCGTTGACAATGGTGAGTGCGCGGC
0.4522013903518989 CTATTTAGTGTTTGAGTCCGCAAGACATACTCGTACCCTGAGCATTCGCAGTTGCTGCTCCACCACCCATTCTCTCACTGCTCACCCACGTGCTTCTGGACACTTGCTTACCAAAGTACTAGTTTGCATCACGTGACACGACTAGCAGGCCCCCTCCGCTCATGTATGACATCCCAAAGATGCCTGATTATTTTCCCTTCTTTAGGGAAAGGTGGTCCCAATCACCAACAAAACAG
0.3396428293249822 CCAGCCATTACATCAGTAGGAAAAAGCAAGAGGAGAAGGAGGAAATGCCTGTTGCCTGTACGAACACTTCCTGGAAGTAACATACATTGCTCTTCTTACATTGCATTGGTCAAAACTTAGGCATGTGACCACATCAGCTTGCAGAGCAGGCTGGGAAATGTAGTCTTTCAATGTAGCTTTATCTCAGAACCATGTGCCTGCTAAAATGGGAGGTTCTGTTATGGAAGACAAGGAAA
0.2187228173966357 GATTCCGCGGCGGAGAAACCAGAAGCTAGATGGGCAGTCGCAGCGGCGGCGGCTCAACACCGCGAGGAGCGCTGGGCTCTCCGCCCTTCCCGGCCACGTGACGCCCGGGGACGCGTAGATTGGGGCAGCAGCGGGGGTCACATGTTTCCTCTGTTTCACCCTCAGTCTGTCCCCCAACCCCCCATTCTTACTCTCCCACCCTGTTTTCCTCCCTCCCCCCCTTCTTTGGGCATCTC
1 CCAGATTAGAGAAACGATGCCCCCAGCACCTCCTGGGGCTGCTTCTGGACTCGCCGCTAACACATCTGCGGCATCCTCTCGGCCACCGTAGAGTGTCCCACGTGTCCGCTTCCTCTTCCGCTACTCGCCCGCGCGTCTGTCTGTCAAGAGAGACTTCCGGCATGCCTTTTTTTTTTTTTTTTTTCCCTTTCCCCGCACCGTCACCTGGTGGCGCTTACTGGAAGCCGCACCGAGGC
0.7548942282799069 GTTTGTCTTGTTTTATTTTCCATGGGGTGCTATGTAAGTACAGTACTGACAACTATAGTACTGAAACCCTGCAAATTTACTTTTTATTATTTCAGTTTAGTTACCAAAAATTATGTGATGCATCACATGACCAATCATGCAAAAATTCGTGCTTAAGTGCCTCAGAAACTTCTCCATGGTCTAAAGGTTCAACTCAGGATGTGGTTTCCACCCCAAAGCCAGTCCCAGCTGCCACT
0.6623511777318192 AGAACCCACCGCAAAGATGGCGGTGGGACGAAGCCCCTTCTCCCGCCGCCGAAGCCTCTCGCCTCACATTTCCCACAAACCCTTCGCGCCGCCTCGCTAGCCGAAACCTGCCCAGCCGGTGCCCGGCCACTGCGCACGCGCGGGACGACGTCACGTGCGCTCCCGGGGCTGGACGGAGCTGGCAGGAGGGGCCTTGCCAGCTTCCGCCGCCGCGTCGTTTCAGGACCCGGACGGCG
0.6864389414383236 GTGAGTGTGGTACCCACAGTTTTAACAACCACATGTGAAAATAAGTCTGCTCCCTGGGTTTATTTCAGTATTTAAGCACACGTGACCAGAGGGCCACTGCGTGTTGTGTGCATCCGGAAATAAACAGGGTGGTACCATCACCTGCCTGCCCATGCAGTTCCAGAAAACCACACTCAAGAGGACACGGAAATCAATATTGAAAATGAGACACTCAAGTTACCACAAAGAGCTATTTT
0.3271494105037648 CTCCGGAGGGAGGATCGCCGCCCCCAGAGGGGACAGCCCGGAGGCCCACGTACCGGATCGCGGCGCGCACAGCGCCCCGCCTGCAGGAGCCCGGGCGCGCTTCCGGGTAGGACCGCGTGATCGCGCACGTGACCGCCCGCCCCGGGAGGGGCCGGAGCCGCCGTCGCCTTCCGCGGGTTCGAGCCCCGCCCCTGCCAGGCCTTGCCCATGCCCCATTTTACAGAAGAGGAAACGGA
1 CATCATCACCCAGGCGGAGGGGAACATAAATAATAGGGATGAGACAGCAGGCTCTAGGCGGGGCCAACTTCTCAAAACTGCTGCTGTCTTCTTGAGAGGAAGGGGGAGTCATGTGACTCTGTGGTTACTGGTCACCAGGACAACGCAATTGACGTGCCCCTCTACTCTAAGCTCTAAAATGAGCTGTGTCTTCACAGCAGACCCACAAGGATTTGGCAGAAGTTTATAAATGAGAT
0.5653136893748637 GCGCTCCTCACGACGTTTTACAGCGGCTTCCAACAGGCAGTTGGAAAGGGCAGCTGGGGGCGCGGCCAGGAGGGCACGTGGTGCGAGGGACTGGCCGCGAGAAAGCGGAGCCAAAAGGGGCGGGAGCTGTGAGTCACTCCCACGCAACAGGGCAGAGGTTCGCCCCGCCTCGGCTGGCAGGGAGCTAACAGGGGAGGCGCGACGGGTCGGGACGGGCATTCGCCGGCCCCGCCCCC
0.5098211762862694 GGGCATGAACAGAGCCTTGGCGCGATGCTCCTTGGGAGGTGTAGTTTCCACGCGTCCAGCTCGAACGCTGATGCCCCAGCGCGGTGGTAAAATGAGCCCACGTGATCGGAAAAGCAGCGGTTTCCCTTTGAGCCGGAACAGGATGACTGGGTTGACCGATGCTGGGCAGCTGAGCGGACCAATCGGCCCCCTAGACTGAGACGTTGGCGTTTGAAATCAGCCAATGGCAGGTCTAC
1 TTAAAAAAAGAAAGCCATTTTATTCTACATTATTCTACAACACAAAGGGCTGTGCTCCAGTGAAATTTGAAGTGCCTCTTGTGGATTGTGCTTTGGGTAAAGTTCATTTAAATCAGGTACTTATAAATGTTAGGTCGATTACAAATATGGTGTCCCATTTTCTTTTCTAACCTAAACGAGATGTTTTAAACGAGTCTCATTCTATCCGGTAAGAATAAGGAAGGAGGCAAGTAAAC
0.819863526078603 GCACTGTGCTTAGAGACTTACTTGAGGGACTGATGAGAGCTTGCTTTGATGCAACCTTGAGTATTTTTGCTTGTTTTTACTTTTTCTGGACACATGGTGGCGGTAGTTGTCTAGAACCACGTGACTCAATTCAGTCTACACTTGATGTTCCAACTGAAGCTTCAGGGTTGTCCTGGACCCAGGGGCTGGGGCTTGTCGGGTTTATCCTCATTCCTCGGGGGCATAGATGTGGGTTT
0.5891715004544693 GCCCAGGCACGGAGCCGCAGGAAGCTGGCACCTGACGCGCCTGCGCCCACCCAACTCGAGTTGGTGGCGCGTCACCTTCCCCTGGGATCGCCCGCAGCAGGGGCGCCCACGCACGTGCCAGTCCACGTGGCCCCGCCCTAGCGACCGTTGCTAAGGGGCGTGGCTCAGCCGCACGGAACCCGAGCCCCCGGCGACTTATAAATATTTGCGTATTCAAATGAGGCCTGGCTCCCGTT
0.7571368747987901 GATCCCTTTCTCCCGAGCCCTCTCAATTTCTCACCAGGCTTGGAGTCCCATTCTGCCCTTCCGCGGATCTGCTGTCATGTGACGGATCACATGAGCTCTATATTCCACCACCACTACCCCTCTGCCTAGTAACTAGTGACGGTACTGGCTCCTCCCTTGCATGGGTGGTCCCAAATGCTAGGCAAGGGTGGGG
0.5071994385941939 CTCCTCGGGCCAAAAGCAGAGCGCACAAATTCCAGAAGAAATTACCAACGGCGGGACTATTTCAGTGCTCCGAGAAGTATCACCAGTAACCAATCAGCAAAAAGCTCTAGCTCACGTGGTGTATATTCAGCCTATCAAGCTCCTGATATTCATGAATGCTGTCATTTCCGCTTCCGCCTCCTTCTTTCTCGACAAGATGGCCACACCGGCGGTACCAGTAAGTGCTCCTCCGGCCA
0.7593917801556257 TTATGAACATTGTGGATATAGTATGTGAAACCTTTTGTAACTGATTGTTTTGCTTTTCTTTTTGTGGAACTTGAACATTTTTCGTTTTTGAACAGAAAGACTTGTCTGTAGGAACGACAGCTCAGGCAGCCACGTGGGCTGCGGACTGTGTTTGTGGACTACATCTCCCAAAGTGCTCCGCAGGCGCGCCCACAGGAAGTCGCCGGAGCATCTCCCGCCTCCACGCCGAGGCGAAG
0.8339282468151542 CGCCGAGATTACTTTGTGATTGGAAGACTGAAAGGAACAGGCAAGACTTAAACTCGTCCACTCCAACCAGTATTTACCGAGGCCTCACGGTGGGTCAGGTGGTATACGGTGGGTAATTAGTAGCCTATCACGTGGTTTCTGTAAAATGCTTGATAGCACGTAAAACGCTTTCAGGTCGGCGTCTCGTTTCATCCTCACAACAGCCAGGTAAGGAAGATAACCCCCTGATAATAACT
0.1196220387694987 CCCAAGGAGGAGACAAAAGTCATCTTCCGGGCTGCAACATTAACCGTCATCAGCGCGCCTCTTCAGCGCGCACTGCGCCAACCCTGCGGCAGGAGGAGGCGGAGCCCCCGCTCTCGCCCCGCCCCCACCTCACGTGACCCGCACGGCGCCTCGAGGCCGGAAGCGATTGCGAGCCAGCGCGCGCGCTTCGGCGTTCCCGGCGGTCTGCGAAGTTTCCGGAGCCCGGGTCCCGCCGC
0.7728480399030105 AAATGTCAAATATAAGTCAATTCAGTCAAAGATTCACCCCTAATTTTATGAAAGTACTATAATAAATTTAATTCATTGATTGTATTCACTGATACGTTCATCAAAAGCATTCAGATCATGTGATGCATCACATGGCATTCACCTGCTCTAAAGTCTCCAATGACTTCTCACCAGAAGAATAAAACACAAACTCCTTAACGGGTACAAATCTAAAGTCCATGTTATTAACAGCTAGG
0.140603450300812 ACCCCTTCGACTTACCTTGAGCAGGCTCTGGAGTGCTGCAAAATGCTCCGCTGTCAGGGCAGCCATCTTGCCGAAGTCACATGACCGTGGCACCCAGGGAAGCGAGGTCACGTGGCTGTCGCTGTTGTCGCGGGGCCTGCCGGGGGCTGTAGTCCTTCAGAGTGGGGGAAGGCGTTTCGGTTGTGGTGCTGCGGCA
0.2262244863172027 CTGCATGACTTCTGTCCTGTGCTTTCTTTCTGGTAACAGAATTGAGATTTTTCTTCAGGGCGCCATTGGCCCTTGAAGTTCAGATGGACCAGACTTTGTCTTGGTTTCAAGACAGGGCATGTGATCAGGCTTGCCCAATCAGAACATGACACTCTGTAGTCAGGTGACTGGCTCAGGAATGGTCATGTGATTCAGGCTGGGCCAATGATAGCCTTGGCTGGGACTTCTGCAGGATT
0.6622390082862485 AGTGTAAATTAGCCTGCCTGTCTTGTGCAGAAGAGAAACTGAATCTCAGGGAGATCAGCTTTGGACTCATCAGCCACCTTAACAGTTATGGCCACCCAGATAAAAGACTACATTTCCCAGCCTCCATTGCAGCTAAGAATGGCCATGTGGCCAGGCTGTAGCCAATTAGACATGAGTGAAAGTGATGTCTATAATTTTAAGGTTGTGCTCATACATGGCAGAGGTGTAGCATCCTT
0.7225039940825528 CATTGGAAAGTGTGTAATAGTCACTCAGGTGATGCTCTGAGTGAAGACAAACCTCCTAGCATCACCAGAATCCAAGCTTCTTAATAAAATCTCAGCTGTCATCCCGTGACAGCTGGCAGGCCCAGTCACGTGGGCTCCAGCGTCTGGTGCCTTAGCAGTTGGATGCTGGCTCCCTCTGGTGGCCTGAGGTGCCGCTGCACCTAGCTGGGTGCCCAGCTCCCAGGCTGCCTCATTCA
0.4072074496413609 AACCCGCCCTCGACACCCGCCGACGGGCGCTCGCTCTCTCACCCGGCTCTATAGCAGCCGGGAACACCGACGAGAAGAAAGCCGAGGGGAAGCGGAAGTGCCGGATCTGTTTGGGTCACGTGGGGGCGGATGTCGACGGGTGCCGCTGAGAACCATAAAACTTCTGGCCCTGCTGCCAGGACTTTCCGTGGGTGGGAACAGGGAGGCAACCCACCAAGCCAAGGCGCCAGGCTGCT
0.05691948765146111 GTGGTAAAAAAAATAAAATATGCTTATTAAACGTGTGTTAAAACAATACACACCTACTCGCAAACGTAGCAAGAGAGGTTGCTTTAAGAAGCGGGAATCTTCAGCGTCACGTGACCGCCGGTCTCTACAGTCTGTTCACACTGGCCAATCAAGAGCCAGGAAGCCTCCTGGAGGGCCGGAAACTTTCCAAGGCGCCCGCCGACTGGCTGTATTGGGGAGGGCGGGGCCGGGGCCCC
0.01016850377296156 TGAGGCAGAGAGAGGAGATGGGAGGTCCAGGGGCGCTCCTCGCTACCCTCGCCCCCTTTGTTCTTAAACCCCCCTCTCACGTGACCCCGACCCCCTCCAGCCTCACGTGACCCCTGACCCCCACATGACCCGACTCCCCCATTCTAAGGGTCCCTACGCTAGGCCTAGCCCGGGAATCCTCTGGAGAGCCCCTGGTCCGGGGCCCCACCCCCTCGGCGCCCCCAGCGTCACGCCCG
0.9111017755651408 GTGTGAGCCACCTTGCCTGGCTAAATCTGGTTCATTTTCTTCCTGACACACAAACTACAGTTCCCAGCTTCTCCTGCAGCTGGCTAGGTCCCTGTGGCCATGTGACCTGTTCTAGCCAATCAAATGTGGGCAGAAGGAACATGTGCTCCTTCCGTGGCATTCCTATGTGCTGTGATCTGGAAGGCCACATGTTGAGGATGGCAGGGCTCCACGATGGAGGGATCTCAGGTTTCAAA
0.5887908191262151 TCGGGAGGCGCAGCGTCAGGGCGGGCGGCAGCACAGAAACCCCCCGCGCCGCTAGAGGGACCCTCGCAGCAGCTGCGCGGGCGACCTCGCGGTCACGTGCGGCAAGGGCGGGACCAAACGAGCGTCCGGCCAATCGACTATGCCGTCGGCGAGCGTGATAGCCAACAGGAACCGGGAGCGGGGTCCCGGGACTGGGAAGAAACGGCGGCCGGGAGGGGGCTCCGGGGACCATGGGG
0.7127677415561293 CAATCTCCCACCAGATTTCGGTGGCAAGAGGAAGGTGGCAGCCAATGAAGAGGCTCGGAGCTTGCATCATCCTCCTGACCAGGGTGGAATAACCAGGAGGCAGGCGCACGTGACCGTTTCCATGGTGACCTCCCTTAGCAACCCTGACTGGTCCTGTTTATGAACGCTGGAAAATTCCAACCAGCCTCTGTCCTGATTTTTTTACCTACTCTGCCTCCGCCTGCTCCAATGCAGGG
0.1280600994838696 AGCAGCCATCAGAGATGCATTCTTAGCTGTCACTATCCCTCACTCTACCCCTTGTCAAGGGAAGGCTTCGGCAGCCATGTTCGTATGTATCACGTGACCCCCTCTCTCGGTCACTGTGGGTTGGAGGAGGGCTGATCACCTGACCCAAGTTAGCCAATCAGAGCTCTCTCCTGACACTGGCTCAGGTTGAAGTTCTAGAAAATGTTAATTGGGGGAGCTGTGGCTGGCAGAGAAGG
0.395057304663108 CCGCCCCTGCGCCTTTAGATTTCGGGCAGCAAGTTTAATTGCTCGCTTGGAAAGCGTCCTCGGAAGGGCACCGCCAGCAACTGCGGCTTCGCGCCCCGCCCCTTCCCCCAAGCCCCGGGCGGCGTCACGTGACGGCTGAGAAAAGTAGGGGAAAGGTCAGCAGCAGCCCCGCCCCCAGGCTGGCGCGTCCCAGGCGCTCGGATCCTGTTCCACCCGCCGTGCCCACAGAGACCTTC
0.3368821869869584 GGCCTGTTACCACGGCAACCAGTGAGGGCGGAAGTGGCTCAGAAGACCGGTTCTCCCTAATCAGGTGACTCTCCCGCCTCCTGCACGTGACACCGGAGCCCAGAAGCGCGCTCTACCTAATCAAGACCCCACCCCTCTTTCCCTTTACTGACAATTGA
0.4839137098265959 CTGTTCCCCAGCCCTTATTCACCTTTTGGCGTAGCAACCAACCCCGGTTGCCTAACATTCCCAAGGGCCGGCTGGGATAACTGCCCACTCCCTGGCCTGCAAAAATGTAGCTCTTTTGGTCACGTGGGTTCAGCGGCCCCTCTAGGAAACTCGCCAGATCAGGTGAGGCGCGCCAGTGTGTTTAAGAGACGTTGCAGAATAGTAGTCCGCCGTCTCTCGAGCGCTTACTAGTCGTT
0.1563955627777601 CATGCCCCGCCCCCGGCATGCGCGCGCACGCAAGGCGCGCGGCCCGGGGCCGAACAGTTCTGCGTGCTCCCGCGCACGCCCGGCTGACCAGACGTCGGTCACGTGATCCCGGCCCCGCCTGTCGCTGTTGGTCAGCTTCACAGCCGGTGGAGGCTGCGGGCCGCGCTGCCAGTGTCCGGGAACTGGGTTTGCGAATCCTGGGAGCCGCGTTCCTGAGTCTTCTCCGCTCTCTGCCC
0.4841733738199501 GGGGGGCCGCGGACGTCACTCGGGGAGGCGGGGCGCTTTCGCCGACCGGCGCCCGGCTCCATGGCAACCGCGGGTCACGTGCCGACGCGCGTCACTGCCCGGAGCCATGGCAACCGTGACCTCACCGGCGGGCTCGACCTTCCCGCGTGGGCCCCGGTTCCTGAGGCGCTGGCTCCCGGGTGCCCCCCTCCGGGAGCTGGCGGTGGGAACCTTCGATGGGCCCCCAACCTCGAAGT
0.1963810618584466 CAGCAGCGGGACGCTGTCACCCCGACTCAGGAGCTCCTGGGCCCGCGGGCTCCCGGAAGCTGCCGACCACGTGATTCGCTGGCTCAGCTCACGTGACAAAGCTCCCGGAGGTGGGAGCCCTGGGCCAAAATGGCGGCCTACCTGCAGT
0.4574058340874162 GGTGTTTGTGGTAAAGCCTAAGCCAGTGCAGCCATCCCCGTCGCCATGGCAACCCCAGCGCGGTTGGGGAGGACCCGCTCCTCCGGCGCCCCCTCCCATTCACGCAGCGGACGTGACACGTGCGGCGGGGTCACGTGTTGTTGTTGGGCCGGGAAAGCTGCTTCCGGGTCAATGCAGGACACTGGGCTCCGGCGGCCAGAGTGGGGGACTAGGTGAAGCGGCGCCGGGCCGGGGCT
0.4058596967841291 GTGCAACTCTACCTATCATGTTCATATTCTAGGTAGAAACTGGGGAAAAGAGAAAAGGCGGGAAAAAGGCGTTTCTCTACAAAGATCACACATAATCTTCTGTCTGCATCTCATTGGTCGGCATTTAGTCACATGGCCATAACTACCAGCAAGGGAAGCTGGGAAATGTAGTTTTTCAATGGCACATTGCTACCCTTAATAAAATAAGGATATGCTACCAACAAAGAATGAATATG
0.3756621538866004 CGGGAGGGGAGGGGGTCCCGGGCCGGGGCCGGGGGTGGGGTCTGGCACCGGAGCTTTCAGTTTGTTCCGCTGTTTGAAATTGGCGCCGGCGGAGCGTTAAGGTCACGTGACGGAACGTCGCCAATCGGCGCCGGCCTTGTCTCGGCATTCCGGGCTCGAAGGCTGTGCGGTCTGCCAGGAGCTGCGGCCCCGTCCGGCCCGGGCTGGTAAGGCGGACCGCAGGCCGGCTTGTGGGG
0.7734675228855757 GCCCGCCAGCGCCCCGGGGCCAGCGTCTGGAGAACTGTGGACGCGCACGCGCGTAGGACGGCGAGCAGGCCCCGCCCCTCCCCGGCCCCCTCTCACGTGCTGCTCAGCGTGCGCCCAGACATGTGCGGGCACACGTGACAGCGCCGCGTCCGGCCCCGGTTCCCTAACCCCGCGCGGCTGTACTTTGAACCCAGGCGTGGGAGACTGGAGCAGGGAAGGGAGGAAGGAAAACCAGG
0.8431066923904837 AACTAACAGGAGGTAGACTGGGAAGGAGCATGGCAAAGTCACCCCTTTTCACAGGGCAACGCTCCAAAGACCACGCTCAAGCTGGGGTGGCAGGGCTCTGAACATGGGGCCCCGACCCGGGCCTCGGCCTGGGGCCACGTGACGCGCGTGTTTACGTTGAGTGACGGGCGCTGTGTTGGGCGGGCCTTGGCGGAAATCAACTTCCGGGGGCAGAGGTGTTCGAAGCCGGGTGGTGC
1 GGAATATAAAGTAAAGGAAGAAGAAGGCAAATAAGCTTTGTCTTTTTATTCTGAAAAGGACACTACCCTCAGAAACCACCACCTTCATCTTATTGCTAAAAGCAGCGTCACATGACCAGCACAAGTGCAAATGAGGATGGGAAAGTGAGTTTTTAAATTGAACACATGGCTATTTCAAATAAAAGCAGGGTTCTATTACAAAAAATGGGGTGTGTGTGTGTGTGTGTGTGTGTGTG
0.6573396932048277 GAGGAGGGAGGGAGGGGGCGGGGAAGGCCGCACCGCCGCGCTCGGGAGCCGCCGCCGGATCCCACGCAGCCTCCAGCTGTCGGGGAAACTCCTGCCTGGGCGCACGTGACCCTCGCCGGCCAACCAGCAGCCGCGCCGGAGACTTCAAACGCGGCCAGCGCGGCCCAGCACCCGCGGCGAGTTAGCCGGCGGGCGGTGCGGGGGTGGCCGCGGTGGCCGCGGCTGCCTCGGGCGCC
0.8248826515593827 AGGTTTCACCCAGAAAGAGGAGGGGCCAGGCTCCTCCCTGCAGACTTCTGTGGCTCCACCCCAGTGTGCAGGCCTGTAGGGGTTTTGCCGAGTAGCCTTTCCCACGTGACTGTCTCAGTGTAGTACATGTGATGTGGCCTAAATTGGGAAATACCTAAATTAGTAGCTACCTGTGAATTTGTCCTAACTTAGAGAATCTTTTGAAATGACTTAAAATTCTTTGGGTTTTCAGCTCA
0.05427323393774307 GTCAAAGGACCTACTTCCGGAATGCACCTCGCTACACCCCGTAGCCGAGTTAACAGCCAATATGCGACCAGAAAAAACCTTGAGGCGAGGACGCAGGCGCGTCACGTGACCGTTGGGCGGTGGAGTGGGGTTAGAAGTTCTTTCTTAAAAACCGTGTATCTTCCCGCGAGAACCGGATTGAGCGTTGGCGCCCCGGGTCAGGCTGCGAGGCCGCAATTATAGTGGGATGGGGCGGC
0.6258320855312511 CGAAAACGAGGTCAGGGTGTGAGCAGGCGCGGCAGCTGGTGCAGGAAAGTCGCTCACCCCGAAGCTGCCGTGGGCAAGTTAGAAGGAAACCAAAACAAGCGCCGCGCCCGGAGCTGCCCACGTGATCACAACACAGCACGTCTAACGCCAGGGAGCCGGGCGCCCGGGGAACTACTGAGCCGCGCCGCGCCGGGCTCCGCCCCCCAGGCCGCTCGCCATTGGTCCATTAGAATGGG
1 TTGGTTTGAACTTTTGAATCCGCCAATCAGCGCCGCGCGCCCCCACTCCGCGGGTGCGGCCGGGCGCAGGCCAGGGCTCGAAGGTGGGGCCGCAGCGGCACGGGGCGGGGTCTGGGGCCCGCCCTCCCGACACGTGGCCGGGGACCGGGTATATAAGGCCCTTCGGGGCCGGCCACCCTTTCACTACTTCTCCCCCGGACTCCTTGGTAGTCTGTTAGTGGGAGATCCTTGTTGCC
0.3153075559235686 CCGCAGGCACCGTCCCTCTCCCGCTGCAGCCTGAGGAACGCGTTCCGAGGAACCCCTAGCCACAAGTCAGGACCGCGTACAAGATGGCGGCGCGTCACGTGGGCAGCGCGGTGACGCAGGACGGCGGCCCGCGCGGAGGCAGCGCCATAGCCTACCCCAAACGCACACTAGTGCTCAGTTTTGCCCCCCTCCCCTCCCCCGCCCCCGCCCCCGCCCCCAGGCTTGTGTAGATCATG
0.05829393759796365 ACCTGAGATCCAATCAGCACAGACTTTTTCCCTTTCGCCCCGCCCCACCTCGAGGGGAGGGAACCCCAGGAGACCTGGCCGGGGCATCACGTGCGCAGAGCGGGTCACGTGGGCGCGGGAGGGGTGCTGAGAGGTGGAGAGCGGGAGCCGGCGGATTTCTTAATGAAGTGTCTCCGCATGCGTAGAGGGAATGTAGGGAGGGAGGTGGAAGCACTAGGAGGAGGGGAGGGGTGGAG
0.9045918590699338 ACCCACCCCCGCCTCCCAGCACCACCACCACCACACACACAAAAAAATTGGATACATTTTGAATAAAGCGATTCGGTTCCTTATCCGGGGACTGGGTTGCTCCGTGTGATTGGCCGGAGGAGTCACATGGTGAAAGTAACTTTACAGGGTCGCTAGCTAGTAGGAGGGCTTTATGGAGCAGAAAAACGACAAAGCGAGAAAAATTATTTTCCACTCCAGAAATTAATGATCATGAG
0.8038407451044406 AAGCCCGGAGGAGCCACCGGCCCTCTGGCGCGGGGCCGCAGCCTTTCCGCCACCAGGCTCAGCTGGACCGGTCCCCGCCTGCGCGAAGAGCGAGGCGGGGCGAGCCGGGCTGGTCCACGTGACTCCGAGCGAACTGGGGCGGAGATTGGTGAAGAAGGAAGGAAAAGGGAAGCGAGTGCAGGGACTGTTTTATGTGAGGTCGATCTAAAAATCACAGCGCTATGAATTTTCTGCTG
0.2003800989281673 ACTCACATCCAGCTCCACCCCGGGAGATGCCCCAGAAGCCCCGCCCACGTCCAGGCACGTTCTTCTGGGGCTAGTCGCAGGGGCCGCCCCGGCACCGGCGCTCACGTGACCCGAGGTGTGACGTAGGAGGAAGGAGACGCCATTAGAGGGAGGCAGAGAGGGATCGTTCTTCGCTTTTCCTCCGGTGCCTGACGTGGTGGGCTGGGGCCCTTCATTCTCGGACTTTCCCTCAGCCC
0.07218153490256354 GCCTTTCTGGGCACCCAGAACCGCGAAGATCCTTCACATTCTAGTGCCCTCCCCCTGCCCCGCCCGCCCCCCGGATCACGGGCTTCGGCCACGCCCTCTTCCCGTCACGTGACGGTGCGCGGAGGCGGTGGTGGAGTTGCTTCCCCTGCTAGGCGGGCTCGAACCGGGCGGGAGTCACTGTCCACCTTGCTTCGCCAGGGTGTTATCGCCAGCCAGTCCCCTTCCGCATGCCCAAG
0.894864812691845 CTGCAGTACCCAGTAACTAACCAGGTAGAAAAGCAGCCATCTGGTGTGTCAGGACTGGGGTGAGTGGGGTGACAGAGAGTTGTGAAGGGAAAGTGGAAGTGGAGGCAGGTGACTACACCTTCAGCTGACCTGAAGTCAGCTGACGTGACTTCAGCTGATGTGATGAAATCCAGCTGGTTTCCCAGGCTGGGATGCCTTTTGCTTTCCACAATAGGAATGGCCAGTAGCTGCCAGCC
0.8244001655081328 AAGACTAACAGTGTAATAGTGCAAGCCAAAGATGCGTAATGAGTGATGCAGATCATAAGTGCAGTAGAGACTTGAAAGGAAGGGAAACCACAGTGGATTACAGTGGTCAGGAAGGGCCTCACGTGACATGTGAGACTTGAACTTTGAAGAATGTTTAAGAGTCAGTTAAGGGAAGACAAGAGAGCATTCTTGATAGATAGAGAGATGGATAGAGAAAATGGAAAGAGCAAAGTTGT
0.3360390871198886 ACCTTTACCGAAGGGAGTGAAAAGAACACCTCACCCAAACGCCCGCCCTTATGTGCGCAGCCCCGCCTCCTGTAGGCCCCACCCCACCAAAGGGTGCGCCTGCGCCGTTCTTTTTTCCGTCCACGTGACCCACTCAGGCTCCTCCTTGTCTCCAACATGGCGGCGCCCAGGGGCTCAAGCCGCACGTGAGAAAGTCTGGGCATCTGGGAATCGGAGAGTATAGCCTGTGAGCCGCT
0.6135959197346501 TGACGTCGGCAGAGCGCTCCTAGTCCCCGTCTTCTGGTCCTCCACCCTTCCCGAAAGGCCAAGCGGCGGAGCTGGGGCGCCAACGAGAAGGGGGTGAGCGTGATTGGGCTGTCCTACATCACGTGACGGCCAGTACGCGTGGGATTTGGCTCCGAGGAGGCGGAAGTGCAGCACAGAAAGGGGGTCCGTGGGGGACGGTAGAAGCCTGGAGGAGGAGCTTGAGTCCAGCCACTGTC
0.7472514196954099 GCCTGAGGGAGGATCAGTCTCTGAACTAATATGAGTTCCCTATGTTGCTTTAGCCACTTTGATTTTGCCTTGTAATGCAGTGAATTCTAACAAACACATCACGTGATCCAAGTACCATGACTACAGTTACTAAATCAAAAACAAATCCCGAAACCAAAAGCAACTGTTTGAAGGGAACTTATCCTCTACTTACTTATATAAGCAGAGAGGGAACTTCCGCTTTTCAATAGAGAAGC
0.9680181941423439 CACCCTCTCACCCTAGACAGATGGGAGCCTCCTGGGGTGTCCACGTGAGCGCGCGTGAG
0.2968729570646581 CATTGGCTCTAGTTCTGGCTCTCTAGCCAACAACACAAACGTTCTGTTAAAGGCACAAGTTGGAAGGGCACATCTCACTTTCACCCGTGTCTCATTGGCCACACCAAGTCACATGCCCACACCTAAGTGGAGGCTGGGAAATGTAGTCTCTGGCTAGGCAGCCATGTTTCCAGCTAAAACTTTGGATTATTATTGAATAGGGGAGGAAAGATGTTGGGGGACAATTAGTGGTCTTT
0.7165511567447822 GTCCAGCCGCCGGGCCCTTGTCGGCCGCCATTCGGGCCGCGCGCTGGGAACGCAGAAGGGGGCGTGGCCTGAGGAGCGCACCAACTGCGTGGGGGGGGGGGAGGTGCGGTGACCACGTGACCTCCGCTGAGCTTTCGCCAGTGCCTGCGGCCCTCGGCGGCCTAGTACACACGCACCTGAGTGAGTGGCACCAGAGGACCCTCTCCATGTTTAGGGACCTCCTGGGCCTCAGGAGC
1 CGCGCTGCCGCCAGTTGTCACCACAAGGCACAACACTACCGGGTCTACATCTCCGCCCGCCCTCACAATATCCCAGGAAACAGACATCCGCGTGCTCGCGGCATTTGTTAACCAATCAGAGCAGTCTGTCAGAGCACATGGGAGAGCGACAGCCAGTCAGAATGTACAAGAGTGCGGGGAGGGGTGCACCAAAAGACTGACTCCCTACAGAAACTTTTGCCGAGTGGGAGCAGGTT
1 CCTTTGGGGACACCACTCTCCCACTCTAAACCCCCAAGGTTTGGGTGGCTGACTCCGCCCCCTGGCAGGCCTACCCAATCAGTGTATTCTACCCACCAGGCTGCTGTGATTGGGTCAGTGCAGGCCACCTGACCCAAGTTGGTCCAATGAGACTCCGTGTAAGTCCATTTGGGCCACCACACCCACCCGGGCCTGCAAGGGGAGGAAGCTGACTTAAGAAGGAACTCAACGCAGAG
0.2630573676295048 AGGGGACGGGACCATGTGAAAAGGTGGGATCGTGCGAGCGGAGGAAGGACAGAAAAGCGAGGAAAGTCTATGCCGCCAGCGACCGGCAGGAGGCACGTCGGGCACGCTCGTCACCGTTTCCTGGCACGTGACCACCGCCCTGCCCTGTCGCTTTAGGGCCTGTCGCTTCCGGCGGTGGCGGTTGCCATGGGGACGGAGCTTGGGTGGCAACCAGAACTAGGGAGCTGGTGGAGAAG
1 AGACATCCTTTGACCTTGTCTATCCAGTTCTGTTTCCCTCTTCTTCCCATAGGGGTCTCCCTCCCTCCCCGTCCTTAAGTGGGGCGGGCACTTAGCCCAGGGTGGTGATATGACCCAGTCCTATCCAATCACCATGGTCCCGCCTCCTGGCTACCACAATTGGCTCAGGGATGAGCACGTGGCCCATAGCAGCCCAGTGAGAGTCAGCCCTGGGTGGGAACTGGTGGGAAAGAATT
0.5267907422764807 CGGAACCCAAACGGTCCATTACCGCGGCTCTGGGGTGGGCGAGGGGTGAGGGGGCCGGGTTTCCGCGAAGGGGGAGGGGGAAGGCGAAGGCCACCTAGGAGAGTCACGTGACTACTGTTTCCGCCGGCGCTCACGGAGAGCTCGCGGTAATTCCGTTTCCCCGCCCTTTTTTCCCCGCGGCCTGTCGGGAAGAAGGTCCGCGTGCCAGGGCTATCGGGAGGTCGGCCGGAGGGCCG
0.4881999337153061 ATTCTGGACCCCTGACTTCTAGAGGCATATTATCAGAAGAGGTTTTAGCAAACATGGAACTACTAGTTGCCTACCCAACATCGTTCTTCCCTATTCTAGCTAGTGAAACTACATTTCCCAGGCTCCCTTGTGCCTAGGGGTGATCACATGGCACAGCTCTGGCCAATCAGCTGTAAGTGGAAAGCCAAAGGCGCCTTCTGAGATTGTTTTGCTTTCCTTATTTAAGCAACACTTCT
0.481884040704644 TCTCAGGCAGGCTCTCCCGTCCTAAGGTAAGAATCTCACTGATACCCGACTACATCATGTGACCCTCCTTTGGACCAATGACTGCTGTCAGAGGATGGGATGACCTGATTGGCCAAGCCTTGGTCATGTGCTCCTCCAGGAGCCAGGGAGGCGGGGTCAGCCCCACCTGAACTACAGATGATGAGAGAAAAGAAGAAAGCTGTTTTCCTCAACGAGATCCGGGGCGCCATTACCAG
0.540854131636382 TTCCTACATGCACACGTCCCTCATGCTGCCTTGCACAGTTCCAAGGAGGAAACCAGACTCCATTTCCCAGCATCCCTTGCAGTCAGGCCCCTCATGTGACCCGAATCCCATCATGTGACCCAGGCTCAACCAATCAGAAGTCTCCCTTGAGCCTCTGCTCAGGAAGAGGGTGAGAAGATGGCGCTGGGCAGGTCCATGTGTGGGCGCAGGAGCTAGAAAGGCCTGGTGGATTCAGG
0.3464032534889723 ATCCAAGATGGCTTCAGGCATCCACTCTCCTTCAGGGGCAAGTGGAGAGAAAGAAGAGGGCAGGCTTTAGGGGCATGACCTGGAAGTGCTATGCACCATTTCCTCTCTCATCCCATTGGCCAAAACATGGTCATGTGACCACGCCTTGCTGCAAGGGAGCATGGGAATTGTAGTCTTTATTCTGGGAGTTCGTGTGTCCTGCTAAATCCTGGGGACTCTATTGCCACAGAACAAAA
0.9411840886220465 AGGAGATGAACTGTACTCAGGAGATCCAGGGCCAATCCCAGGCCCACGTGTTTTGCCCGCAGCGGCTCTGACTGGCTGTCCACCTGCTCTGGCAGGGTCACGTGCCCCCAGCCTGCAGGCAGTGGGTTCAGTGGGTTTTGGTGACTTCGGCTTAGACCAGCTGGCCCCTCAGGTCATAGTGAGACAAGTCTGCTGCTGCGTGGCGTTAACACAGCCACAGCACCCCAGGGTGGTTT
0.3372985115174781 GCCCAGCCTTCCGACGCACAGCATTCTAGCACCAGAGCAGTCCCTTCCTCCAACGCAGATCCCTGCCCTGCTGCTTTCGCTGGGAGCGCGCGCTCCGCGTTTCCAAGGCAGCAGCCCACGCCGCCCCACGTGACGGCCCCGCTTCCGGGTCTGGGCGCGGCCTCAGGACGTGGGCACGTTGTCGTCCAGAGAGCAAGAGCGTCGCTCCCCCTCGCCTTCTCGGCCGCCCTCCCGGT
1 AAGTGGTGGGTTGGGGGGGAAGCCGGGTGCGGTAGGCTCACGCCTGTCATCCCCGCACTTTGGGAGGCCAAGGGCAGGTGGATCCCTCGATCCAAGCCTTGGCAACATGGTGAAACCTCGTCTCTAAAAAAATACAAAAACTAACTGGTTCCATATCCTGGACTCAAAGTTAATAAATAGATAAATAGGCCGGGTGCGGTGGCTCACGCCTGTAATCCCAACACTTTGGGAGGCTG
0.2193528440673189 ATGCCAGGATTTTCTTCCTGGTAGTAAGCATTGGCTAATGATTGCCAGTCGGCTTCTGCGTCTGTGTGCCATGTGACCTGGACACGTGACTTGGAGCCGGCTGTGGTTGTTACTTGTATTTGAATAAGAAGATCAAGCTTATTATTGCAGTAAAAGCCTGTGGGA
0.3658525137717473 GCCTGACAAGGAATTTCCTTTCGCCACACTGAGAAATACCCGCAGCGGCCCACCCAGGCCTGACTTCCGGGTGGTGCGTGTGCTGCGTGTCGCGTCACGGCGTCACGTGGCCAGCGCGGGCTTGTGGCGCGAGCTTCTGAAACTAGGCGGCAGAGGCGGAGCCGCTGTGGCACTGCTGCGCCTCTGCTGCGCCTCGGGTGTCTTTTGCGGCGGTGGGTCGCCGCCGGGAGAAGCGT
0.5636811352568328 CAGGTTCGTAGGTCGCCCTCGAATTTAAAGCTCCCAAGGCTGAGTGGGTCCCGGCCAATGGAGAGGCCCCCTTTAAGTCATGTGACCAGCGGGGCTGCCCCGCGGGCTGCTCCGCGGGCTGCACTGGAGCACGTGGGAAGGCTTTTTTTCCTGTTCCTTCTTTCCCTTTTTAAACGCCCACCCACTTTTGCGCGGGCTCGGCCGCGGAATTTTTCTCGCGAGAGGCGCGCTGCCCT
0.8908685743469447 CCCGGCGGTGTCACCACTTTCTCAGCCCCTCTCGCTACTGAAGCGCTTTTCTCTCTCACACTCCGGTTTTAACTCGGGCAGGGGCTGCGGAGGCTCCGCCCCTGACACGTCCCCGAGCCACGTGATACACCGCCTCGCCGTTCTACTGGTCAGGCCCTATCCTTTCATTAGCATATTTAAACAGCTCAGGGGCGGGGGAAGCTTGTAGGCCGGCTCCGGGGACAGTTATTGAGCAC
0.776887176279018 GCCAAAGCAGATTCTTGTCACCTTCATTCTCAGTGTTGGGGAAGTATGCTGCTGGAGCGTGGCCTTCACCTTTTCTATGGCCCCTCTCAGCATCCGAAGCACAGCAAGGTATCACATGATGTGACTGTCACTAGTAAGCTCATGTGACATGACACAGGGAGGACTTATCCAAAACAATAAAGGGAACTGAAAGTCAGAAAGCAGAAGTGGCCACATATTAGATTTTGTATGCATTC
1 GACAGTTATATGTGGCTTCTTATTGTGGCTTACACTTCCTCAGTAGATGGTGGCTGGGTTCCAAGAACAAGCATTCTGAGAGAAAGTCAGATGGAAGCTCTATCACCTGTTATGATACTGTCTCAAATGTCACATGGTATCCCTTATGCCATATTTTGTTGTTAGAAATGAGTCACTAAGTTTAGTCCTTATTCAAGAGGAGAGGAATTCATCTCTACTTCTTGATGAGAGGAGTT
1 CCCGCCTGGCAAGGCACTGGGAGGTGGGCTTGCGGATCCTACGACTAGCGTTTTTCTCGATTGGTTGAAGGAGTAAAGGCACGTGGTATGGGGGCGCTCTCTTATTGGTCGTGAATGGTACCTTGTGGTACAGAGACGTGATGTGGTTGGCTAGAATGAATCCCAGCTTCCCACTAGATGCCCCTAGCTGGCTGTTGCTATGAGGAGTCCAGGGCCTTCCGGCTGCCGTTCGGGAT
0.8963272037010895 AGGGGGCAGAGGACCCTGTGCGGGGGTGGGATCAAGCACAAAGAGAAAACTTTCCCAAAACCCTTCAACAGACTTTTTTGTTTAAGAAAATAATAATGTTTCCGTCTCTGAACACCAAGTCAGGTGACCCGTTTTTCCTTCATGTGATTTGTGAGCTATTTCAGAACCTCGTAAGTCTCTCTGACAGGTCAGGAATGGGGAAATGAGAAGTGTCATCCTGTAGAGTTTCTCTTCTC
0.3488528577052267 TTCCTGGTCCTGTGAAGGCAGCTCTCCTTTTCCATTGGGGAGCGACGCACAAACGTCAACTGTCACATGACCTGCCAGATGCTGCTGGGCTTGCAAAACCTGCACGTGACTAGAGGTTCTGCAAGCTATTGGGAGCGACGCCCATCGCGCTACCTCCAGACCAGGAGGTAGGGCTAGGCTGCGTCT
0.2637476665826859 GAGAGAAAGAAAAACGAGGGAAAATCAACAAAATGTGCGATGCAAAGAGTCGATTTTCGCGGGGTTTGTCAACTTCGCCACTGCCGCACGCGAATCGACGTCGTCACGTGACGGTCTGCCTCCGCCCTTATTAACTCTCAGCCCAGCGGCGGTTTCCAGGACCTCAGACTTTTTGCCGAGGCGGCAGTCCCTAGACGAAGCGAAGGAGGCGGCGCCTGCCCCGCCCACAAGAGCTG
0.3725259786684449 GCCAGCAAGCTGCTGTTCCACCCTCCCACCAACACCAAAGCTCTCTAGGCATGTGGCCTCTAGGAAGAAGAGCCAGGGGAAGCACGGGGTCACGTGGTCCTGGGTGTGGGGGCAGTTTCTGATGGGCGAGGCCTTGATAGAGGAGGAGAGTAACATCCCCTTCATGGTCTTTGCTCTCTCGGGTTTACTCCACCTTGAGTCCAGGCCAATCAGAGCAGACGTTGCTTCTCTGTCTC
1 GGCTGGAGCTGAGCCAGCAGGGCAGGGCCCCCCTGCTGCGACAGTGGCATCCTGATAGTGAGATGCTCAGATGCTGCTGCCCTCTAGTGGCCGCCAGTTCCCTGCAACTCAGACCACGTGATTTCTGGGAAAAGGCCCTCCCTGGAGGAGAACTGAAACTTAGGGTGGGGACTGTAGAAAGGGGCGGAGAGATCAGCCGCCCAGCCAGGAGTTAAGCTGAGGTCGTCTGAGCCCTG
0.2239266823779456 ACTTCCGCCTTGCTCCTGGGAGGGTGATGTCTCATCACACAGGGACCAGCCTTGCCCAATCCGTCCTCAGGGCGCCGCCGCGACATCAAGAGGCGCAAACGAGACCACCGGTGTCACGTGACCCAAGCCACCAGCCCCAGACCGACGCGCTCCTCTTAAAGCTGCCACATCATTTTCTATTAAGTAAAAAGACAGTTCTATCTCCACCTGAGTACGTGCTTGTTCTCCGGAAGGAA
0.7174488166228024 AGTAGGAAGTCTTTTCCTGTCCTTAGAGAAAGAGTATGGTAGAAAAAAAGCATTATAGTTCTGGCAAGGGAAGGTAACCATGGAGATACACACACCCCATGTGGCAATGACCACGTGATGAAAAATAATATCACCTGACATTTGTGGTTGTATGTTTTTCAGGGTCAAAAGAACCTAACTCCCGGCAGTATTCTTTGTCCTTCCAGATCTGAGATCTACCCTGTTTTCCCTGCCAG
0.4600644894403387 CTATGAAAGAGATGGAAAATGGTTCTCCTTCAGAGGCGACCCAAGCTCACCAAGCCGGATTTTAAAGGCCACGATAAGCCCGCGTTTTCCTTTATCGTGTGCCTTTGGCGCGTGCGCACCACGTGACCCAGGAGTTCATTAGTTCCGGCTTGAGGGAAGCGCCTTCTTTCACAATTTCTTTTCATTGTTCATTGCGGATATCTGGAAGCCTTCCAGGTCCCCTGAATGTAGTAGAC
0.4219262979249033 GACTTTGGCCTAGTCTCAACACCTGACGTGGACTACATAACCCAGCATTCATCACGGCAAGTGGATTTCCGGGTCAAGAGGTCCGCGCTGGGTACATCACCATGGAAGCAATCGGTTTGGTCACGTGGTGCCCTTGGTTACGCCCGGTGGCAGCTGTGGGGTCTAGGGCTCAGACGGGGGCCATTTTGCCAGAGGCTGCCTCCCGGAGTTGGGGGCGGCCTGGCGGCAGGCTGAAG
1 CACTCGGGCGCCTTTAAGAATGGCACGGCGGCCGCCTCCCTTCCTGCCCCGGCGCCTGGCCCAGTCGCCCCCACCTATCAACGCGGCCTCAGCGGGCCGGCACGTGATGGCGGACGGCAAAAGGCGCGGCTCAAAATTAGACAGAATGCGATCGCCTGATTTTTTTTTTTTTTTTTTTTTTTTTTTTTTTCTTTTCCCTGCTCCCTCTAGAGGAGGACGCTCTGCCTGGCTGCAAG
1 GAGCCTCCAGCGCCCGGGCTCCCTTCCCACTGGGAGACGCCATGATGGCCTGAGAGGAGAGCCAGTCACGTGGGATTTTGTTTTCAACCGGGTGCATTCTGGGCCAGGAGGAGGGGCCTGGGGAAGGGGGGCTGGGATGCCGGCGAGCCCCCGGACCCCTCCGCCGCCGCGTGTTCCTGTCCCGGGCACTGTTGTTTTTCCGGTCTGCTGAGGGGCAACAGGTCCCGAAGCAGGGG
0.690019075148148 CGCTCTCTCACTCACACACACACACAACACGGGCAAGAACCACCTCCTCACTGCAGCACCGGATCAACGGCGGCACGCACGCCCGGTCGGCCCCCGCCACGTGACCAGGCTCGCAGCGCTGGGGCAGCCGAGACTTGTAGTTCTTGTCCCTCTAACAGACGGCCCGGGTAGCTCCAGAAAAACTACAAATCCCGGAAGAAACCGCATCCAGGCGACGCCAGCCCGGCTTGTTGACG
0.1198736492231938 TCAGGTGACAGAACCCACTCCGAACAGCGGTGGTGGGGGTGGTGACAAAGACTGAAAGCCCCACTCCTATTGGCTCAAGGCAGGGAAGATGAAAATTAAGTGCCATATTTGTTTGAGTCACGTGACGCCACCTCTCCGGGAGTAGGGAAAGCTAGAAAGCTCGGAAAGAGGAAATCAGCTACCTGGCTGCGGACCATCTCCCTCAATTGTGACAGCTCCGGCGCTCAATACTTTCA
0.1649184470857277 TTTGAGTGCATTCTGAAATTTGCATAAATGATTTATTGTACACGATTTCACAACTTGCTTTTGTTGCTTAACACTGTTTTTGTAATATAGCCATGTGATACACAGGTCACATGATACACAGGCCACGTGATACACAGGTCACATTCTTTCACCTTAGATATCCACATCCATTCAGTGTGTGAATGTACCACATGCTACCCACTCCCCTACTTATGGAAATTTTGATTATTTGTAAC
0.3963675921772805 GTTTCTCTTTGGGGGCGTGGCTTATGGAACCTCGTTTTCCCGCCGACGGTTGGCCACGTCACGTGACATGGGTTGGAAGATGGCGTCTCCCACAGACGGTAAGAGCCGGCTTAGAGATCTTTGCCTGCAGCCTCCTTCTTTGCTCTACTGGGAACATCCACTCTGTCTCTGCCCCTCGAACATACATTTCTTTCTTGGGCTCTTCTCCTTTCCCTTTTATTTTTTTTCTTGAGATC
0.691647788931005 ACGGAAAAGGGCCGCGCCGGGCTGGTGGGCCAGACAAACCAGACATGGTGCTGGAGACTCGTTCACCACCGAAGGCCTCAACCGCGCCGGAACCGGGGGGACCCACGTGACTCACCTCTGACCTTCTGATGCCGTCCGCGCCATTTTGGAGACTGGCATGTAGAGAAAGACTCTATAGCGAATCTTTTGAAAAGGGAAGAAAGGATAGGTACCATGTCAAAACCGCAAGTTTAAGC
0.7771291666359088 GACCAGCCTGGCAGGGCCGCACCGCGCCTGGAGCGCGAGGGAACCGGCATGGACACGCCGGGAGTCGGCCTCTGCTCCGGTTGTGCAGCCGCCCTGGGCGCCGGGAGGGACAGCCCCATGACCTTGTCACCTGGGCCCGGCGCGCGGCCACGTGGCTCGGGTGACTCGCATTGCCCCGCCCCCCTGCAGTGACTTCTCCAGTTTGGCACACCAGTGGGCTTTCATGTGACCTGTCC
0.1501965627044188 ACTTGCAAAGCGTTGCTGGAAAAGACGGGAGTTCTACTGACACTCCAGTCCAAAGCTAGGTGGGACCGCCTCCTGTCGCACGTTTCCGCCTGGTCCCGCGCTTTAGGAGCTAGGAAATGTGACAGAGGCGGTGCCTACTGCCTCGCTAGGAATGGCCGCGGAGGAGGACTGGTCACGTGGCGTGGCTTCCGGCCTCTGGCGCGTTCCTATTCGGGAAGGTTTTAAATGCGGAGTCA
1 GGTGCTCAAGTGGAGAAGACACAGTTGCCCCAGGCTGTGCACAGGTGGCCTGGTGCTTCCTTCCTCTGTGAGGCCTCCGTTTTCAGAGTAACAGTGGCCGCTAGGTGATGCCCGACGTCTGCCAATGAGAGTGTCAGCCCGGAATGAATTGGGATCCCCAGGGGTGGGGTGGGGGGAAGGATGGAGGCCCCCACAGCACAGTGGGTCACCGCGCCCTCCCAGGAGATCCCCACAAC
1 AAAGTCAAGGCTTGGTTCAAGCCAGATAGCACCTGAGGACAGAACATATCAGGTATTGGTAGTGTTTCTCCTCTGTTCTCTCTCCTGCAAGGCCCTTTCAGTCCTTGTCACTGCCCTTGAGAACTCCCAGGTCACATGAAGGCAAAGAAAGTAAAACTGAAACTGCCTTTGAGCCACAGGCTTGCTGGGGATGAGGTGACAAAGCTAATCGAGGTGGCAATTGGGGAAGGGGTTCT
0.07823209682867881 TGCCCCTCTCCTCCGCCCACCCCGCCCCTCCCCGGCCCGCCCCGGTACCCCGCCCACGTGCCGCACGCAGACCAATCACCCGTGAGGATGCGAGTGTCGTGAAGCGAAGAGCGAGTGAACGCCGGGGACACGTGACCTTGGTAGCGCGTCCTCCTAGCTTCTGTTAGCGGGCCTTCTGGGGGATGCTACATCGCCACCTGCTGTCTGGAGGATCTTCTCCGCTTCCCACCCATTTC
0.2101343233417046 CCGTCGTCCCGCTCAGGGTCACGTGGCCCGACGTCGCCGCGCGAGTCGGGCCGCGTGGGGGGGCGGTGCGTTCGCTGGATCCATGGGAGCGGAGTGCGCGCGCATTATTTTTGCTCGTCGGCTGGGAGCCGGGCGTCGGGTCGCTGGGAGTTTGCCTCTTGTGGCAGCATCCTGCTTAGTCCAGCGAATTGTGACACATTATTAAATGTATCAGAATATAAGAACTGTGTCACTAC
0.405871152684663 CGGGAGATAGGAGAGGGATGTCGAGCTTCCTCTTTAAAGCAGTAACAAGGCAAATTATAGGTATGCCTTCTATTCACATCCCATTGGCTGAAATTAATCACCTGACCACTCTCAATGGCAAAGGAGCCTGGGAAATGTAGTCTGTAACTTAGTGACCACATACCCACCTAAAGCTATAGTTCTAAACTACAACTAAAGCTAGGGTTTAGGAACCATTACAAAAGGGAGGAAGTGAG
0.4907226371102813 CAGGAGTCCCGCCCCCTGAAGGGCATGGGCCAATCACAATGCCTCTCCTTCCTGGCCGCTGGGATTGGTCCGAGGGTGCACATGACCGGACTGCGGGACATGTGACCGTGCCGATCTAGGTCGTGTGACCCGTCTGGTGTAGTCCTGGAACAAGGGTTTTGCTGCGG
1 CTTGGACCCGCCAGGAGTCCCTGCAGGAGTTGGGAGCCCCGCCAGCCACAGCTACTTCCCCGACCCTCCCGGCTTCCCACCGCTGATTGGACCAGGCATGGGCATCTGACTGAGGGGAGCCTATCCATAGGCTGGCCAGTGATCTATCAGGGCTGGCCTAGTGAGAACACGGCCAATCAGATGCTTTCCTGGAACCCGGGGCCAAAGCTGCCCCAGGGGAGTGTGGTAGCCGCAGG
0.8477698899119699 AGGTCTCCCCGCGCCCAGTCCGGCCCCGCCCCGCCAGCTCCCAGGTCTCCGCGCGTCTGGCCCTGAACTGAACGCGCCTGCGCCTGGGGCCCACGTGGGGCCCTCGGGCGGGCGTGGCGGGGCAAACAGAGGTTTGGACTCTCTCGCTTCTGCCTGGCTCAACTTCTCCGCCGAGGCATCCGTGCCGGGGTCGGGAGGAGCCGGGCACGGCAATTCCCGGGCGGTCTGGGCTCCGA
1 TGAGAGACTCTGTCTCAAAAAACAAAACAAAACAAAAACCCTCGGGCCTGAGAATGAAATTATTAGTACTACAGTTTAACCTAACAGTGGCTTAAAATAGTCACGCGGCCTAGCCACACTATCTTACCACGTGGTACAGCTTCTACGGCGGAAATTTTACATTCTTAATAATTGAATTACAAAAGCATTTCTCCCTGTTACCTCAATTCTGGGACCCAATCCGGATCGAAAGAGTG
0.6785797061559588 CTGGTGGCTGGTTCTGTAGTCTCCAAGGTAACAGAACGCGGCTGGGTCCCGCAGAGCGATCATCGGGTTCCGGCCGGCGGCACGTGATCTGTCGGGACTCTTCCCCGGAAGAGCTTTCCTTGCGGCATTTTTTCACGTGGTTCTTGGCCAGCTGTCCTTTGCAGTTGAAAAGCGGCGGTTTGTGGGTCATTAATAGTCGACGGCGTCTGCTCCTCTCGGGGAAGGCAGTGAGACCG
1 GGGCGGGAGAGCCCCACATCACAGGTTCGTGCCACGCCACAGACATGGGAACAGAGGAAGGTTCCACGCCAGTACTCGGCCCACTGAACGCTGCTGCTTCTGGGCATGTGACCAAGTGAAAGGGAAAATTGGGTTTCGCATCTCACTTTCCATCTCAGATTAAATACCAGATGAAGAAGCAGGCCCATTTAAAGAAGGCTGAGCCCTGGAGAAAGACAGCAACATGGTATTATCAG
1 ATCACTTATCTAGAGAGTGGGAAGTTGCTGATCTCATCACTGCATGGGGTGGGGTGAGGGAAGCAACCCTGCCCTTCCCCTTTCTCGGAAAGCAGCTGGCTTTGAAGAAAGAGAAACCAGGACGGGAAAGTCCTGATTTCTAATCTGAAACAGCGCTTTTTGTCCAGAGACCGGTGACGAGCGACCCTGGGCTCGGGTTTTGATTGGGCAGTTCGGAAACTGTAAAAGCGAATTAA
0.433363294479945 GGCGGACATCGGGTTAGGCATTTTGGATCCAATTTCTCATTTAATCCTCACGACCATCTTGAGGGAGCGCATTTTACCCGTGTTTTACGGGGGACTGAAGCTTAAGGAGCAGTAACTTGCCCAGGTCACGTGGCTAGGAAGAGACAAGGTCAGGTCAGAGCCACAAGAGGGCGCTCTTCCCCTTTCTATTCTATGTTGTCCTGTGGTTCCCGCTTTTCCTCAGGGGCACCTTCCAC
0.8322045112471066 AGCTCCTTGCCCGCCCGCTGTCTCTAGCTCTGGCGCCCCGGCTCCCCGTCCCCCTCGCTCGGCCAGTTCTTTCTCTGCTGTTTGCCCTGTCAAAACACTGCCTAGGTCACGTGTCCCAACAACAGCCAACCCACCCCGGTCGTCACTTCCTCCCCGGCGGCCTCCGCGGCCCTGGCGCCCGGTTACTATGGCAATGCCGCCGCTCGCCCCGGGGCGCTAGTTTGGGGCCGGGTTTT
0.574910117872602 CCTCCCTCCCCCTCGTTCGTTTCCTTCCTCCTTTCCCCGCTTTCCTTCCCTTGCTCGTTCCCTCTTCTCTCCCCCCCTCCTTCGAAACTCAGACCTCCGCCTCCTTCCTCACCACGTGACGCGCGGGCACCCAACTGGCACGCGGAGCCGCGCCCCTACCTCCCGCCCCTACCCGTCCCCCAGGCGCTTCAGGGGCGCGCGCATGCGCGCGGGGGACGGTTCCCGTGCTGCTAGGC
1 ACCTTAAGTGAAGGTGCAGATCAAGAGAGAGAAACCAGAATTTCACAGTTTTGTTATACGTGCAGCTCCCTTGGGAGCAACAGCACGCCACACAAGGCCACTCAGGTGAAGCCCCAGGTCAGTCACGTGGCAAAGGGGGAGAAGGGGTGGCTGTGGAAATTCTCCTTTCTTGTGGTCTCTGTGGGAGATGGGGGAACATGGCTTACTACTGGCTAATTTGAATAATTTCACTGGGC
0.1573224062906278 AAACAAAACAAAAACCCTGCTCTTCTCCAGCAGTTTCAGTTGGAAAAAGAAGGGACCTAATTGGCCTTATGTGAGTCATGTGCCCATTCCTGGGCTAGTCATGTGACCAGGGGAGCCTAAATGATGATTGGCTCAGACTCAGTCATGTGTCCATCTCTGTGGCCCAGGAAAAAGAACCATGAAGCATCCATCAGTATTGGTTGAAATCTAAATAAAGCCATTTCCAAAAATAAGAT
0.573299205265399 ACACAGCTCCCCGCCAGTCCCACCGGTGACAGCCACACAAAGGCAGGGTCACAAGCACACCGACCACCCCACAGCCCAGATTCGGCCCCAGACACACACTCACAAGGGCACGTGATCACGTGCGTGGTCACATGGACCGGCCCACTCAGAACACACTCACAAAGTCACACCAACCAAGGCAGCCACGCGCCACACACACACACCTACAACCCCGCATACCGCACACCCAGCCGCTT
1 GTGCCCTCTCAGCATCAGGAGCCGGCAGCTGCCTTTCCCTCCGGCACTTTTCCCTTTTCTCCTCTCTGTGTCGTAGGCGTGCCAATCCCCAGGAGAGAGGCGTGATAGGCCCAGCCTTTGACATGTGGGGAAACACAGGCCTGTGATTGGCTACCGCATGACACCCAAGGGACAAGTTGCTATGGCAACGCGTGGGCGCGCTGTGGGCTCGTAGAAGCCAGGTGCGGACGCTGAAC
0.3702758366058442 ACAGTCAAATTAATTCTAATTATCTCTCTAACAGCCTTGTATCGTATATGCAAATATGAAGGAATCATGGGAAATAGGCCCTCTTCCTGCCCGACCTTGGCGCGCGCTCGGCGCGCGGTCACGCTCCGTCACGTGGTGCGTTTTGCCTGCGCGTCTTTCCACTGGGGCCGGGGCGGCGCGGAGGGTTCAGACGCGGGCTCTTACTCAAACGCTGATCCCCGAAACTACCGAGCAGT
1 GAGATAGACTAAGCTGATTTAAATGCTCCCCGGGGCAGAGGGTTCTGTGGGATTTCCCTTGTTCTTACGGGTGGAGGAGAGGAGGCAGGACTGGAGACCTGCACGTGTAGCACCCGCGTGGTGCAGCACGTGGGTTGCAGATGTTCTAGTGAGGGGCTGGCGGTGACAGTGGGAAGGAGCGAGTTGGTGACATCTAGAGTCGTGTGAGAGGTATGGTGACTGGGACTCTGGATGTG
0.3554614754938356 TTCCCTCTGCCTGGGAATTCCTCACGTGTGAGTTTCTCGCTTCTAAGGCAGCTGCCACTTACTGGTTTTCCTGCTCCTCGGCAGCCAGAGCTCAGTCACGTGACCTCAGCTCTGCTAGCAGATATGCTCACGTGGGACCTCAGCCTGCAGTCAGGCGTCTGAAGAAGCAGATGCTGTGAGACCCCCGTCCAGCAGGAGTGCCAGCTGCTGGGCCCCCTCTCCCAGGGGCAGCTGTG
0.9043373873854237 GTTTGAGGATTTGAGGAAAGTTCCGATCACCAGCATTTGGCCTCTTTCTGTTTTTGTCTCACTTCCAGGACCTGATGCAGGAAGCACACTATGACATGGTCACATGCAGACACACGTGGTGCAGGATGGACTAACCTCAAGCTCCACTGAAACCCTGGCTCCCGGCCGACCAGCCGTGGCCAGTGACCACGTGCAGTCTCCGATCTTCATTTGTGCGTCGATGTGGGGAAATTCAA
0.8224754220221736 CTTGTGTGTTAGCAGGTTTCTCTGGCGTTACCCCAGAAGCTCCTAGAAAAGCCTGCCCGGCAGCAAGCCACAGGCCCCGCCACGCCATTGGCCAGGATTGAGTCACGTGCCCTCCCCAGAGCCAATGGGAGCGAGGGGGCAGGGTGACCGGGAATGACCTTAGACTGCCCGCCCTGCGCGGAGGGAGATCCACTACAGGCTGCGCCTCTGCCCCTGCGAGGGGCACCCCTGGGTCT
0.5908923151965711 TTTCGCCCCCTGCACCTCCAGCGGGCTGCGGTCCGCTCCCGGCCTCACTCGAGCAGGCCCCGCCCTCCCAGAGGCAGTTAGTCCAAGTCACGTGATCGTCGACTCAGCTGACCCTGCGGGACCGGAAAAAGAAATTCCCGGGCCCTGGCTTCTTGGCGCGATGGTGAGGCACTAGGGGCGAAGCGAGGCTTGGGCTGCTGGAGCGGGAATGAGGGGGCGCCAAGTGGCTCCGGAAA
0.0477799262424678 CAATTTCATCTTCATGTCAAGGGGCAGGAAGAGAAAAGGGCTTCCTTCCTGGAGCCTGACTTAGGAAGTTGTGTACTCCACTTCCACTCATTGGCCACAGTTTGATCATGTGACCACATGCTAGCTGCAAAGGAGTTTGGGAAATGTAGTTTTATACTGAGAGGTGACATGCCCCTTTATTCTACAAATAGTTATGAAGGGTAGAATAGAGAGAGTGGGACAATTAGCAATCTCTA
0.6556822572319557 AGGGCGCTGGGGCGGGGGTTGGGGTTGGTGGCCAGCTGAGCCTGGTTGAAGGGCGGCTTGGGCCCCGCCCACCACCCCAGCACGTTCGAGGAGGGCTAAGCCCAGCGTGAGGCTCGTTGGCTCGACAGAGGCACGTGACGGGTCCTGAGCCAATCCGTGGAAGGTAAAAGCTGCTTCCTGTTGGGGCATGAGTCCGGCGCGTGTCGGGTTTTGAGCTGCCGCGGTCCCGGGACTGA
0.3341785770686937 GGGGGCTGCCTTGGGAGGCCCGCGGGGCAAAGGGCAGCGGGATTCGCGGCTGGAGCAACCCTGGAGGCCGCTGACGTGAGCGGGGTACTCCCACCGGGGAGGTCACGTGGCCAGGGCGCCGCCATGACGGCGGAAGTAATGGCGGAAGTGGCACCGTTGCCAGGCAGCCGTTGCCTGGCGTCGCGGGGCGTACTCTGCGCTGGGCGCGCGGAGGCCTAGGCGGGAAGCTCGAGCGG
0.05358192224493727 GCGCCTGCCCCTCAGCTACACCCCCGGGGCCTCAAGGCCACGCCCACATGGGAGCTGCCCCCCCCCCCAACGACCAGGACGGTTCCCACGGGGGCGGGGCTTCACACGTGACCCGGGACAGCCAATCGCGGGCGCGCAGCGGAGGGGCGTGTCGCGCGGAACAAAAGGCCTTTCCCGAGCGGGGCGGGGCGGGGCCGAGATCACGCTGATGCCCACAGGACCGGCACGGCGTGGGG
0.395002459646691 TCGCTGCGGGGGACAGCGTTCCGAGGCAGTTGGTCCTCTCCGGGATGCCGTAGGCATCAGCTGACCGGCCCAGCCCACGTGACTACAGGGGCACTTGATGGGAATCATGGCAGCATCCAGGCCATTGTCCCGCTTCTGGGAGTGGG
0.1482947097642109 CCGGGTCCCAGGCTCCGGCTCCGGGTCAGCATCCTCGCGCTCAAGGCGGTCATGCCGGACTCCTGCGGACTACACATCCCGGCGGCCCATGCGGCCCCGTCACGTGATGCAAGGATCGCCGGCCTTTCCGCCAGAGGGCGGCACAGAACTACAACTCCCAGCAAGCTCCCAAGGCGGCCCTCCGCGCAATGCCGCTACCGGAAGTGCGGGTCGCGCTTCCGGCGGCGTCCCGGGGC
0.7734740437952368 GCGGTTGGGGGCGGGTGTCTGCCATTGCCCGCTAGCGTTGGCGCCCCAAGCTCGGTTTCACTCCCTCCGGAAGTGGGACCAGCCGGCTGCTTTTCCCGGATGGAACTTCCGCCTGCCATGTGACCGGCGGGTGTTCTACAAGGGCTGACCAGTGGGCGGGACAGAACGCAAAGGGCGATATTAAAAGCCGGACTCTTCCGGTGAAGCGGAGGTGTGGTGGGGCTTGCTGGGATCAT
0.8978476069405088 CAATTGGTCCCTCGCTCATCCAGTCCCCGTAGGCCAATCTTCCCTTCTCATTGGTAGGCGGTGAGTGTGTGGAGAAACCTGACCTAATGGGCGCTGGAGTTCGCAAAACGTGACCCGGAAATTGGTCACGAGCAGGCGCCGTGGGCTTGTGGACGCCTAACTTGCGCGCTGAGATTTCCGGCGTGGGAGCAGAGGTCTGAGTCTTGCGTGGGTCCTCTATATAGGGTGAGAAGCGT
0.7501740575991058 TTGGACCAGGGCCGAGGCCCGGGACGTCACGGTGGGGGGTGGGGTCTCGGGAGGCACGTGATGCGCCGTGATGACGTCAGTGGGAGCGGAGGCGATTTGGCCTAGAGCTGGGGCTGAGCACGTGGGATGGTCGGGGCCTGTTTGCCCAATGTACACGAGGCTGGAGAATAGGGAAAGAACCGTCCCTGTGAGCGCCTCCTCTTCACTCATGCCAGCAACAGGGCAGGGCATCTTCC
0.08273595653556622 CGAATAGTGCAAGCCGGAGGAGAAGCCAGCGACCCGTGGAGGTCGCCATATTGGACCGGGGCCTCGGGTCATGTGGGCTCGCCTCACGTGACTCAAGTCCCAGGGTGGCCGCTTTCAGCTCGGACTGAATT
0.4966332939917624 TCAGGATGAGTAAAATGCAGGAGCACGGAGGTCAGCCCAGGAGGTGGTTACTAGCAAGGCCACTAGCACGGGGTTGGGGGAATGCCTCTCCTTGCATTCCTTTGGCCCAAATCCAGTCACGTGCCCACCCTCAACAGCAAGGGATGCTGGGAAATGTAGTCCAGCCACAAGCCAAGGAGGTGGCCAGGAACAGCCTTTGGCCAACTCGGAGGCCCTGAGTGATCTGAGTCTGAGCT
0.6672190640867216 CTGTGGCAAAGACTTCATACTCATGATCCCTCAAGACCCATTCTCACTTGGTTTTCAGCTGGGGCAAATGGCTACACTGAATAATGACTACATCTCCCAGCCTCCCTTGCAACTATGTGTGGCCATGTGGTACGTTCTGGCCAATGGGATGTGGGTAAAACTGTGGGAAAGTCCTTGAGAGTGTTGCCCTATTTCTCCTCTTTCCGCCTTCCACTGATCTGGATTGCAGGTGCAAT
0.2061980642808363 AGAAAAAAAAAAAATCAACCTGCCAATCTGGTCTTTCCTGCAGTAAATGAAAACTAGCTCTGTTCCTGCATAGAACAGAAGAGTCCAGGCAGCTAAGTCACATGACCGGAGACAAACCAGACAGAAAGAAGTCACGTGGGACCACAATGAACAAGAGGCAGAGACAGGCCGGATGATGGCCAAATGCACAATGAAACTGGAACTGAGGTTCCTAAAGATGCTGGCACAGCGTTGCA
0.06362311003448005 GCATGATTGCACAACTGGCCCAATTCTTCATCTCTTACTGGAAACATGTCACTGTCACGTGATTCTGTGGTCCCTGCCACTTAAGAACCAGGATACAGTTCCTCACCTCTTGACTTTGAGTTTGATCACGTGACTTAGTTTGGCCAATTACGTGAGGGAGACGTGCCAGTGTGCCGGTTTTGGCTTTTGCCCAGGGTGTCTAAGACCGTAGGGAAGAGATTGTCTGGGAAACTCTG
0.2365132733396022 AAACTCCCACTGGACCAGCTGGGAACCTGACAGCTGCTGCACTGTTGGTTCCACTTGCCTGCTGCCGTCTTCTAGGAGCAGAAAGTCATGTGACCCGGGCCTGGCTACTGTGATTGGCTCTGTGATGAGCACATGACAAAGCTGGGCCAATCAGAATCTTCCCTGAGACTTTTTTTGCCAGATAGGAAAAGACTCCCCAACCCTACCGTTGCTAAGCTGGTGCCCATTGGGAACAC
1 CCTGGAGGTGAGTGGGAGCAGTTCCCTCACATAAGAGTCTCAAACACTCCGGCTTCACTGTGCCCAAGAACAGCACGGTCCGGGGTGGTCCAGTCTGATCCCAACCGGCCCACCCGGGGCATCCGGTGGAAGTCTTCGCCGGAGGATCCGAAGGCAGCATCAACGCGGTTGTCTCTTGACACTGCACACAGCATAGCATTTAATCTTCGGATGTTCTAGTCACCACACAAATAAAG
0.895406724027104 GGGACCTGGAGAGACTCAAGGGAAACCAGTAAAGCAAGAGGCAGGACGGGTCATAAATTACATTTCTGAGACACTTGACAGCCCACCACGTGATCTCCATCTGCAGGGCTCCCCAGGAAGCAGGTGATGTCAGCCCCATTTTACAGAAAAGGAAATTGAAAGTTTCAAATGGAGAGTCCAAAGTCTGCCATACTGCTCTTCTGCATCAATATTACACGATTTCTTTTTTCTTTTCT
0.8746223182537392 CAGTGGGGCTGGCTGCAGGGGTGGGTGTTAAGACCCAGGTCTAGCCATTCAAGACAGTTCACCCAGCCTCGCCAGTCTCACTGATTGGTTCGGGTGTGGTCATGTGACACTCAGAAGGGCCAATGAGGCTCAAACCCAAGACATCTGCTGCAGCTATTGGACAAGACAGAGTGTATTGCCTTGGGGTTGCTAGGTAGGATAGAGGCAGGAGTGGTTGGGTGTCACCTTTGCCTCTG
0.3746725399067413 GAAAGCATGCAATGTCCCTTAAAGTACACTGTCCCTTCTACTCACAAAGCAAGTCACTTGGCCAAGCTCAAAGGCAAGGGACCAAGAAGGAAGTACATTCTACCTTTGTGGTCACATGACTGCAGAGTCACATGACAGAGGGCATGCTGTTGGGAGGAGGGGAGTCGATGATTCATATGTTCACAGTCCCTGTCAAGATAGCCATAATACTGAAAATAGCACAATAGCTAACACTT
0.2314891563689379 AAAGGGCAGGGACCACGCCTCTCGCGTTGGCATAGTGCCTAGCTCAAGGCACTTTCTGGGTTAACACTCGCTGAGGACCGGAGTGAACGCCCCCGCCCCAAGTCGTCACGTGACTGACTTTCTCCAACTGCCGGTTTCGGCTCACATAACACACCTACTATCCAAAACATTTCTATTTTCCTAACACAAAAACTATAGCTAAGTTTTTATATTCTATGTAGCCCCAGCCTAGGACG
0.9425004133903752 TTCTCAAGTTCACATTCAGCATGAAAAGGCTGATCACCTCTTCCAGTCACTCAAGCAAAAAGCCCCAGGTTTGCTGCAATGGGCTAGAATAGTTTGACTGTAATCACATGACCACCTCTAAGCCAATCTCTGTGGCCAGGCACCCCAGTGGTTGGTTTAGGCCTGGATCTTGTGACACACTCCTGAACACATGACTCGAGGGTGGGGCAGAGGCAGATCCTCACACAGAAGCTGGT
0.388004369265744 ACGCCCCACACACCTCAAAGCGCAGCCGAGCCAGCGAGCGAGCGGCGGCCGGCGGGGCCAGCGGGCGCGCGCGCGGTCCGCCCAGCTGAGCCGCTCACGTGACGTGCCTCCCGGCGCCGCCCGCCCGGCGCTGAAGCCGCCTCGGCCGCCATGTTCACTGTGGGACGGTAGCTGCCTCTCCAGCCGGACGCGATGCCTGGAGGCTGCGGGCGCGGTCCTGCTGCGTGAAGCCCGAG
0.8369301995822829 GACAGCGTCTTCCCACTCGCAGTTCCAGAGAACTGATCTAACTGCCAGAGAACTGATCTAACTCCTAGCTTTCCAACAGGGCACATGACTCAGGCTTGGCCAATCAGAGCATTCCTTTCCCAATCTGAAGATTGGTTCAGGGACAGGCATATGATTAAAACTGACCAATGAGAGCTTTTCCTGGTAGCATCATTGGAACCATTAGGAAAACATGCCTTCTTTCCTTTGGGCTTTGA
0.2928573420934142 CCCCGTCTACAGCAGGGACCCTGAGGCCTGTACCTTTAAGAGCAGCAGAATGTTCTGCACTATGCAGAGGCCGTTTGTCGGATCACGTGACAGCACCCGCGTGTTCCCCCATCACGTGCTCAGAGGTTTTCCCTACTTCCGGGTCCTCTCTGTCTTCGCTTTGGGCCTTCTCGGCTTCGGAGCGTGAAAAAGGGAGGGGCTGGAGAA
1 GAGCCAAGCACTTGGGGGTGGAGGTGATAGCGAGGCTGATGGCCCCTGTGTTCTCAGCTCTCTGCCTGGGTAGCCCCTGGGTGATGGGGGAGAGGCCAGCTGTCACGTGGGGTATCAGGTGGCTCTGCCAGAAACTCCCTTGGCACACAGAGCACTGGGTCGGCCCTCGGGTGTGGCTGTTTGGGCAGGACAGCCCTCTGTATGTAGCCTTGAGCAGGTAGGGGGGCCACCTTGAG
0.4792123990408488 TTGGAGGAGACCGAGGGAACCCTGCTCAAGTCTGGGAACTAGAGGCGCGGGAAGGTCCTGCTTCCCCGCCACCCAGAGATCACGTTTCCCAGTAAACCCAACTTCCGGGTCCCATTCCAGGCCTCCAAGCCCACGTGACAACAAGCTCCGCCCTCTGCTGTCCCGCAGATGCCACTCGGTGATTGGCCGCGTCTGAAGCCGCGCCCCGGCGTCGCGTTGCAGCCTTAGGTCCAGCC
0.1758620360516991 CCGGGAGCCCGATGGAAATCCGGTACCCTGAAAACGAGCCGGAGAGACTTGATTGGGCCATTCACGCCTCAGGATGAGGACTGGCCAGTCTGCGCCTGGAGGGCGGGCCGGTCCCGCTGATCACGTGACACGATTTTTGAAAGGTGATTGGCTGTCAAGGAGAGGGCTTGCCACCGAGGAAGGGGCGTTTCCTAGGGGACTGAGGGAGGGCTGGGGCGGTACGAAGCGGGGGTGGG
0.1960658279801236 TGCGGAGACACGTGAGCATGCATCACATGACGCCCGCTCGGGCGGCCGCGGGACACGCTGGGAGTTGTAGTTTCCGCAAATGTGA
0.04908394741804716 CTGCCACGCTCCGCCGCCTCGCCCTGGAACCCGGGCCCGGACCCCGCTCCAGCACACCTGACCCTGGCCGCTTAACAACTCCCGCCCGGCACTAGCGGGACTCACGAGACAGCGGCCATGTTACTCGAGTCACATGACTCTACAGCACTTCCGCCTTCCGTCGCGAGGGCCCGCCCCTCTCCAGCCACGCCCCCACCGCAGGCCGCAGGTGGATTGGCCACGCCCTCGGAAGGCTC
0.4926897835688831 TACCCACCAAAATCTGTTCTGCCCTTGCACAATAATAGAGTTGTAGCTGGGAAGAGCTGGTCCAGCCGGAACTACATCTCCCAGCCTTCCTTGCAACTTGATGTGGCCATGTGACTAGTTCTCACCAATGGGGTTTAAGTGCATGTGACCTGCTCTACTTCGGACTGGGGCAGCTGTGCCGCCTCCTCACACTCTCCCTTGGTTGGCTGGATGCGTGGGGTGAAGCGGCCCTGGGG
0.3868005471696379 GGCGGTGGCGCTGTGCCGGCTGTGACGTCACCTCGCCCGCGGTGGGGCGGGTGGAGCCTTTCGTAGGCTCGCGACTGCGTCAGGGGAGGGCCGTGTGGTCATGTGACCAGGGGCTCCGCTCTACGATCCTGGGGTTGCTTCCTTTCCCAGAGTTGGGGTTTTGCTTTTCTGTCACCTCGGCTTCCGTCGTTTTTTGTCCCTGTACCCTCTTGCGTTGCTCCTCGCATTGCCTGTTG
0.2799808492624145 TCTCTTCTTCCACAGTAATATAACATTAGCTGTCCACCTCCCAACCCCCAGAATAAAGACTACATTTCCCAGCCTCCCTTGCAACTAGGTGTGACCATGTGACCACATTGTGGCCAATGGGATGTTAGTGGAAGGTCATGGTGGTGGCATCTGGGGATCTTACTGGCTGGCAGGCAAGTGCCCTCTGCCCCTCCCCTCTCCACAGTGTCTGTAGCTGTCCCCTTGGACCCAGAGGA
0.6624390780737514 CACTGCAATGCACATCTGCGCTTCTTCATTCACCAGCATCCCTTTCTCTAACAACTGGGATCACGCTGGAGCTGCCAATCATGAAACCCCGCCTCCCTGCCCAAAGGCGTGTGCACGTGACCCAAGCTGGGCCAATCAGGGTCCTCTTAAGAGATTGACGGACACTGAGGAAAGAGGCCTCTCTCTTCTGGGATCCTGACCCAGAGGGACCACCATAGCATGGACCGTTTCTTTGG
0.4893601647512839 TTCTGGAGGGAAGAGACATCCCAGAAGCACCCCCATGCAGACCCGAACCCAGCGACCTCGTCTCACATTTCATTGGTCAGAACTGGGTCACATGTCCATTCCTGAACCAATCACATGCAAAGAATGGGATCACATGATTGGTTCAGATTAATGGTTGGGCGTGGACTGGAAACTGAGCGTCAAGCTCCTTGTCCTCTGCCCTAAAAGACCAGGATTCTATGGGCCTTGCTGGGCTC
0.04188524761939995 ACATTCAATAAAGCAGGAAGTATCAGCCCGACGAAGACCGCCTTAAGTTTTCCACTTTGATGAACTCGATCATCCCCGGGGATGAAGAACCCGCCGGCCCAGCCGGAGCCCCGTCACGTGACCCGGCGGCCGCGGGGAGCTCTGTGCGCAGGCGCGGATCCGCACGCCCGCCGCCTGAGAAGCGAACTCCCCGTGGCGCCTGCGCTGTAGCGGGGGTTCGGCTGGCTCGCGCGGGT
0.8939904941444236 AGTGGGTGGGGCTTTGCCAGCAGTGCCCACGGGGGTCATGGGGCCAGGCGCGCTCCGGCGCCTGCAGAACTGATCGGGGATAGTCTCAGGAGGCGCTAGTCACGTGCCCCGGTGATCGGGGATAGTCTCAGAAGGCGCTAGTCTCCTGCCCCGGTGATCGGGGATAGTCTCAGGAGGCACGAGTCGCCTGCCTCGGTGATGCACCGTTTCTCACACCGGCTGCTCTGGCCCGAGCT
1 CTGTCCGTCCTCTCTCATGAATGAAAGTCCTGGCGCCTCCGACCAGCAGGTGTCCCCGGGGAGCCGCGGAGAGACTGCCGCTGCCATGGCAACCGGCGGAGGCGTAGCTCGCCCACGTGCCCAGTGACGTCATCGGCTTCCTACTCTTCCGAATTAGCTCAGAGCTCCCGGCGGCCCTGCCCCCTCCTGCCGCCAGGAGCTCACCTGGAGAGGCCAGGCCAGCCCTGGGCACAGCC
1 GGAGCCCACTACAGCCCCGCCCCTATCTCCTCCTTTATGGCCCCGCCCAGCGGGTATCCCCCGCCCCCGCTGGCCGATCGGCGATCGATCGCAATGTCTGCGCTCTCCGCGTTCTTCCAGCGCTGTCTTTTTAGTACCACATGCGCAGGCAGGTGATGGCGGCGCTGGTCGTATCCGGGGCAGCGGAGCAGGGCGGCCGAGACGGCCCTGGCAGAGGTGGGTGCTGGAACGCTGCG
0.8455795858850382 GAGCTCATCTCGCCGAGATCCGGCCCCACGAGTCAGGTGGCGGAGGTCAGGTGACAGCGGACCCGCCTCTCCCAAAGTCTAGCCGGGCAGGGGAACGCGGTGCATTCCTG
0.6868980058727244 TCTCCTCTCCAGACCCAGTTTACCCACCACTAACCCTTCCGTGTGGCTCTGGGTGCTGAAACGGGGATGACTTGGCCCGCTAGGTGAAGAGGAGACGGAAGCTTCCTGGCAGTCCCCGCGTCACGTGGGGCCCTACCTAGTCAGCCTCCTAACGCCCCTCCTTACGCATGCGCCCATTCACTGCTGGTCCCCAACAATGCCTAAATCCCGCCCTGCCCTTCTCGTTCCGCCCCTGC
0.1135307901375048 AGAACGCTTAAGTGCCAAAATGAGTAGACCAATAGGGACTGGAGAGGAGGTTGGAAAGGTAGGGACTACGCCAGCGCGGAGGAACACTGCGGGACTTGAGTTAAATCATGTGATCTCAAAGAGGGCGGAGCGTCACGTGGCGGGTGCGCGAAGTAGGGCCGGCTTGGGAGGGCGCCGGGGAGGCGGGGCCGGCTGGGCGACAGCTGGGAGGGGGACCGACGCCTTCCCGGACAGCG
0.2467555962658844 CACCGTCTCTCTGTGTAGGGGAAGCTCCTCACTCCTCAACTCCCCATTCCCTGATGTGTTGGTGCAATGACAGCCAGGAACAGGCACGTGACCCAAAACTGGCCAATTAGAGTACTTCATCCTTCTGACTGCAGATTGGCTCAGGGAAGGGCACATGACCCAATGTATGACCAGTAAAAATCCTCCACAGTGTTGTTTGTTTCTAGCTTTGTGGAGAGTGTGAGACGCCTTTCTGT
0.8858860735065373 TGCGCAGGGGTTTGAGAAGCCCCGTGGATGTGGTGAAATAGCTGTGGGGAGAGTATTTGGCAACGCTCAATAGATTCAGGAGGAGCTACTAGGATGAATGGCTGCCTTGTGCCACAGCTCTACAGGCTTTCACGTGTGTCATCTCACGTGATCTTCTGGGGCGCTGGTGTCTCCGTTTACTAGAGGACCAATCGGAAGCTTAAAGAGAATGAGTAATTGGCCCAAGACCACCCAGC
0.1337855067675365 GCGCCGCCAGCGGCCATGTGCCAGGCCACGCCCAGCCCCCCATGGCCACGCGCCAGGCCACGCCCTATCACGTCCTGCCAATTGCCACGCACCAGGCCACGCCCCCGTCACGCAGCGCCAACGGCCACGTGCCAGGCCACGTGCCAGGCCACGCCCAGCACCCATGGCCACACGCCAGGCCACGCCCCCGTCACGCCCCACCAACGGCCACGTGCAAGGTCACGCCCTCAGCCCCC
0.3720772077925373 AGAAAAAACGTTATAAGAGGTTGGCAGGCTTTTTTTTTTTGCTTCACCAATGGTTTTTATTAAATTGCTGATGGAACCCGTCCTCTCCCTACATTGAGAGTATGGAAGGTGCGGGAGACGGCCGTCACGTGACGCGGAGAAGGCGCGGCGCCCGTGGGAGGTTGGTTGCAGAACTCGGAACCGCTGTGCGCGCGCATGTGTGGGATTCGGTCTTCCTCCCTCAGTGGGTCTTTTTT
0.07801959635494862 AATTCAGAGTTCAAAATGGCCACTTGTTTTTATCCAGGCAGCAGGAAGAAGAAAGGAGGAAAGAATGAAAGCCACCCCCTAACCCTTGCGCCACCTTCTTCTTTCATCTCATTGGCCAAAACTGAGTCACATGGTCTCACTTTGCCACAAGGGAGGCTGGGAAATGTAGTCTTTTAGTTGGGCACATTGCTGCGCTGTCTAAAAATCAGGATTTGTAATTAAAGAAGCAGGGAAAA
0.1106093077346809 ATCTAGGAATATCCCCGCCCATAGAAAGTACTGATTGGAGAAACATTTGTTTTCTCTACGGCTGGTTGGTGTAAGGAGTGTTTCACCACACGGAGATGTGGTCACGTGACTTGTCAACTTTCACCCAGGATGTCTCCCTTCTGACTTCCCCTTAGCAACCAAGTCGCGGCGCTTGGTTCCCCAGCAACCGGGAGACGCGTCTGCTGCGTGGAACCGCCGAGTTCCCAGCGCTTGAG
0.9454190688431066 TAATCGGACTCCTTCTTGCGGGGAGCCGCCAGACACTCCCATCCAAGGCCTCTTTCTCATGACTTTTTAATCTCCTGCTCGGAAGTCTACGAGGACGCTTCCGGGTCACGCGGCGCGGACACCAGGAGTCATGTGATGTCAAGATGGCGGCGCCGCGGTAGCAGGATCCGGGTTGTGGCGTCCTAGGAGCCGCGACGGTTTCTGCCCTCGGGCAGTGAGGGGCAGCAGCGCTTGGC
0.6531229347602741 AGAGTAAGCCTCTCCAGTCCCGGCGCAGGGATGGAGACGGTGTTTCGTGGGCTCCGATTGGCTCAGTAGCCTATCTTTGGAGCGAATCAGCGAGCGGAGAGGGATGAACTTCTCTGACTGGCCAGATCCAGTCACATGCCAACATGTGACGCGTGGAATCTACGCCAGCCACAGCAGAGAGGTGGGGGTTGTGACCGGAGTTAGATGCCAGCGCAGAAGGGACGTGAGCCCAGCCG
0.909653054362736 CGTGGCCGCGCTCGGCTCCCGCACTGCTCACTCCACCCCCTACATCCCAGCCCGCTGCCAGAGCCGGGGAGAGGGCGGGGGCCGCGTGGGCGAGGCCGTGAACAGCGGCTGTCACGTGGGCCGCCCAGGCCAATAGGGGTGAGGCTTTGGGTCGAGCTCAGTCCTCCCCCGGCGCCTCCGACTGGCAGTGGGACTCAGCGGGCGTGGAGGTCGCGGCTGAGCGAGCGAGCCCTGGG
0.3162209471458061 ATTATCAACAAGCCGCCCGCCCGGAGTTCCGGTCCTTCCCCGCGCTAGGCTTCACGGGAGGTCAAGCGCCGGCCCCGCCCCTTTTCCCCATCCCCCTCCCGCGGGTGCAGGGGCGCACGCCCGCATCGCCCACGTGACCCGCGCGTGCTACCCGCGCCTCTTTCCCGGGCCCTGGGTGCCTGGAGCGAGCCACCGTTCCTGCAGCTGTTTTGTGGCGTCTGTCGCCGGCCCCCGGT
0.1432320020213392 ACCGCAGGCGGCGGCGCTGAAAGTGACACTCGGCGGCGGCGGCAGCAACAAAAAGGGTGGGGGGGGGGCCAGGAAATCAGCTGTGAGGTCACGTGCGGCGCGCAGCCAGTGGACGCGCGGCCTTTTTGTTTTGATACATTCCAGTCACCTCTTAAAGGGGCCGCGCCGGCCGCGTTCCTCTCGCAGCCCCAAACAAAACAACACGGGCCGCCGCCGCGCCGCGCCGGCTACTTTTC
1 TGACCCCGCCGCTCCACACCACCCCACTCGCGGCTGAAAAGCTGAAGGCAGCCGCACACTCGCCCTTGCAGCTTGCCCTGCAGCCCGCGCGGCCATGTGAGCAAGCGCAGCCAATCAGAGGCTCGCCCTGGACTCCGTCCCGGGCTGGGGGGCGTGGCTGGAGGGCGTGGCCGGGCGGTACCCGCGGCGTCTCTGCGCTGCCGCCTTTGCTTGCGCGGCTGTGTAGGGGGTTGTGG
0.3479186294111246 GATTATTCGCTCCTGTAGCAGTCAGTGGTTCACGGTGGCGACGGCGGACTGAGTTCTATCCCTTTTCTGCCCTGCCGGGTGTGGGTTCATCCACTTCCTCGCGCCGCTCGCACCCCATTGGCAGTATTGGGTCACATGGCCAGCCGTGGCCGCAAAGGACGTTGGGAAATGTAGTCTTCATAAGGGAGCCAGTCGCTCCCGGGACAGTGGGGTCCACGGCTGCGGGAGGGGAATAG
0.2226050940762387 TGACGGAAAAGATGCGTCCGCCATCCCTTTTGCTCCACCCCTGACGTTGGCCTCGGCCTTCGATTGGCTGCTCCTCCCACCAGCCCCGCCTCAGGGGCGCCCACGTGACCCGATGGCCGCCGTGGGATTGGTTGTTCGGCGAGAGCCGCGCTAGGCTGTAAGACCTGAGCCGGGCGGAGAAGCAAAGGAGAGGGAAGCTGGAAGCACCTTTGGCCCGGGACAGAAATCTGGAGAGC
0.6091570669744479 GATGGTGGAGGATCCTCCAGAAACAAAACCTCACCTCGCTTCGACATCTTGAACGCCGGAAAAAAGAAAAAAGGAAGTCGATTCAAAGGACACTGGGATATGAACTTTAACGCCCCGCCCACCCTCCTCACGTGGCCGGAGCAAAAACCGGCCTCTTCCGCCTCTGGGCGCTGCCTTATTACGTAATAAGTTTACGACGTCGCTTTTAGCCCTCTCTGCGAAGTGGGAGTTGAGGT
1 CATTCAGGTTCCTGAATCCTGGGTTTACCAGGGTACAGCTTTCTGCCATTTCTGTTCTGGTCTTGCTTTGTGGACCACAGGCCTGGCTTCCTTCTCTGAAGCATCACGTGCTCCATGCTGGGCCAAGCCCAGTGCAGGACCCGTAGGGGCACGTGGTTTCTTCTGGCACTTTGCCAGGGAGTTGGGCCCACCCAGTGAGTGTGTGAGTTTGGTGTGCAGGGAGGCCTCTATGTTCT
0.5519758739082181 ATTTTTTCTCAGCTAATAAAACATCCACCCACAACCCCCCGAACGCCCGCAAACACCAGGCCACTCTAGCAAAACCTCTCTCACTCCGCCTGCGCAATCCAGCTGACTTCCGGTTACAGATAACCACGTGATTGGGAACCCTTGCTGCGCATGTCTAGTAGGAAGTCGGACTATACCACTTTCCCTACGGAAGGGGTACTTTTTTATGTTTTTAAGTTTAAAACCGATTTCTGATA
1 CCACATTCACCCTGAAGGGGGCACTTTTGTTCAGTCGTTAGCTGGTGCCAGCTGAAAGCGAGCTCCAGGAAGGAAACATAACAATTGGTCACATGTTGGGGTGAGGGTTCTCGCAGGGGCTGCTGGGACAGGGAAGGGAGGTCCACGTGGAGTGGGCGGAACGCGCTGAAAGTTTTGGCGGGGCTAGCAGAGGGAGAAAAATACCCAAATTTGAGTTGTGATTTTTAATAGGGGGA
0.9018310874894947 CGGGTCCCCTTCGGCCCTGGAGCCGGGGTCACACGCTCCCCACCGCGTGCGGTCACGAGACGCCCCCAAGGGAGTATCCTGGTACCCGGAAGCCGCGACTCCTGGCCCTGAGCCCGGGCTTAGCCTTCGGGTCCACGTGGCCGGAGGCCGGCAGCTGATTGGACGCGGGCCGCCCCACCCCCTGGCCGTCGCGGGACCCGCAGGACTGAGACCATGGAGGCGGTGGCGGTGGCCGC
0.5849835675474168 GGCTAGTCAGTCCCCTGACCCGGAACCGCACTGGTGCCGCCGCTAGCCGGCTGCCCACGTGCCTGCAACAGTGGCCACGTG
0.9688791907211353 AATGCCCCAGACACGCGCTATCATCTCTAGCAAACTCCCCCAGGCGCCTGCAGGATGGGTTAAGGAAGGCGACGAGCACCAGCTGCCCTGCTGAGGCTGTCCCGACGTCACATGATTCTCCAATCACATGATCCCTAGAAATGGGGTGTGGGGCGAGAGGAAGCAGGGAGGAGAGTGATTTGAGTAGAAAAGAAACACAGCATTCCAGGCTGGCCCCACCTCTATATTGATAAGTA
0.7289464007281417 GACGAGTAGCCCAAGACGTGGGCTGCTCCAAAGAGGGTGAGAGCTGAGGATGAACGAATCTGATCAGGCGCCTCGGGACCACCCTGAAAATGGGGGGAGGGGCCTTCGGGCAGATCACGTGGTCAGGCTGTTAGCGCAGTTGCTAGGCAACCACAGCTGCGGGCGTGGTCTGCGCGGGGTTGCCCTCCTGTTCTGGTTTATCAGGGGATCCCCAAAGAAAGCAAGGGGACCAAGGC
0.3683262244047887 AAAGAACTCATAGCCATTAATTTCTGGGAATTGCCCACAAAATATACTAAAATTTATTCCGACCCCTGACTCGTTTTCCTGTTTCCGAAAGCCCTCCTACTTACTGTCAAGTGAACAAAGTTAGGCGCCCACGTGATCCTCCGAGCCAATGGCCGCCCCGCCTGCGATTCCCGGATAAGGAAATCTGCTCACCCGGACCCCACTCCAGCCAAAGAGGTTTATTTCCCCTTCTTCCC
0.4559750371976664 ACATCCCAGGGGCTGCTGATTGGCCTGTACAGAAGAGGGCTGGTTCTCCAGCGCCACCAATGAGAAGACGCAGAATAGGGGAGCGTCACACCCAGTCCCAGGTAGTATGCAAATATAATGTCACGTGACGTCAGGCTGAGCTGGAGAGTGGGCGCGGCGCTGGGTGTAGGTTGGAGTCAAACACTAGTGAAATAATTTTTGGGGGCGGGAGTAGGGAGCAGTGTCAAACTTTACAC
0.8665892022489866 AGGAGTGAACACAGGGGAGGTGGGAACTCGGCGCGGCCTCCCCAAAACAACAGGCCGCCCCGGCAAAGCGTGGGTTAAGGGGGCGGGCCCGGGGGAAGCCACGTGCCGGGGCGGAAGGCTATTGGTTCGCCCGGAGTTGTTTGTGAGTGGCCATTGGCGACGTCGAGGCGCCATGACGAGCCGATTGGCTGGGCGTTGGAATGCCCGCCAGGGCAAGGGTAGGGAGGAGGCGGCCG
0.5111819862045537 CCAATGTTACTAATACTTCTACAGAGAAAGGACCCACCCAAATCCCCAACCGCCAAGGAACCCGTCCGTGCTGCTGAGGCAGGAGAAAGACAAGTGCTCTTCAAACGCCCTCACTCACGGCTCCACCCAGGATGTGTCACGTGACCAGCGACACCGTCCCTCAAACCTGGAGTACCCCACACACTTCCCCTCGCATCCAAGGTCCTCCGCGGGGATCAGTGTCACCTCCTTCCCTC
0.497612920801679 CACGTGGCTTCTACAGATTCTTACAAGAAGTAGAAAGAACATGGAGGAGCACACACGGGAGGCATTCCAGCCAGGCCCAGTGGGGATGGAAACATCACTTCCGCCTTCATTCCATTGGCCAGAAATGAGTCATGTGGCCATCCCTAACTACAAAAGAGGCTGGGAAATGTAGTCTAGCCTGTGCCCGGGAGAATGAGGAAGTAGGTTTTGTGTATAACCAGCCAATTTCTGTCCCA
0.3188245455143041 GCGCCGCCTACCCCCATTTCGCCATTTTTACCGGCGCGCCCGCCCCGAGGCGCAGAAGTAGGGCGAACGGTGGCCGCAGCTCCTTTCTCCCGGCTCAGCCGCCGGCCAGCAGCCGCGCCGGAACCTCGGCCCACGTGACGCGGGCGCGCGCCTATGGAACTGACGGTGGAGTTCAGCGAAGAAGGTGCCGCAGAGAATTCGCAAACACCAACCGTAACCAGAGCAGCTGGGGGCGC
0.9147423690402647 AACAGGACACATTTTCATACACTTTAGTACCATTTGAAGACTCTGGGTGTCAGTTGTTGCTGGGACCTGTTTTTGACTCTGATGAACCTTTACTGGTTGTGGTTTGTCTGGCCATCACATGACTTCTCTGAAAATTCCCCCTCCCCTTCATTTCCAGTAAACTGTTTGAGCAGGAGTGAGTCACAGTGAAACCAGCTTCCCTGTAACCACAGGGCTTGTTAAAGAATTTGTCAGCG
0.3780386219426928 ATTTTGTGGGCCCAGCGGGCGGTGTTTTTCCCCCTTTAATCCGAATTCACGGGTTTTCCCTTCGCTTTAATGGCGGCCACAGGGACCAGCTCGCCCTCTCTGCTCACCCATTGGCCGCCTTGAGGTCACGTGGGCCCGGGCTCGGTTGGGAGGGGGAGAGAGAAGTGAGCGAGGGAGGGCCGGGAAGCTTTCGGCGGAGGCGGTGAGCTCGGGGGACGGGGCAGCCAGCTGGTGGC
0.9850287921037755 CGGTGGAGTCGCTGAAACGCAAATGGATTTGAGACTGAGCGACTCCCATCTCTATGGTTGGTATGTGACCCATCTATCCTCTGGAGGACTCAGCAAGGACTACCAGTCACCAGACAACTTTACGCGCACGTGGTCGCAAGGTGAACTTGCTATTGGTTAATGGCAGTAAAGCCCGCCCATCAGCGCTGGTCTGCTCCTTTAAAAGAACGCCATCGACGCTCCCCTGTCTTTCAGCG
0.4520710939966902 TCCCAAGCCCAGCCCCGCCCACCCTCGCCACTCGGAGATGTTTACGTCTCCAAAGAGCCCTCACGTCTGTAACCAAAAGAGGGGGAAGGCGGGGCCTGGCGTTGTCACGTGGCTGTACCACCCCGGACCACCGAGAGAGCGGTCCGCACTACTTTCCCGTTGACGTCGGCGGAGGGATACAAAACGAAATAGCTCACCGGAAGTGCGCTGCTCGCACCCCGGGACCCGCCCGGGCT
0.863106757572405 TGTAAGAAATAAATGTGTTTTCTTTACAAATTACCCAGTTTCAGATATTCCATTACAGCAACAGAGAACAGATGCCAGCTCCCTTTACACATCTCCTTACACCCCATTGGTCATAAGTTAGTCACATGGTCACAAATGACTGCAAAGAGTGCTGGGATATGTAGTTTTATTATGAACAGCCCTGTACGATGGGAGGATGTAGGAGTGGATGTGGAGATTTCTGGAAATCTCTGTTC
0.5928392782908798 AAAGGAGCTTATTTTACTTAGCCGCGCCCCTCTCGGGAGGCTCTCGTCGCTCACTGATGACGCAGACGCCCTTGCCATTTGATTGCGAATCCTCCCACGTGACTTCGTCCTAGCCAATCACGAGTCCGGCTCCAAGCGAGCCTTCCCGCCGTTGGGAAATAACCAGAGTGCGGAAGTCTGGGGCGAGGGAGCTCCTTCCCGGAGCCCAGCAGCCTCCTTCTTCGACCCCGGGTGTT
0.2747591710241589 CTCTCCAACAGGGGTCCCGAGACTCAAAACGCAATGAGCTTGCGCCCCTCTTCGCCCCGCCCCTAGTGGCGTCTTCTTATTAGAGTCAGCCAATCAAAGCTCGAGTGCGGAGGCTGGCCCAAACACCTGACCCGAACGTCACGTGGTAATAGTTTACTCCCTCCTTCCAGTTCCTCCTGCGCAACAAACAAGATGAAGACTACAATTCCCAGCAGGCAACGCCCCCGCAGCCTCGG
0.1284284652781929 CCTCGGGAAAGGGGCTCCGAAGGTCAAGAAACTGCCCTGCTGGGCGTCCGGGGAGTGGGAAAATAAAGCACTTTTTGTATCCCGCCCCTCCCCCGTCACGTGACCACGCGAGGCGGAAAGAAGAAATCCGAGGACCGGCGACGCCTAGAACAGGTTGGCTGGGGCCTTGGGAAGGGGGCGGGACAACGAGGCTGAGGAGGGATTGCGCCTGCACTTGCCCCCCTCTTACCCCGCGG
1 GGTTCCTGGCTTTACTCCCTGTGATATTTCGGGCCCAGGAAGGAGGGGGTAGGGCCCGAGTCAAGGGCTGCACAGACAGCAGCTGTGGCTCAGGAAGGAGCCCCTCTGGGAAGTGAAACTGACCAGAAAGTGTCACGTGGGTACATCTGTTACCTACGGCAGAACAGTGAGCCCCCAGGCCAGCCCCCTTACCTCAGGCAGCATGCTGTCCTGCTCGCCAGGGGCCTGGGTCTCTT
0.7236299924855393 GGGCACACACACTGGCCGGAAGGTTTCACTCTCTTCACCTCAGTCATGCGGGCCGGAAGATTTCACACCCTTCACCTCAGTCACATGGGCCGGGAGGTTTCACACGCTTCACCTCAGTCACACGGGCCGAAAGGTTTCAGACCCTTCACCTCAGTCACATGGGCTGGAAGGTTTCACACGCTTCACCTCAGTCACATGGACATGCACACTGGCTGGAAGGTTTCAGACCCTTCACC
0.5956578176677608 GGGGCTGGGCTTGGGCTGTGCTCCTGTTGGGTTTCCATTAACCAGGGGACCAGCTGGGCTGCTGTGATTTCACTTTCGCAGAAAATGAAACTGAAGCCGTGGTCACGTGACAGGACATGTAGTATATAGCAGGCTGCCAGCGACTCCTGCTCTTGCTTCTGGATCTGCAGGGCAGTCCCAGCAGGACCCATGGAGTGTCCTTCGTGCCAGCATGTCTCCAAGGAGGAAACCCCCAA
0.2615828552571352 TTCCAACCGCACGCCGATCGCCGGCTCCACCATAAATAGAAACGGGTGGTCTCTAATTGGCCTAGCTCTAATTGGCCTAGCTGTTGTCACGTGCTCTCCGATGGCCCAATCACTAAGGCTGGACGATGCTGCACTGTGAATGGCCAGGCCCGAGTCATGTGCCCGGAGAGGGCGGGGCTGGGCCCTTCCGCTCGCCGCGTCTGGCGATCGCGGCTACGGAGACCCAGGAGGGCCCG
0.4705265502359356 GAGTAAGTGTTATCTTTACTTTGTAAGCTGTAAGGGCCCAAATCAATGTACTTGGTAAAACTATCCATAGTGAACACACGCAAATGTCAAATGGCCATCATTTAGCATCTGCCCTCGGGCTTCCGGGTCCATCACGTGGTTACTGACAGGCAGGCCGCGCATGCGCGCTGCTACTCCGCCGAGCCTACGTGACACGACGTCAAGTGGCAATGGCGGCGGACGAGGGCTGTGCCCCC
0.4086983564613907 GCCAAGTGAGGGCGGGGCCTCGATTTTCTAGTGCCTCGGGCGACAGGAGCCTTACTTTGTTTTAAAAAAAAAAAGTTTCTTCCGGTCCCCATGGCAACCCTGCGGCAGGTCACGTGGGACTGAGAGCCCAATTGCCAAAAAGGAATGTTAAAGTGCAAAAAAAGTCTAGGGAATGAATGTTTTATAATCCCCTTTTGATCACTAGTAGCACATCTCCTTTGCTTACTTACATCTCC
0.1234841834631438 TCCCCGCCCTGCGGCTCGCGGAGCCTGGCTGAGCAGCAGGAGGGGCGGGCGCCGGGGGGCGGGGCGGTCACGCCGCCCGTCCCGTGCCCGCGGTAGTCACGTGTCCGCGGGTGTCACGTGCTCGCGTCGCAGCCAATCGCGGGGCGACGCTGTCCTGGGAGCGAGGAGGCTGTGGTGAGAGACGGACCGAGACCGGAGATGTTTTCAAGCCCGGCTCCGGCGGCTTTACAGGCGGC
0.5940488887852926 GCAGCCCCGCGCCGCGCTAGGCCGGCCTGGAGGGCGGGACAAGCGCTAGAAGCTCCCGGCCGGGGGCGCGCACGTAGGCACGCAGAGGCCGTCACGTGGGTCGCCGAGGCTCGCAAGTGCGCGTGGCCGTGGCGGCTGGTGTGGGGTTGAGTCAGTTGTGGGACCCGGAGCTGCTGACCCAGCGGGTGGCCCACCGAACCGGTGACACAGCGGCAGGCGTTAGGGCTCGGGAGCCG
0.4320027923324456 AGCCGCGCCCACTAGCAACGTGCTCGCGACCTCCAGTGCCCGCTCAGTGAAGCTTCTGCATGCCGCGCGCGGCACGTCGGGACTCGTAGTTCCGGCGCGGAGGACGTGCGTCGCGGCACTCTCGCCTGACCGTCTCCACGTGACTCTCGCACCTCCGGAAGTGACGTAAGCAGACACGCGTGGCGCGGGCCGCCGTTTCCGCAAACAGAATCGCGTTTGGCTGTGCTGGTGAGTGT
0.5848711415960053 GACCGCCCTCGGGGAGAGGGGAGGAGCCTCCAGCGCCGGGCGGGGCGTGGTTAAGGCCGGTGGGCCCCACCGCAGCCAGACGCTGCCCGTTTAAGCGCAGAGGGCCGCGGGTCACGTGGTGGGCGGGGTGGGGGCGTGGCACCAGGAAGCGGCGTCCGCGCCGGGCCCAGAGCCGCAGCCGCAGCCGCCGCTACAGTCCGGGCCGGGCTCCACCGCGCATCCTGCTCCACTCTGGC
0.2344266058493719 ACGGCAAAACCTTGGTCACTGCCCGGCCGGAACCGCCATGTTGAGGCCGAACCCTGACCAACCGGCAGTACTACTCCCAGCTGCCCCCGCGCGCGTCCCTCACGTGACTGTGTTAAAGGAGACGGTAGGGGCAAGGGAAGAGAGCTGAGGAGAGGGAAGTGAAAAACGACGGAGGCCGGTTGGGAGGCTGGAGCCGGAAGTGTTGTGACGGAAGCTCCCTGGGCGGGGCGGGGCTA
0.08021156125878215 CCAGATGTAGGCCTGCCCCGGTGCCTGCCTGGAGCTGCTGGCGTGGTCACGCCGCGACCCTGTGCGAATTGAGGCGAGGTGATGAGTTAGCGGGTTGCCATGGCAACAGGCTGGCCACGTGACCAGGGTGCTGCTGCCGGCGCTCTGACGTCAGCTGCCAGAGGGCGGGGCCGCAGGAGGGCGGGGCGCGAGCGAGAGCTGGGAGAAGGCAGTGAGCGAGCAGGCGGCAGGCACGG
0.5872271459871594 TCTATATCTGTCCAACACAAAAGCCACAAGTCACATGTGGCTGTGGAGCACTTGCAATGTGACTAGTGTGACTAAGAAACTGAAAATTTAATTTATTTTTAATTAACATAAATGTAAATAGAAAGAGTCACATGTGGCACTCTCGTAGCTACTGTATTGGCTAGAGTGGCTCTAGTATATGCTGCCAAATCCCACAACTGTTATCTCAGTGCTACAACCCACTTCAACAGCCGCCC
0.0541076380497686 GCCAGGAGGCGGCGAGAGAAGAGGGAAGCGACCGAGAACGCGGCTAGGGACCAGACCCCCAGGCGCGCGCGCCAGCCAGGTGGTCACGTGGCACGCGGCGCGCGCGGGCTTCTGGAAACTGTAGTCCTTTGGGTGTTATTCGTGCCTCCGCCCTCCTAGTACCTCCTGGGCTACCGCAAAGCCACGTGGCGAAATCGAGAAGCGCAAAAACAGCCGTGCGCGGTGGCTCACGCCTG
0.5647663365595532 ATCACAGTTGGGCTCCCATTGGCTCTGAGATGTGGGCGGGGTCACCACTCCTGGAGCTGCCACTAGCTCCACCCCATTCCATGCAAATGAAGTCAAAGCTGTGGTGAGTCCACGTGATTAGTCACATGGTTGATGACACACTCTCCCCACCCCTTTAGTGACGTCATTGCCCACTCAAACTCTCACGAGAGTTTGCACAGATGTGGAAAGGAGCTGGCAGGGCAGTTCCCTGGGAC
0.5771288215089035 TACTTCCTGATCCGGGCGTTTAGGTGCGTCAGGCGCACGTGGGCGCCGTCTCTCAGCCTTGGCCAATTAGCGCGCGCCTA
0.6714253696312961 GCGGGACCCGAAAGCCCAGCGTCGACGACGCAGCCACTTCCGATTCCGGTCGGAGCACCGCCCCGTCCCCGAACACGTGACACACACTTCCGGCCTCCTCTCCCGCCGGCCCGCCGCTCATCGCGGGGCTCCGCCCCGTCTTAAAGGGATAGTGCCCTTGAGACTCGGATCTCAGCCTCTCAGGCGAACCCGAACCTGGACGCGCTACGATGAGAGCGAGTTCGAGTCCAGGCTCC
0.4797747706903629 TCCCAGCGGCCGCCACTTACCACCGAGGCCGCCTCTTCGTCCACAGCCTGACGCCAGCCACCGCCGCCGCCGTCTCCACTGCCGCACGCACGCCGCCACTTCCGCTTCCGTCCGTGCTGCGGCCCCGCACGTGACGCAGCGCCTTCTCGCGCCCAGACTGAAGCACCGCCCCCCCTTAAAGGGGCCGCGGACTAGAGCTAGCTGGATGCAGCTTGGGATCCCGGCCTCGCCACCGC
0.2171158163579106 TCACTTTGTACTCACGCTCTGCCTCCAGCTCGTCCCGAAGGGCCTGCCGCGCATGCGCACGAGGCACCCGGCGCGTCTATACAGCGTGTTGCCGCCGGGGCGGAGCCCGGTCGCATCACGTGACGAAGAGTCAGCTTGTGCAACAGCGTCGGAGGCTCACTAGAAAAAAAAGGGCAGGGTCCCATGCATCGCCTGGGTCCTGTTTACACTAGCTACACTAGCCAGTGACCTTTTTC
0.3537999804920393 TGGCTGACTCCAGCCGGTCGCCGAGCTGACCACGTGGTGCTGGGCCGGCCACGTGGTGCAGCCGCGTTTGGACACCTGGACTCCAGAGCG
0.2387231569274318 ACCATGGTGGCGGATGGCGGTGGATTCTCCCAGGTAGAACCGAAAGAAGCGAGTCGCGCCGAGGATGGCGGCGACGACGGCGGAAGAGAACGCTGACGTCAACACTCAGCTTTTTATAGGCGGACGCCGGTTGGGCGGGTCATGTGACTGCGCTGCGAAGGCGGGGCGAAGGGACGCCGCGCAAGCGCACGGAGGCGTGTCCCCCCGCCCGTTAACCCATTCGGCGCCGGCGCGGC
0.6817970502402173 CCCGGGTTCAAGCGATTCTCCCACCTCGGCCTTCCAAGTAGCTGCGATTACAGGTGCCTGCCACCACACCTGGCTACGCTTGCAAATATGAAAGACTACATTTCCCAGCAACCCTTGCAGCCAGGTGTGATCAGGTGACCGTGTTCTGGCCAATGAGGTGAGTGGAATGCTGGTTGTGACAAGGGACACATCTTTTTGTTTTGTTTTTAGACGGAGCCTCACTCTGTCGCCCAGGC
0.9358096952273395 GTCTCTGGGTTACGCCCCTTGGGTCTGTCCGTTATCCAATCCCGTTAACTGCTGTGCTCCAACCTCTGTTCTTATTGGTCGCCTCCCTTCTCTGTCCCCTGCACGTGGTCCTGATCGACGGCTTTGCCGGCCCGTGACGGCCGGAGGGCTGAACTTCCGTTGGCGCAACGCCCAATAAGCGCGCGTCGGCAGGCTGCCCAGACAGCCTCCCCCGCCCCCTCGGCGTCCCGCTCCCG
1 GGACCCTCAGCGCAGCCACTTCTCCAGGCACTCGGCAGAGAGAACGCGCGTAGGCGTTGCCCTGGCAACGCCGGGATGCCCAGCAACAAGTCCGCGGCGTGTATCACGTGCTCGGCGCGGACCAATCCGAGGGCCCGCCGGGAAGCAGGTCAGCCTGGGCCAAAGTCCGCCTCCTCCCTCGCGGCGAGAGGCTCCCAGCTAATTACCGTAATTGCGGTGGGAGAGCTGCCGGATGC
0.5107908189933138 CCTCCACCTTTCCTGGTATTAGAACCCCGACTCGGGAGGCACACGGCCGTTCAGAAAGGACTACATTTCCCAGGGTTCCTTGCGGCAGGAGCAGGGCCATGTGATTATATTCTGGCCAATGGGATGAGGGCAAAGGCCGGTCTATGCCCTCCAAGAAGAGGCGTGCACTTCCCGCTTCCTGTTCCCTTTTGCGGGAGCGGGAGCCACGTGTTTTATAACAAATAGCCAGGCAGAAG
0.2684159051854174 GCTCGCCGCCATAGCCCGGCCATACTGGCGGCTCACACAACTCGCGTCATTTCCGCTCGCCGCGAAACGCACGTGACGCCCGGCGCGTGCCTCGGTACCCGATGGGCGCGTGGCTCGAAACAGCCGCTTCAGGGAGCTGGGCCTACGCGGAGAAGAGGGGGCGGAGTTCGAGCATCGGATCGTCTCCGCCTCTTCCGGTCTCCCACTTTATGCGCTGAAGGCCTTTTCCGGTCACG
0.9872665313177884 CTTCAACCCCAAGACCCGCCAGTAACGGCCGCTGGCAGAGCACATGCGCCGTACGTCCATATGCAGGGACTACAATCCCCAGTATGCAGCGCGGGCCTGGCCTCAAATCCCACCTGCCCTAGCATGCACGTGGTGTCCTTCGCGCATGTGACAGGCCCCAACGTGCACGATCTCAGGTACCTCCGCTGACCACCCTGCAGGCGGAAGAACGGCCCGGAATGAAGAGCCGGTGGCTT
0.4945158484728291 AGGAGCCAGTGTCAAATCTGATTAGTCAAATCTGATTGGTCACCGCCTGTCTGGTAGCGGGTTGTTTGCCTGTTTTGAATAAGACCCCTGGCAACAGGTGATTCAATTCTCTCGTCCCAGCTGATTGGGTCAGGTTGGACACGTGACTTGAGCTGGGCCAATCAGGTCTCCCCAGAAATGTGGGTGGGCTGGACCACAGAGGCTAGAGAGTGGAGAAGAGGAAGTTGTGCAAAGAC
0.1011694889686065 TGAGTTCCAGGAAACAGGAAGGTCAAAAAGTGAAGGGAAGCAACTATCCTTCCTTTTCAAGGAAGTGCTTGCGCTAATAAATTCCGCTTACAACCCATTGGCCAGGACTTTGTCACATGACTCAGGCAAGGGAGACTGGGAAATGTAGTCTTCATTCTGATTAGCCATGTACCCAGCTGAAACTCCAGGGTTCTATTACTATCAGTAACAGAATTTTGTGCCTCAAGTGCAAATTT
0.4617585783226808 GGGAGTGAATATTATGGTATGTAAGTTACAGCTCAATAAAGCTGTTTCTAAATTAAAAAAAAAAAAAAAATCCCTCATGCCCAAGCCAATCAGCATACAGCATTCCTCTGGTCACATGATTGGGCACTGGATGTCACATGACCTCAGTCTAGCTGGGAATGCTGGGATGCACTCTGTCTTCCTCTGGGTTTGGCACTGCAAAGAAATGAGGTTTGGAACCACTACAACCACCGGTG
1 AGTGGAAGAGACAGGTCCGTCTGGAAGGGACAGCCAGGACCCGGTGCAGAGGCAGGCTGTGGTTATCTGCAAACAGCCCCCTTCCTTCCAGCATGTCACGTGCTCCCGCCTGAGCCTCTGGCCGCAGGAATCAGGTGACCCCAGGCAGCGGGCCAGGCTGCAGGGGCGGGTGAGTGAGTCAATGTATGCAAGTGTGTGTGTGTGTGTGTGTGTGTGTGTGTTTTCATCTCTGGGAG
0.7910114547208766 CCGGAAGTGCCCCCAGGTCTGTTCCACCAGGTGCCCCTGGCAGCCTGCAGTAGAACCCTGGCACTCACGCCTCCCCGGGCCATGGAGGCGGCCATGACATGCATCACGTGACTCACCGACTGAGCATGCGCCGCGCCAGGGAGGCGAGGGAAAGCCCATAATCAATGGAACATAAGCGCAGATGTTTGCTTAGGGCCTGCGGTGACCAGGTGGGAAGAGCAGGGCGGAATCCATCT
0.1067379548907178 GCGTGTTGTGGGTAGGAGTTAAATGGGCCCCCAGCCAGGACCAGGGGTTCAAATCCGTTGCCATGGTCCCCCGACGCTTTCCCGGGCTCCAGAACGGATCGCGTGGTCACGTGACAGCGGCCAACATGGCGCCGCCCACTGTGTGGTACGGCCCACGTGGTTCCGACAGTCAAGATGGCGGGAGCAGCTACCCAGGCTTCCCTGGAGTCGGCCCCACGGATCATGCGGCTGGTGGC
1 TCATCTTCTCAAAAACAGGTAAAATGGGGCGGCCTGAGGTTCAGCAGGAAGTGGATGTGGATGTGTGGTTGCCAGGAGTTGCTGGGGGCGGAGGGTGGAACTTGGGTCCTGGGCTGTCATTGGACATTGAATTCACGTGTTCCACATGTGTGAGGAAATTGAAAAACGGCTCAGTGAACACTTACACACCCACACTGCAAGCCCTCAGCTGTGACCAGAATGCCAGGTGCCATGTG
0.01409381141455493 GCAGGACAGAGGAAGGGACAAAGGAGAAAGGGTGCAAAGGTCACATCCAGGTGTTTGTTAAGAAAGGTTCCCGGTAGCTGATGCAAGGTGCTTCAGCTTTCATTTTGTTGGCTAGAATGTAGTCACATGATCACTGCCAGCTGCAAGGGATGCTGGGAAATGTAGTTTTCAATCTGAGCGGCCATGTGCTCAGCTGAATTTAGGGTTCCAGTTTCCATGGACAAAGAGAGAACATA
0.474296095836455 TGATTCAGAATTACTTTTATTATTATTAGTGGCAGAGACTAGCTAGTGGCCCTTAAACAGCTTTGCCCTTCCTGGGTGTACAGCTAAACTAAGTTTCCTGGCCTTTCATGTGACTGGGGTCATGTGACTGTTTCCAGCCAGTGAGGTGTGAGAAGAAGAGAGGAAGCCCATTTCCAGGCCAGATCCCTCAAATGGCCCATTGAGGGTCATTGCTGCCCTTTTTCTTCCCTTGCTGA
0.2390774163027794 AGGCATAGCTGGGGCCCCGCCTCATCCCCCGAACTGGTGAGGAACCGGCGGGGCCAATCTGCGCGTGGCGCCACAGGGCTCCCCCGGGCACGTGCCTGAGCTCGCGGCTGCGGTCCCCAGGGTCACGTGGCTGCGGCCACCAGGGCCTACGCGCCTCGCACGCCACCTAGCGGCCGCGCCTCGCTCCCCGCCCCTCTCTCTAGCGGCCCGCAGGAGGCGGCGGCCTCAGCATCCTC
0.9684386658006966 TACGGCGGCCCAGAAACGCGTTAAACCCCGACGCGCGCGTCTCCGCAAGAGCACAGGAAGTAGGGAACGTGCTTTGGGCGAAAGACCGGAAGTTGGTTTATCACGTGACCATTTTTAGCCCCTGTAAACCAGGTCGCCGCCATTTTTGTGCGTGTGTTCCGTAATACGGAAGCCGCGAGGAGCCTTTAGGCCCTTTCTTTCTTTTTTTTTTTTTTTTTTTTTTTGAGACGGAGTCT
0.8660260188987213 GAAAATATAATTTATATTTCTCCTAAAAGGCAAGTAATGAGGAAATTAACTCATGCTCCTAGCTTCGCTAGGAATGTGATAGAGAATTTCCCCTGTAGGTTCTTCGTATGGTGCGCTCCGCTGGATCACGTGAGCCAGTTCCAAAATGGCGGCAGGGGTGGCCGGGTGGGGGGTTGAGGCAGAGGAGTTCGAAGATGCTCCTGATGTGGAGCCGCTGGAGCCTACACTTAGCAACA
0.09955559328569506 GAGTGGGGACACCAGAGTCACTTTGCAGCCCCGTGACGTCACCGATAACGGGCATGGCGTCACTCAGGAGACCACGTGTGCGGGCCGAGCAAGAAGCCCCGCCCACAGCGCGGAGTTTAGTCTGCGCGTGCCTCGCTCGAGAACGCGCTCGTGCGCATGCCCACAAAGGCCAAGGAGGGAGTGCGCAGGTCACGTGCGCCGGTGGTCAGCGCGCGCATTGCCTGCCCCGGAAGTGG
0.7264050618243696 GCCCGCCCCGAGTCCGAATCCCTCCCCGCGCTGCCTAGCCCGTCCTCACCTGCTCTCGTAGCCACAGAAAACCGAATTAGTCAAGGTGCACGTTTCCCGAATTAGGACCTGGGCGCCGCCATGTTGGCACAGTGGGTGGGCGAATCACATGATAGTGGTTGGCCAGTCAATGAGGAAACGTACGGTGGGCGGCCGGGATCAAAATGAAAGCCATAAAGGAAGCGCGCTGATCGTGC
0.8145114530048497 TCATAATAGGAAACATTTGAGGAGCTTGAACTGGGCGCCCAGCAAAGGCCACCCAGTTTAAGGAAGTGACATCACTTTTGCTTGCCTCCCATTGGCCCAAACAGTCACATGGCTACATTTAGCCTCAGAGGAGCCTGGGACATGTAGTCTTTGCTGGACACTGGAGACATGGCCTTGAGCAAAAAAGGCAAAAATCCACACTCTCTCTGGACATGGTGGGTCACACCTGTAATTCC
0.1232608682307789 GGATGTGGTTCTCCCACACCAGCTCGACCCCCGACGCTATTCACCTTCACCTCCAGGATATGGCGCTGCCTCCAGCAGAATTCGGCCCCCTCCGTGTCACGTGACCCGGGAGCGTGGCCGTGCCCGGGTGGCCCACTTGGCTCAGCGGCGCCCCGTAGTCCGGCCCGATGCGCATGCGCACAGTCGGAGCCCCGCTCCGGGGCCACCCGAAAGAGCCTTGCCTCTACTGGCCGCCT
1 AAGCATACTGAGAGGCAGCGATAGTCTGGGAATTCAGTCCAGACTCTGGAGTTGAACATAGCTCTGCTGGCTTCTCCCTGTGCTTGAAGCTAACGTCTCTAAGCTTTGGCCAGAGTCAAGATTTTCTGCCTTGTGGGCCACGTGGTCCCTTTCAAAATGACTCAACTCTGTCGTCATCCCAGGAAAGTAGCCATTGCCAGGCGCAGTGGCTCATGCCTGTAATCCCGACACTTTAG
0.2603234849634159 TAAAAAAAATAAAAAATAAAAACACCCCACCCCTCGCCCGCCGCCAAAAACCCTGTCTGAAATAAAGACTACATTTCCCAGCATTGCCATGAAGCTAAGTGTGGTCATATGACTATGTTTTGGCCAATGAGGTGAGAGAAAAAAATCACGTGTACTACTTCTCCACTGTGGCTTAAAAGGCAGGGAGTGAACCCCAAACTTTCTCCTTCCTCTAGCCGCAGTCTGCAATGCTTGTG
0.06905550814284907 AGGCGTGAGCCACAGTGCCCGGCTCCCTGCCCCACTTTCTGAGACCCAGATCCACTTCCTGGTTTCCTGTGTGGTCATGTGACCACACTTGGCCAATTGGAGCCTTTTGTTATCACAGGCACAGGGATTGGGTCAGGGCTGGGCACGTGATCCTGCCTGAGCCAATCATGCTACGAGTTTGGAGACTCCCTGGAAGAAGGCCTAGAAGTAAGGAAAACCATCTTGGACGCATGATG
0.06096657800399981 CCTCCCTTCTCAAAATGAAGGCTGCGTGTCACAAACCGGTTGGAACTGGCCGTTGCCATGGTTTTCACGTTGGAAGGCACAGTTAAAGGGTCATGTGACCAAGGAGGGAAATGCCTTTGTCACATGACTTTTTGGTGGCCTGATTAGCATACAGGAAGTTCACTCCCTGCTGGCTGCTGGGATGCTGAGTGATCATTGATGGGTGGTGACATCATCTCTTGGATGAGTTATTGATT
0.07885266114375608 TCACCTGACCCACCCGCGGCTCACGTGATCCGTCCCCAGCGCCGCCATTTTGGAGCTCCGGATGAGGAGGGGGAAACCGGGGGAAAAG
0.7209546069069594 TCTCACCCGCGGTCCGGCCGGGACACCCATGCCCCTCTCCACGCCAGCGGGAAAGAGCGAGGGAGGCGCAGCACTCACCCGGTGGCCGCCGCCATGTTCGCCCGGCACCGGCGTCACGTGAAGTGCGGCGTCAGCTGAGCCCCTCCGGGTGCCAATGCATGGGGCGGGGTAAGGGCGGGGCAGGGGGCGGGGCATGGAGTCCTTGACCCACCTCCTCCAGAGCCAAATTCCACGGG
0.7131954427888183 AAGCAGCCTCTCCTACAACCAGAGAGAGAGATGTCCCCTTCCACACAAACTCTTTCCCAATCACTGCAGAAAAAGTCCCAGGCAACAACAACAAAAACCCAGGCCCAGCTCCCATTGTACAGATTTGGGTCACGTGCTCATCCCTTGGCAAATCACTGTGCACCGGATGTACGCGGTAGGGGTGGAGCGGGGTGGAGTGGGAGGCGCTAGGCCTTCAAGAATCGTGTGACCTGAGT
1 GCCGCCCGGAGCCGGCGGGCGGGCGGAGGCGGAGGCGGCGGCGGCTGCAGCGGCTGCAGGAGCGGCGGCGGCTGCGGCGGCGGCGGCGGCATCTCCTCCTCACATGACCCCACTGTTTGTCCCCGTGATCAGCGCGAGCGGCTCCCGTATCTCCTCCGTCCCCTCCTGCCGCGCGGCGTGAGCGCCGGGCTCGGGGCCCCCCCGGCCGCCCGCCCCCTCCCCTCCCTCCCTCCCCT
1 GGGCCATAGCGAGTACTGTGCACCTGCGCAAAGCCGGCCCTTCGTCACCCCGACTTTCATCACG
1 ATCCCTGTCCTGAAAGAAAAAGAAGGTATCTGTCCCGAACTATCATGCAAAACCTCAGAGCTCCTGTCTGATTGGACTAGCACTGGTCATGTGATCTTCCCCGAACCAATCACTAATAAGAGGGGTGAGCTCACACTAGCAGGCTGGTTGCAAAACCTGCCATAGAGGAAGGGCGGGCTGGGTGCTGGGATTGGAACCAGGACACACATGCCACTGTATCTGCATTCTCTTCCTCA
1 ACCACCAGCCCCTAGGGACCCGGCGTCCCGCCCCCCACCCAGGAGGCCCTCCTGGGCCTGCTGAGACCGGAAGGCGGGGCCCGACTGAGCTTGGCAATCGGCACCTGCCATGGCAACAACTGTACCATTGGTCGCTGGTGCCAAGAGCTCAGCCAATCACAGCCTAGGGCAGCTGTTGCTAGGCGACGAAGAAGCGGCCCGCGGAGCTGAGCCCAAACAAAGGGCGGGAGTGGGGC
0.6324600997512668 GGGGAGCCCGAGCTCAGACCTGCCCACTGGCTGAGGGTATCCGGCGGACGCGGCAAGCCAGGGCCCCGATTACCCAGTAATGCAACCAGCAAAATGGCGACCACAACAAACCGGCCCCCCCACGCCCTGGACTCCGCCCCCATCCCTCCCTCTCCGCTCCCCTCACGTGACCCACACTGACACTCCGCCTGCGCGAGATGGCCGCTTACCTGCACGCATGCGCAGCGAGCTACCAA
0.8822444879799648 ACTTACCTCTGGAATACATCTTCAATCAGGTTTTCTCTCTGTGGCAAGGTGACTCTAAGCAGCTGCTTAGCAACTCTTTCTTCCCTAGCAACAGCAAAAATCACAAGACTGATTTTCATTGGCTTGAATTAAGTCAGGTGGCCATTCCTGAACCAATTACTGTGGCCAGTGTGATGAAGGCCTTCCATTATTGCAGCCTGGATCATGTGTCCTGCTGTATTTTTAGTAGAGGCAGG
1 AACTGCGGGGGTCGGTAGCGCCAAAGCCTGTTGAGACTACATTACCCAGAAGGCAAAGTGCGGAACACTTCCGCTCCCTTCACAAAGCAGGTGGCCGCACCACGCGCGGCTAGGCGCGGGCGTTTCTGGGAGTTGCAGTTTCCCAGCCAAATGGTACCTGCTGCCCTCTGATGGCAGCTCTGAGTCAAAAAGTAAAAATTTCAGTCGAGCCCCTTGGCCTAGGGATTCCAACGCGG
0.8487413154967415 CCCGGGGGGCCAGTCGGCCCCGCTCCCGCATCCATCGCGGAGGCGCGGCCCCTTTAAGGCTCCCGGAAACGGTCCCACAGGACCGGAAGTGACCCTCTTTATTTCCCTTCCTCACGTGGTGCAGGCAGGAAGTGACGCGCCTGGCCCGGGAGCTGCGGTCGCAGAGGCCGACGGAGCCGGAGTCGCGGACGCCGCGGGGTCTCCGGGACAGGTGACCTGGGGGAGGGGGCCGGGAG
0.9790839784385161 ACTTGCCTGATTATGATGGATAAAATGAGAGCTTTTCTGTCCTAGCAACCGAGTGTAAATTCCACAAAAGGGCCCTGATTGGCCCTTCTTGGATCATGTGTCCGCTTCTCAGGCCAATCCTTGGTTAGAGGGGGAGTAGACTACTAAGACTGGCCAGGTCTTTGTTACTTGCCTACCCAATAGGGGTTCTTTGTCTTAAAGGCCCTCAGAACCATGTAGAATCGAGGAAGGGCTGT
0.6290986177289298 GCCCCACGGTGTTGCTGCTGGATCCTCCTCCACCAATCAGCAGGAGCCCTCGGCTCGCGCTGGGGCGGGGGGTCCCCCACTCGCCCTCCCCGCGGAACTCTGGCACAGTCAGCTGACCGCAGACACTCACGTGACAGCTCGGGGCCCACGCCCGGGTTTGACAGTTCTGCGCAGAACTTAGTCCCGCCCCCGCGGCTGGTCTCGCCGGTTTCTTCACTTGGAAAGGCGTTTGTGGG
1 AGAGTAAGGATTATGGAGGACATTTCAGGCTGAGTCTAGAAATGGGCTGTGTCCCTTCTGCACCCATTCCATTGGCCCAAGACCAGTCACATGGCCTCAACTTCACTGCAAGGAGACCTGGGAAATGAAGTCCTCCTGTGTGCCTAGGAAAGAAGAAACCAAGTTGGTGAGCATCAAAGCTGCAGTGAGCCGTGATTGCACCACTGCACTCTGCCACCTACCCTTCGACTTCTGGT
0.8335592118332448 GAAGGGGTAATGGCGCTTCCACTCACAAACATGGCGGACAGAGCGTGTGAACGAGATGAACAGCCCCTCAAAAATATGGCCGCCGAGGCTGGACGGCCGTGCCCCAGCAGCACCGCCTCCGCGCCCCACGTGATCTCTCGCCGGGCACAGCGCTGACCGCGGAGGTCCAACCGGAAGAATGTCCGGATTGGACATTCGGAAGAGGGCCCGCCTTCCCTGGGGAATCTCTGCGCACG
0.4626182475876481 GTGGTGCAGCTCTCAGACCCTCCCACTTGTTTACTTCGTGGCGAGAGGGCGAACACTGCGCCTGCGCACTCTCCGTAGCCGGATCCACCTTCAGCGTCTGCGCCACGTGACTCCGATCCACCCTCGAGGTTCCAGTGGAATAACCCCCTTCTGAAAAATGGTTTCACCCGCTCCTTCTCTAGAACGGGTCGGGCCGCTACCACTGTCCGGCCCGGAGGGGAACTGTTTTCTCCGGA
0.625767494476365 GGCTCAGGGACACAGGACCAGGTGACAGGCACAGGACACAACCTCCCATGTGACATCACGCTTGGCTACACACACTCTTGCAAAGCTGCAGGGTGACTCATACAATGTGGTCACACCATGATACACACAGCACATGACACTGAACCAGATAGGTACAACCACAAAGATCCAGTCACATGGTAAATTACAGTGATATCATAATCCAGAAACAGCCTCGGATGAATGGAAATGCCTAT
0.4901456774240703 AAGCATCAGGGAGATTGATGAATGCAAGGTATCTCACACACCCACGCCCCTTGTGGAGAATTGCCTTCCCATAGCACTAAGTGGCCATGTTTCATATCACATGACTCCAAGTAGCCACTGATTGGCTAAGATTTGGTCACCTGACTGGGATGCCATCAAATGATTGGCCATTCAGTGACCAATGATGTGGCTGAAGAAGAAAAGGTGAGCTAGATGAATCAGATTCTCTTTCATGA
0.5313788605799583 ATGAGTGTGAGCATGAGATAGAGTGAAGGTGTGACAGAGTCAATGTGTGAGAGTGGTTGTGAGATGGAGTGAACATGAGAGTGAATGTGTGATAGAGTGAGCATGTGATAGAGTGAACACGTGATAGAGTGAACACGTGATAGAGTGAGCACGTGACAGTAAACATGAGCTAGAGTGAATGTGTGAAGGTGAACGTGAGGTGGAGTGAACGTGAGATTGTCGATGCGTGAGAGTGT
1 CTCTGCCAGTCATCGGCTGCTGCTCCTGTCCCTTTGAGGAACTAACGACTGTTCTGTGAGTCAGTAACTAGGGGCAGAGGGAGGGGTGACAGACTCATTGCAGATATCAGGTGATCACTGCAGATATCATGTGATCGCTGCGGCCTTGGAGCCAGAGGCGTCCCTGTTTCTGCTTCCCCAAGAGGACATTCTCCTCCCATGGGGAAGGCCCCCACTCACTATACATTTGCGGCATC
0.9970836022322861 TTCTGCACTTTCTCTAGAGAAAGCTCTCACACAAAGGCGAACAGACAAACAGGGCCGCCTTCCCCTGGAGGCCTGGGGTAAAGACGAAATGAGAGCTGAGTTCACGTGAAGTGCCCCACGTGGTGGCAGTTTCCTCTCTTTTCCTGTGCAGCTAGGTCACCACCCACTTCTCTTTGTACCCAGTTCTCTACTAATCAAACATACAAGACAGCTCAAAAATTGTGCGTGGCGAGTTG
1 TGAAAGGGGTTCCAGGAGAGCATCCCCTGAAAAGAGACCTGGAATAAGGGGAACTGAAAGGAGACCACGGCCGAGCCACATCCTCTCCGGGGCCTTAGTCTCCTTCCTCATCTGAATCAACCAGCTGAGCATGTGTTCTATGTCAGCTGACTGCTGGAACCGTGACCGAGCCTCCACACCCTGATTAAGCCACTGTCCGTTGCATATTGGCAGAGCCTAGGCCACTGCCCACCCCG
0.4670393207701825 ACCCATAGGTTCCCGGGTCCCGCGTCGCGATCCCAGTGGGGCGGGGTCTCAGAGGAATCGGAGGGTGACTCATCACGTGACTCGCTCCGGCCGCAGCCCCCTCGGAAGCTGCTAGGCGGAAGTAGAAGTTCAGAAGAGGGCTAGGCGGAGCCGAGCCCACATCCGGGAGAGGAGAGCGGAAGTGGCGTTGGTCTGGCCGGAGCCCTTGGGTGAAATTGTTAGGCGTGGAGAGGGAG
0.4751058793092718 AGCCCCCCGGCCACCCGCTCAGCTGTTTCCTGCTCGTGTTTGTTGTGCCGAGGGAGGCCCCGCCGCCACCGCCGCCGCCGCGCTCTGCCGCCCCGGTCCCTCCCGATTGGCCGGCTGGCGTCACGTGGCCTCCATCAGCTGGGCCGGCGGGGGCGCTCGCGGGCCCCACTGCGGCTGCCGGGTGAGCCCACCCGGGGGTCGCCCGGGCCGGCCCAGCTCCGCCAGCTTCGGGCTGC
0.9706758536112856 GAGGCTCTATTTTCCAAAACAAATTTTGGTGGTCACTAGTGTTAGTTACGAATTTTATCTCTCTTCTTCAGGATTGCATTTCCTGCCTCTTTGAGATTAGGCATGGCCACATGGCTTGCTTTGGCCAATGAAACGTGAGAGAAAGTGTCAGGTGTCAGTCCTGGGTGAAAACTTTATGCATGAGTGTGCTATGAGTCACACTTTCTTTCTTTCTTTCTGATGTTATATCCAGAAAG
0.8370722833676446 AGATATGTGGCAAAGGACTATAGCCCAGTGCCTGGAACACCAAGACTAGTCTCGTTTCCCATTCCACACACAATATGTTAATGACATGTCACGTGAGGGGTTCGAGGAAAGTTGCCTAGAGAGTTCCCAATTCATTCCTTTCCTCCGGTTACTGAGCGCCTCCTACATGCCAGGCGCACTACAGAAGGTGCAGTTGATTCAGACAGGGCCACCATGACCGTGAAAAGGGTGCTTCC
0.4567793636155196 CATTCTGATGCCTGCTCAAGTTTGAGAAGCCCCGTTCTAAGACAGCCAATCAAACAACCAAACACCACCACCAACAACAACAAAGAGACAAAACTCATTTCTTCTTCCAGTGATTGGTTTGGGGTGGGCACGTGACCCTGCTCTGGCTAATGCAGTGCAATGGGAGGCTTGTTTAGGGGCTTCCGGGAGGCGGTCGTGCTCTTGAAAAAGATGCTTGGGAAGAGTAAGAGGCATTG
0.939122652010302 GGATATAAAGGATCCACACTCCAAACACAAGCAATGTACATCTGGAAAAAAATCAATTAGGTATTATGATGTAGTCATGTGAGAATCATGAGATGCAATGTGAAACTGAAAACGGAATCCTAAATGAGTCTGCCTGCTATGCAGCATAAAACTACAATCTTTAAGTTGACATTGGGGTGAAAGGAAGGGGCCATTTCCTATTTTCCTGACAAGATAAACTAGTCATTTATGACTGT
0.9514899836997511 TTTTAAAGTTAATTTGGAAAGGAGCCGGCAAGCAACCTTCAGTCGGTGTGCGGTTTTTACAGTTGAACTGTTTCCAGCCGCTAATTATGATTGTTTTAGCGGTTCGTCATCTGAAAACTGCATTCTGCACGGCGGTGGTGGGGGGAGGACGAGGATGGAGAAGCCTGGGCGGACATATTTATTAGCTGCGGTCCTAAGTCACGTGTGACATTCTGTATCCAGTCTATCGGTTATCC
1 TAAAGATCACTCCAGCTAGCACATGGTTGAGTGGCCTTGCAGGATGGGGGAAGCTAAAAGTACAACTGTGACAAGTAATCAAAAGTAGCAAAGCAGAAAGAGCCCATGTGACCTCTGTGGTTTGAGGAACTTGTTACACAAACCCTATCTTGCTATTCACTCCCATTTCTCAAAGCTTTTTTTCTTTAAGCTCCTGAGAGAACCTGGAGCTAATTTTTACAATTTAAAGAAAAATC
0.2772639805567516 GACAGAGAGACAAGCCGGGCCAACTCCTTCCCATGAAACCCCGCGCTCCAGCCGCTCGCCAATTGGCGCCGCGGTCGGCGCGCGCCGCTCCCCCGTCACGTGACCGTACCCTGGGCGGGTAGTTGTTGGGGCGGGTCGGCCGGGAGGTTAGGATCTTGTGTTTGTGGCCTCCGCAGCCAGCTTAGGCTGCTCGGTGTCGTGTCGCAGTTATGTACTGCCATTTATTATGACTCTTA
0.8505484247900523 TGTCAATTATTTTGGAATAATTTTGTGATTTGTGTATTATTCCTTCCCTTTTATTACTTTGGATGATAACATTGCTTGTAATTGTTTTATCACATGGTTGTTTTATCACATGGTTGGTTATATCACATGGCCTGGAGTAGTGACTTCTTGAAATGCCATATTTTCATTCCTGTTACAGAATAGTCATGCATATGTTTCAACATTTATAGAGTAGTTGCTTTATGAAGGTCCTGTCC
0.6578185358534019 AGGAAGAGAAAGCTACCTTTCCACCCAATAACTCAACGCTGCGACCGAGAAAACCAGGGACGCGAGAGGCTCGCGTCATCCTGCAGCGCCGACACCACAGACACTAGAAAGCGACGCCTCCGGTGGGACGACTGGAGGTCACGTGGTACACTATACGCCACCTTTCCCTTCTGGCGGAAAAAGCCATAGAGTCAGGTTGACAAGGCCTGAGAGAAATATGTCTGTATTAAATAATT
1 CCATCATCCGGTTGGAAGCCAGATGTGACAGAGAGCTCTTTATATTTCGGGAGTGGCTACCTCAGGCACGTGTAGAGCCATCTGGGGCACCGGAAACAATGTTTCAGAAGTGAGATTAGGAGGAATCCGGTCATGTGGCCGAGAAGATGGGGCACGCAGTATAGACCACCTGTTTGCATAAGGGACCAGCTTTGGCTTGTCAGGTCTTCCGTGAGATGGGGAGATTTTTAGAAATA
1 TGCAGTTTGAACCGCTTCGGAAACAGCTGGCCCGGCGCGCGCGGCGGGAGGGACGCGAGTGCTCGGAAGAGCCGCCCCACGTGCTTTCGGGGAAACTGCCCGGGAGCGAGAAGGACTGGGATTGAGAGGAAACCGAAAAGCGAAAGTTAGAGCCTGCGGGAGCAGTACGCAGGCGCAGCACGCAGGCGCAGCGGGGCTTTCCCGCAGCCCGCTTCCTCCCAACGGTTTCTCCCTGG
1 AATGTACTCTCTTTTCATAAAGTCCATCAGAGCACCAGGGGTATGAAGTCTTCCACAGAAATGCAAAATACAGAGCTAACCACCGACCGCGAAGCAGAGGAAGTGCAGTCATGTGCTCAGGCTGTAGGTCTCCATGGAGACACCCTTCTGTCTACATCCTTATTTATCATCTGGGTCTCTAGTCACTTCATAACCACAAGAGGAAAAAAGAGCCATGGATTCAACTTGCACTGGCT
0.3927237090473779 GCCGCCCCAGTCTCTCTGTCGCCGGCATCCAGGCCAACCTGCCCGCTGCGGGCCGCAGGGGGCGGGCCTGAGAGGAGGGTTCGGGTTCGCTCCAGAGCTTCAGCGCGGGGACCGCACCCGGAGTCACGTGACGCCCCTCCCGGCAAGCTCTGAGAGCGACGTGGGCTGCGTCGCTACCCCTCAGGCGCCGGGCCAGGCGGGCGTAGAGCTGCTGAGGAAAAGCCCGCGCCCCCGCA
0.3163622909133241 AAAGCTCCCAGCAGCCAGCGATGAATGAAAACCCGAGTCTGGGATAGCGGCGTGAGGGGCTGGGCAGCTGCCAGGCGGGGGCGGGGCAGCAGGTCACGTGCCTGGCTTCGAGGCGGGCGCCGGAGGGGGAACTCTGACCATGATTGGTTCCTCCTAACCAGGTGACCGCAGGTCGCGTTCCGGTTGGCAGGCACCGGCCAGGGCCAGCGGCCTTCAGTCGGTAGGCGGCGGCGGAA
0.3523267465885021 CCTCAAAAGAGCCGTCACCACACCCCCAATGGGTGAGGCTCAGCCGATGAGGCAAGAGGCGGGTCCAGGAAACCACGTGTTCTGCCTTCTGCGCACGCGCCAGCCAAAACAAAAGGGAGGTCTGCCAAGCCCCACCCCCCACGTGACCGGCGTCCAGGTCCGCCCCCACCCCTCCCTAGACCCCTTCCCTCCCCAGCTGCCAAGGCTGTTAGGTTTAGCCGTTTAAATTTGGCTGC
0.6589877788470693 CCAGGCGCGCCAGGCAGAGCCCCACCCCATCCCGCCGTTCCCTTCAGCCCCGGGGCGCGGATCTTGCATCTGAAACTGAGCAGAGCAGGGCGCCGGGCAGGGCCGGCGGGCCACGTGATAAGCCCGGAAACAGCTCCGCCCCCTCGCTTCCTGAGCCGCCACATCCCGGCAGCCCTCCTACCTGCGCACGTGGTGCCGCCGCTGCTGCCTCCCGCTCGCCCTGAACCCAGTGCCTG
0.5879773933771352 CTTTGAAGAACATGCCCCCAATTCAATAGGCTGGCTATAACAATGAAGGTACCTTCCATCCCTCACCCCTAACCCTCAACAGGAAATGGACATGTGACCAAGAAATTGACATGTGACCAAGATGAGCCAATCAAACACTCTTTCTATAATTTGCTTCTTAACGGCAAAGACTCAAAGTTGGAAAACAGCTGGAGTTGAGGCATGAATTATTTTAAGGGTAGCATCTTGAAGAGCAG
0.7881245952980175 GGAGCGGGGGGAATGGTGCAGGCAACGAATGCAAATTAGAGAAGCAGAGCCGGCTTGGTCACGTGCCCAGGGCGGGAAATCTGACGACCAGGCCGAGCTGGAAACCTCCACGGAATCGTGGCTCGGGGCTGGAAACAGACCTCACGGAATCCTGGCTCGGGGCAGGACACAGACCTCCACGGAACTGTGGGTCGGAAGCTGCCCTTCCGCCAGCCGCCTTGCTCAGCGTATCTGAG
0.5731009285537936 TGTGAATTAAACTTAACCGCAAGAGGAGTCACCTGCGGTCACCTCGTTTCGCCCACAACAAAGATGTCTGCGCATCGCTTACCGTGGAGCCGTTCCAGTGCGTGGGCCACGCGTCCGCCCTTTTCCGCGTCACATGACCACGAACACTCTTCCGCTACGGCTCCCAGAAGGGGCCAGCCCGCGCCTTTCGCGCTTCTGCCCTGGCCCTCTGCGGGCCGCTCCGCCGGTGCTGTCCC
1 ATGCGATGTTATATAATGAAATGAAAGACAAGTAATGAGGAAATCAGATTTTTTAAACAGGAGCAGGACAGCTGTTGGTGTGAGTTCAACTTGCCATAACACACGTGACTTTCTTGTTTTGGATTTACTGCTCAGCTGACCGGGACACTCTAAACATAGCAGTTGTTGGTGGCTGGGATTAACTATTTCCTCATGATCTGTGAACCCTTTCACCCCTCAGCCTTCCTCTACCTTCA
0.4098768389750241 CGCGTGAACCTTCACCACTGCTGGGCTGTGGACCCTCACTTCCGCCGCCAGGAAGTTTCGGGGTCGCCCACCTTCCCTCCCAGGCTGCTCCGCGTCGGCGGCGCCCCGCGCGATTGGCTGCGCCGCCCCCACGTGACGCCGGGGTGGCGGCGGCGGTTGCCCGGGTGACGGCTGCGGAGGTGGCGGCCGGGCTGGGATAGCGCGAGTGTCCGCGGCCGAGCAGCAGGTAAGCGCGT
0.09144512572665485 ATCATTAAGGCACTTAAAAAAATGACTACCTTGATTTTCTCATGAAGCTTATGCCTTTCCCAGCGAGACAACCCCGCCCCTTAAAGAGGCGGCGCGGCCACGTGGGGGTACCTGGTAGGCCACCACGTGCCCGAAACACAGCGCAAAAGGCACGCGGCAGAGCCACCTTCCGGGGCCCACCACGTGTCGGCTTGCCAGGCCGGGGCGGAGACATCCGAGCGCAGCCGGGACTCCGA
0.8165561082643216 GGGTGCTGAAGATCCCGGAGCACGTACACCCGAAGGCCAGCGAGAGCTCGAGACTGAGGCGAAAGACTGAGCCTGCCCAGTAATCGCCTGTGGAAAGGCGACGACGGCGCCCTCGTGACTCCGCGCCGACCAACCAAAGCTCGCGGCCGTCCCCATGAGCCAATCGCGAGCCTCTAACCGTGAACGGCGCGGGGCGGGGAGTAGGCGGGCCGAGGCGGCCACGGGAGGGGGAGGGG
0.7985457575115076 GGGCTGGGCTAGAGGAGTGGCCCTGTGTGCGGGGGCTGGACGGGGGCGTGGTCATGTGCGAGGAGGCTGAACAGGGGGCGTGACCACGTGTGGAAGGGGGCTGATCGGAGGTGTGGCCACATGTAAGGGGGCTGGGCAGGGGGTGTGGCCACGTGTGAGGGGGGGCTGGGCCGGGGCGTGGCCACACGTGTGCTGGCTCTGCTGTGGGCTTCCTTCCCTTCCTGTGCAGGTGGTGG
0.9739454878289919 AGTGACATCTAGGTTTTTGTCTGCTCACTGGTCATTTCCCCATATTCTTTTGGGAAACCACCTCTTCACCACTCTTGATTCTTGTAGCTCAGACCAGGCAAACCCCACACCCACTTCAGAGGTGGGCACATGACCAGACCTGGCCAATTAGAACACTTTATCCCTCTTGCCACAGAGACTGGCACATGGTTGGGCGCGTGACCCAAGGCAGGCCAGAGGGGGCCTTCCCCAGGAAT
0.5920495272353632 TTCTAAGAAAATGGATTTGTTCGAGTGAGAAACTAAAATGTCAGGTTTAGGAAGGCGGCTTTGGATTGAATGACTACTAGTGTCTCAGGCAGAACTGTCAGCCTGGGAGGTGTCACATGATTCCTGTGTCTTCACATGATCACTGTTTTGGGGGGGTGGGGCCAATCATGTGAATTATCCTGGGTGGGGGAGGCAAGAGAAGAAGTTTCTAAAGATTGCTTTTAGCACAAATGCTG
0.4925737603042838 CGCCACAGGGCGCAGGAGCCAGGGCTGGGCCCACTTGGCGGGCGCGAAGCCCAGGTACGGGCTGGGGTCTCGGGGCGGCAGCCAAGTGAGGCTGCCCACAGTGGTGATGGCCGCGGCGGCGGCCTCGCCACGTGACCCGGACGGGCGGAAGCGGAAGTGCCGGCCTGGAGCCCGCTCTAGGTGGGTGTCCCCTCGGTGCTTCCCAGCTGCCGTCTGCACCAGCCATGGACTGCTAC
0.08114707814502331 ACGCTTTTACCAACTCACTGGAGGAGCCGTGGGCGCTTCGGGGAACTCACCTAACAAGGAACTCACAGCATTTGCCTCAGAGCAAATGTCCCAGAGAAAAGCCACCTGACCCACTCCCGTGACCCCTGAATAGAGTCACGTGACCTGGTTTCCCTGTTCTGGGTCCCGCAGCTTCCTGAGCTGACCTGCGGGCAAACTCTGCCTCAGCAGCCCCCCAACTACGTGGCACCATGGCC
1 CGCGCCACACACACACACGCCCTCAAGCCCTTCATCTCGAGCTCTTCAACTCCAGTCCATCCCCACTCACCGTCCGCAGTCCTACCAAGCCTCACGTGGGGCTCACACCCACAATCCTCCGCGTGACGCTCCGCCGTAATGGCAAGCGAACTAGGCCAAACTACTTGCACGTTCCCTCGAGAAGATCTTTGGAGTAGACACAAAAGCCGCGCTGGCGCATGCGCACAAAAAGCGCC
0.3568929066115001 CTTAGCGTGGTAATGTGGCTTTGTACCATGTCAACCTAGCTAAGCGGGAACTACGTTTCCCAGAATTCCTTGCCTGTAGGTTTCCGGGGTTAGCACACGCCACGTGACCTGATGCGGGCTTCGTGAGGCGGAAGTGACGCAGTGTTGTCGTCTCGTAGGCTTGAAAGGTAGGTGCCCGACATTAGGGACTGTCGCAGCCCGGGGAATTGTCCCCATCTGCTGGCTTACCTTGTGGG
1 TCTATTGATTGCCTTTTTCTTTGAATATGTTTCTGTATTTTTTTGATATAATGGGATTGAATTCTGAAGATTGTAAAACTAGATTTTGTTTTGTTCCTCTGAAAATTTTGATAATTTTTTGTTGTATTTGTTGTATTTTGTTTGATTTTTTTTCTATTGTATACTTTGCAATATATTTTCCTCCAATGGTTTTAACATTTCTATTTCTCAAAATATTTATGTTTATGTTAAAAATT
1 TATTCTGAATCAATTTTAACATCTGCTGAAATCTACCAATTGTCATACCTTCACAAACTAAATCGATACTGAAGCTCAAACTTTGTTATACCTGAGATTTCACTAAATTTAAACATTGCATCCCCTAATCCTAGCAGAGTAACTGCATATAGAATAGAGGGCACATACTTATGCCTCACATTTGTTACCTTGACTAAATTTCCCGTAGTCATAGAAGTCTTTGTCCATAGGGGACC
0.559204486464199 GCGAGACCTCCATACATCTCTAAGCAAAAAAAAAAAAAAATTCATTGTAAAAGCAATTTTCTTTTTGGTTACTGCCATAGGGATTTTGTAACTGAGTCACACCGGGCCGAGGCGGGACCTCATTGGCTGCGACCGACCACGTGCCGCAGTCGCCCCGGCGGTCGGGGCCCCGCCCCTCGGCTACCGTTCTGTGGATCAGGGGCCGAGCTCCGCCCCCGGCGCGCGGCTGAGACCCT
0.1582980728637873 CCAGAAGTCGAGTCCAGGCGATGGTAGGAGCTACTCCCCAGACCTGAGCACCTCTCCTAACAGCAGCTCAGGCAAAGGCCACGTCTCGGAACAGTTGGCTGCACAGGTCACGTGACGCGCCCCTAGCCCGGCTCTATTTGGCTGCAAGAGCGCTCTGTCGCCTGCCTCGGACTCTGTTTCCCAGAAGTCTTCCTGGAAACTACATTTCGCAGGGGGCTTTGCGGCGCCTACTTCCT
1 ATGTTTGGATGGAAACATTGGGCTCCTTGTCAGCTGTTCCCTGGTGCTGTGCACAGCTTGCAGGAACGGCTCTGATTTTGTTTAATGACTCTGACAAGAACGCCAGACTTGGCCATGTGACTTGCTCTAGCCAATGAGACAGCAGCAAACATTATGCAAGCAGAAACTTGAAAAGTGCTTGCTCATTGGCCTTGCCCTCTCACTGCTCTTGGTCAGACCCATCACCATGAGAACAA
0.1682505009595474 CAGGGAGGAAGCCCAGACAATCAATTCATGGAGAGCCGGAGCCAGGAAGTTGCACACAGAACTTCTGCTCTTGTCTCATTGGTTAAAACTCAGTCACATGGTCACACCCAACTGCAAGGGAGGCTGGGAAATGTAGTCTATCTACATTTCATGTGCTATCACAAACATCCATCAGTCTTTGCCACAATGTCTTAAATATTTCACAATAAAGAAATGTCAAATGTTTGTGTTAGACA
0.3860769220169359 TGGGTTCTCTGCATCTAGACAGACAGGGATGGAGAAGCTCACCTACTTCCTCGAGGCCCTGCCTGGAAGTGACACTCACCACTCCTGCTCACATTCCATTGGTGGAGACTAGTCACATGGTCACACCTAGATGCCAAGGATGCTGGGAAATGTAGTCTCCAGTGGGGCACATGTCTTCCAGAGACAATTCCACACTATGGAGTCTTTTCCAGAGTTAGTGCACAAAGTCCTCTTTA
0.06590188424216968 GCCCGCGGACCTTGACCCGGCATTGACCGCCACCGCCCCCCAGGTCCGTAGGGACCAAAGAAGGGGCGGGAGGAAGACTGTCACGTGGCGCCGGAGTTCACGTGACTCGTACACATGACTTCCAGTCCCCGGGCGCCTCCTGGAGAGCAAGGACGCGGGGGAGCAGAGGTGAGCTGGCACCGGAGGCTGGAGGGGATCC
1 AAGAAAACATCTATTATCTCACAGTTTCTGTGGGTTAGGAATCCAGAAGCAACTTAGCTGGGTGGTTCTGATTAGATCACCACTGGGATCAATGTGTCAGCTGGGGCTGAAGTCATATGAGGCTTGACTGCTGCGGGAGGGTCCACTTCCACTTCCACTTCCACTTTCACTTCCTATGTGGCTGAGGGCTGGAAGCTTTGAATCCTTGCCATATGGACTTCTCCATAGGCTGCCTG
0.2044884599569497 CATTCTAGCAGGTCTGGTATTTGAAGGCCAAGCTCAGAAGGCTATGTACATTACATTCTACTCACTTCCTGTTAGCCCCAGCTTAGTCACGTGGCCACAAGTAGCTGCCAGGGAAGCTGGGAAATGTAGTCCATAGCTGAGTGATTCATACTGTCACTCAATCTGGAATGCAGTGGCGAGATCATAGCTCACTACAGCCTCAAACTCCCAGCCTCAAGCAATCCTTCCACCTCAGC
0.3105732756816529 TGGGCAGAACAAGTGACTCTCTCCCATGTCCTCTCTCCCCTTAGCCACAGGAGTGACAAATCTGGGTACCGACATCCAGGATGAAGACTACATTTCCCAGCATCCCTTGCAGCAAACAGAGGTCATGTGACCAGGCTGTGGTCACTGGGAGGTTAGGCCTGTGCACAGTGGCTGCCTTTAGAGGAAGGAAGGTTTGTGCCCTCTTGTTCTCTTCTCCCCTCCCTGCTGGCTGGCAG
1 CCATCTCAAAAAAAAAAAAAAAAAAAAAGAAAGACCCTGACCCCACCCCACACTGTTCCTGAACCAAGCCTTTAAAGGCATGATTTAGAAATGGTGCACGTCACTTCCACTCAGGTCCTATTGGTCAGCATGCAGTCATATGGCACATCTAGTTGCAAGGGAAGTTGGGAAATGTAGTCTTTAGCCAGGCAGGCATGTGCCCAGTTACAATCCTGTTTCTATGAAAGCAGAGAACT
0.02821652738013338 CTAACTAAAGCCAATCAGCTCAGAGACATACATATGACAAGACCAAACCAAACAACTCAGGACGGCACACGTGACCAGGATGGACTAATCAGTGCAGGGATGCCCACATGACTGGACCTAACCAATCAGCTCAGGGATAGGCACATGACCAGGTTGAACCAATCAGCTCAGAGATTTACGCATGGCCAGGTCAATCAGGATTCCCCCTAAGTTGTACCCTGGTGACCATCAAGCCT
0.2317712913041342 TCAGCTGTTTCCACTTTTTGGTTCCTATGAGTGGTGCTGCTGTGAAATTTGTGTGCACGTTTTTGGTTGAAGGTCTGTTTTCAATTCTTTTGTGTCTGTCTATACCTAGAGGTAGAATGGCCGGGTCACGTGACAACTCCACGTTTACGAACTTTCTGAGAAACAACCGAACTGCTTTCCAGGGTGACTGCATCGCTACATTCCTACCAGCAGGGGGGGCGGTGTCCACACATCCT
0.4979961799279022 GTCGCTGACAAACCAGACAGTCCGGACCATGCAAAGCACAGTGCATGGTGCTTTAGCCACAAAGTTGATTGAAAAGTCAGAGGCAGTGAGCCACAGGAAGCGCCACGTGACCCAGACTGCGAGGAGGACACAGGAAACCAACCCTCACTGTGTCCTGCTAGGGGGTTAACCCGTCTACAAGCATCAGGGTTGCCATTTCAGAGATCAGCAAACTGAACAGCAGTCGTGACTTGTCC
0.1066845095046271 GTGGAAAGGGGGAAAGGGACTGGGCACAAGGGGTCGATGATACTACCAATTTTTTGAGGGCAAGATCAGGATGTGACCCTCATCACTTCTGCTGGCTTTACCTCGTCACATGACCATGGCTACTGCAAGGGAGACTGGGAAATGTAGTCTTTGGCCAGGCAGCCATGTTGCCAGCTAAAATTTATACTACAGAAGTATAGAAAAACAAAAATTGGGAGACAACCAGCCACCTGCCA
0.5689088721985013 CCTTTCACCTTGTGATGCTGCCAGATGTATGACTTACAGAAGAAGCGAGAGGGTGGGTCATTCACACGGAGTTAGGCTCATCCCTTTGGTGTACATCTCATTGGCCAGGCCCAGTCATATGCCCTCAACTAACAGCAAGGGAAGCTGGGAAATGTAGTTTTCCTGCATGCTGAGGTGGAAGAATGACGTGGTCAGCACAGCGCAAGTCTCTGCCTCAGCATGTGATACCTGGAATT
0.4085870383108622 CCAGCCCCTAGGGCCGGCCACCGGCAGATCCAACGGTGGCCCCTTTAAGGCCGGCGCCGGTTGGGTTATTGTACCCCGCCCTTCCAGGAGACGGGGCCAATAAAGGAACGGAATTCTCTTCACGTGACCTTCCTTCTGCCGCCCGAAGCCCGAAGCCTCAGGGCGGCCATGTTGGTTAGGGGCAAAGTCCTCGTCCCCAGTTCCGCTTTTCTGACAGCTGGTGCCAGCTGAAGGAC
0.09147255782343013 ACCCCCACCCTGGCGCAGGCGCACAACGACCCTCCCCGGGTGGGAGCCAGCGAGCGCGGGGGCGGGCGTGATCCCGCGGCTCGCGACGGCGAAGGAGGGGGCGGTGGGGTGCGACTGCGCACGCGCGCTGCCAGCCCACGTGACGCACCTCGCTTCAACGCCGCCACCCGCTCCCTCCCGCCGTCGGCTGACGTGGAGGGCCGGAGGTGGCGGCGGCGGCGGCGGCGGCTGCTGCT
1 TCCCCAGCCCCTACCCTCCCTCGGCCTAGCCGTCCCCCTCCTCTCCCCTCCCCCGGGCGAATCACGCGCCCTCCTCTGACACTCGTAGCGGACCCGAGCTCCGAATTTATCCTTCACGTGACCTGAGGGGGTTGGGTGGTTGGCTGGGGACAGAGGGGGAGACGGAAAGGAGGGAACGGAATCTGCCGTTACCTGAGCAACAGGCCCCGCCCGCCGGCTCGGGGCTGGGGGGCGGG
0.373195774497071 ACCACGCCTCAGGGAATGAGACCTCTGATGCACATTACCTGTGCTCACAGCTCATTGGCCACAGCAGCCATGTGACCGCACCCAACCACAAAGCTGCACAGCTCATTGGCCACAGCAGCCATGTGACCACACCCAACCACAAAGCTGCACTTGTATGAGGGCAAGACCAACTTCTTCAAAGCCAGTCACTCAAAGGGGATTCCTTAGAAAGGAATTCCCCAGGGTTGGTTGTCAAC
0.1162639204618511 CGGAGGGCGCCCCGCACATCATCTTGGCGGCGACGGAGGGAATCTGGCGAGGGGACTCGGCGAGGGGACGCGGCGGCTCCTCAGCCCAAGTAGGCGCTGGGGTCACGTGACGCGCGGGCGGAACCAAGGGGCGGGGAGGAGGCACTTTGGCTTCGGAGTCCCCTGCGGGGTCGCGGTGGCCCCGCAAGAAGGGACGCGCGGGGCGGGGCGCGGGGCGGGGCGCGGGGCGGGGAACC
0.7446414865723686 GCTCGAGTTTAGGTTTGAAAGGTGAGGTGAGAGAAATCGGCAAAGGGAACCCCTGCGCAGATCTCGGGTTCCTTTACTTTATAACCGCGGGTTCCGGTTCCTGCCAGGTGACTGCACAGTTCATCCTCATGACCCTTCTCAGCCAATGGGAAGAGAGCGACGCCCAGGAAGTCCCGCCCTGTCCCGGCCTGTGGGCGCGTCCTCGGGTCCTTCTACGTCGCTGACTCGTGACCTGA
0.5438583086316054 GCTAGACTGAGTACTACTCAAGCTACACGACAGTGGGGGTTACTGCAGTGAAAGATCCAGATGGGGAGCCAAGACGTAACCCTGCCTCTGACAGCCTGGGGAGAAAATGATCACGTGATATCAGGATCACATGACCAGAAACCTGAGCTCTCAAGGCGGTCTAAATGTTGCCTATCCTTAAAGAAAAAGGTAAACAGAAGGGTCTACATCAATATTTATTCCTGTTTGTGTCCAAA
0.9694268082710358 TCCCCTCAATTGCCCAACTCCCCCCCCCCACCGAACTGCCCAACTCCCCCTCCCCAACTGCCCAACTCCCCCACCCCCACAATCCCCTCCCGCCACAACTGAGGGAGGCGGTGCTGAAAAACAGCTGACTCCAGCAATGCTGCTCACGTGACCACTGCAGCTGCAGCTCCCGTTCCACTCCTTGTCCTGGGCTAGGTGGGCACTACCAGGGGCTCCTTTGGTAAGGAGTACCGGGT
0.9444004258075823 TCAGCTTCCCGAGTAGCTGGGATTACAGGCGCGCGCCACCACTCCCGGCTAATTTTTTGTATTTTTAGTAGAGTCACCAGGTTGGCCAGGCCTGTCTCAAGTGATCCGCCCGCCTCTGCCTCCCAAAGTGCTGGGATTACAGGCTTGAGTCACCGCGCCCGGCCCACGTGGCGAGTCTTAACCACGTGACCCTCCCCGCTCTCCAGCCCGGCAGGTACCAGCAAAGGACTAGCAGC
0.9036550176068059 GACTTCTAGGGGACTCTGGCCTCTTCACTGCAAAAGTCAACAAACTGGTTCATTTGTCTCCTGGCAGGAAAACTCCCCTGTCCAGCCCTAGGAAAGGGATAGGTCTAAGCAGGGTCATGTGACTCCCTCTGGCCACAGAATGTGAGCAGAAGGTCTATCAACCACTTCCACTTCTGACTCATCAAAATTTCTCCTTTCAACAGAAAACCAAATACTGAATGTTCTCACTCATAGGT
0.2668656116202772 TGTTTCCCAAGGGTCATATGACTGCTCCTCTCCACCCCACACTGGCCCGGGGCGGGCTGGGCGCGGGCCCCTGCGGGTGTTGCAACGCCCGGCCAGAAAGTGGGCATCAGCTGTTCCGCCTGGCCCACGTGACCCGCCGAGCATAAATGTGACCGGCCGCGGCTCCGGCAGTCAACGCCTGCCTCCTCTCGAGCGTCCTCAGCGCAGCCGCCGCCCGCGGAGCCAGCACGAACGAG
0.3528840112816163 CACGCGCTGGGGGCGACGGGGGTGGGGCGGGGGAGGCGGGGCGACGCAGCGCGGGGCGGCCGGCGGTTGGTGCTCGCAGCCCGCGCGCCCGCCTTCCCGGCCACGTGACCTTTGGGCCCCGCCCAGATCGGGAGTTCCGCGCGGACTCTTGGTGCGACCCCGTCCCACTGAGCGCTCGGGTCGGGACCTTCCCGGTGTCCCTGTGGGGCAGAGTCCCGTTGTGCAGAAGAGGCGAG
0.1176025193927991 CGTGCGGCGCCTCGTGCACCGCCCCGGGCCCCGCCCCCGCCCTCCATTGGCTGTTCCCGCGCCTTCCTCCTCTGCCCCCTCCCCCCGCGACCAGACTCGGCTGCGGCTCCACGTGACCCGCGGGGGGTGGACACGCCGCGCGAGCAGGAGCTCGGATAGGTCGCTTTGGCCGGCCTGGCCGCTCCGAGCTCCGCCCCTCTTCGGTGGCGCGTCGGGAAGGTTGCAAGTCGGGGACA
0.3512193931125693 CAGGGCGGGCTCCCCTGGCGGAGGCCGCGGCCGCCTCGCAGGGGCCGAAAGCGGCTGGGCTCGGGGTTTTTTCTCTCCATTCTCCCAACACACAGGAAATAACAGAGCGTCAGGTGACGGCGCGCGGCCAATGGGGAGGCTCCGGGCCGCGGCGCGCGGGCGGGCGGGAGGGCGCGCGGCGGGGCGGGGCGCGCGGCGGGGGCGGGGCGCTGGGGGCGGGGCCGGGCGCGCGCGTG
0.8217181722675577 GGGGCCCTGGGGTTTGGAGGAAGCAGTGCAGGAAGTGTCTGAGAATGAGCTTCACGGTGGGCGTGATTAAGGCTGATGTGCTACGGGAGGCGTGTCACGTGGTGGCCTGGGTCAGAAAAGGGAACTGTGACCAACTGTGGGCATTCAGAAAATGGAAAGGAACGCCGGAAACCCCCAGGGCTCCCCACAGAAGCTCTGGGGACGTGAAAGGACAGCGTGTTTCAAACTTGGGTTCA
0.02717221705550614 TGATGGTGGTGTAGGTAGCCATGTTTGACAACATGTGACGATGCCTGGTGGTCACGTGATTCCAAAGGCACCACACCATAGGTCAGCCCAGGACCAATAGCTGGTGGCAGGAAGCA
0.7862038388675426 GTTTCAGCGTGATTCCAAACACGAATGGGGATATCTGTGGCCACTATCCCCGGCACATCGTGTTCCTGGAGTATGAGAGTTCTGAGAAGGAGAAAGACACGTGAGCATCATGTGACCGTAGTGTACATGTCTGGGGAGTCCGTGGCAGCTAATCCCTGTGGCCAGGAAGTCTGTAGCTGGGCAGGGCAGAATCACTTTCCCCAGGTGTTAATCCTTATTGGCATTTTTATTTACTT
0.8634300244246742 GAGCTTCGGGCATCACACTTACATACACGCACAGACTAATACTCAAACAGGCTTGACACACACATGTCCAGGCTTACACACATGGCTGTCACGTGGTCACACCCCGTTCTGCCTCAACCTTGACCCAGTCTTGAAACAGAAATAAAGGGAGCAACTACTGAGCATCCTGGGGGTGGGAAGGGCGGAAGCCCATCTTTTCACCCCTAGGACGGCTGGGCTGGGAAGCTAAGGGCGCT
0.5884261813262925 CGCGTACCCCTCTACTGCCCACTGTCGACGAAAACAGCCTCGCCCTGCACCGCCACCGCCACGCATAAGGCGGTGTGTGGGCAGCTCGGACGTGGCACCTGCCCTCAGCTGCTCAATCCCGGGCGCCGCGACGGTCACGTGCACAGCGGCAGGCCTTTTTGCCCCGCCCCCGCGGCCCGGCTCCTGCGTGGGCCCGGCCCCGCCCACAGCCCGCGCAGTCCCGCGAGCCTGGCCTC
0.3477280512492478 AAAACGTCATAAACTTAATGGCTAAAAGTAATAACTGTTTTATCTCTTCAATTCTGTAAAATGACTAGACTCAGCTAGAAAGTTCTGCTCCATGTGATGCTAGCTGGCTGCCGTCACGTGGAAGGTTGACTAGGCTGGAACATCCAAGATGGCTTAGTCACATGGCCAGCAGTCAATGCTGCTGGCTGGGGGCTCACCTGGGGTTATGTATGGCCCAGGGCTCCTCAGTTCTCCTC
0.5703202572125483 TTAAAATAAGAGGGCAATGACATCTCTATTCTTTACAGTCCTTTTAGATCTGACAGCTCAGTAATTTAGACAGGAGAGAGAAAAGACAAAGCCCAGTGGTCAGAGGGAAATGGGAGGTGTGTCCCCTCCCAGCTACAGTGAGGGGGCCACGTGACGCCTGTGGCAGCATCTGTGGTCACATATGTTACAAGTGAAAAAAATATCACAATGAGGTTGGTAAAGCCTTGGGCATTACC
0.4590814513438592 GTGCTCAGTACACCACTGCGGCAGGAAGGAGGAAGGGAAGAATTCCAGATGGGGAGAAAGTAATATTTTGCAGCACAGTACAGGGTAAACTGGGTCCAGGTGGGCGTAGCCGCCGCGACACCTTCACGTGACCGCGGACAGCTTAAGGACCCCGCATCCAGTGCGCCTGCGCTGGAGCTCCCGGAAGTTGCCGGACCCGGAACGCAGGCGGAGCGCAAGTCTGTCAGCCAGTCAGT
1 AGCAACAGACATGCACTGAGTGAGAAGTGTCATAAGTCATGTACACCCTGTGGAATGCAGCATTATCTACAGTCACACATGCCTACGTACACCCAGTTTGCATACAGCTTCATGCACACGTGACACATCCCAGCTATGCTCCCCTCTAGCGGATGCTGGTGGTATGACACTCTGTCTCTCTCCCTGGCTCTGGCAGGTGGAGCTCTCCTGGAACAGCTTTAATAAGGGTGACATCT
0.8373915685823079 GTTCAGACGTTCCACGCAAAAGCAAAGTTCCCTGCAGACGCTCCATTAAGTTCTGGGTGCAAGGAAGCGCGGATCCTTCAGTTCTGGGCGTTTTCACCAGGTGGCACTCAGAACACCCTCACGTGACAAGCGTCCCACCCGGAAGCGAAATCTCCCCTTCTACAGAGTTCCTCCGGCGCTTCCTCCACCCCGGGATACACAGAACCTCATCTCCTACGGTGCTGAAGCCTGCAGCA
0.4182952120742944 ACTTCGCGGGTCTTCCGCCCCGCGCTAGAGGACGCACTCCGTGACGGGAATTGCGGTCTCGGCCGCCCCCGGCCTCAGGCTTTCCGGGCTCTGCTGCCTCCAGAAAACTACAAGTCCCAGGATGCTCGGCGCGGGACGGTCACGTGGGAGGGGCCGCGGGCGCGGCTAAATAGTCTCCATCGGCCATTTTGTGCGAGAAGCCGCAGCGCCGCCTCTTCTCTCGCGCCCTCGCCTCT
0.7009385493502934 CAGGTTAGGCCGGAGGCCGCCACAGCCCAGGGTCTCTGCCACCTGGCCCGCCCCCTCCGAGGCGCCGGAGAGCGATTCCCAAGGGGCCTGCCGGAGCGTGGCGTCACAGGAGCGTCGCGTCACGTGAGGCTGCCATCCAATCGCGGCGCGCGCTCTGCCCTGCGGGCAGCGGGTGCCAGGCACGGTGTCAGCAGGCAACATGGCCGAGAGGCCGGGGCCTCCGGGCGGCGCCGTGT
0.9132550652881252 AAGCCTGGGATCGCCGAGGGTAGTTGGACCACAGAAAATGGGGAAGGAGGGTAGGTTGTTTAGAAGCCTCTGGTTGCTAACGGAAACCGAGGCACGTGGACTGCAATTATGCATTTTCATTGGTCCTCAGGATCACGCGACAGGAAGTATTGCGTAACCGGTTGACTGCCACATGCGCATTGGCTTCCAGGGCCGGAAGTCCCACCTTTTTGTGCCAGTTCACTTTTGGGAGCTGA
0.493802555628731 AATTGTCCAAGAAGCCAGCGGAGCGCCCCGAACAAGCACTGTAAGGGGAGGCCAGCAGGCGCCTCCTTTTAACTGGCCGGCGGCGGGTCACGTGGCACAGGCAGTTTTCCGGGCCTGAGGGTCCCGCCTCATCCGGCCCCCGCCCTACCCGGAGGGCTCGGCCCCTCCTCAGCCAGGAAAAGGCTGGAGAGTGCGCCCGAGCGGGACGCGTGCTCCTCCTAAGCCGGAAGGAGCAG
0.4906632754135135 AGTCTTTTTGCTCGTCGCCAGGGGAAGTGCTTCCTGCTGACAGGTCAGCTCACGTGTCAGTCAGAGTCTGCCTCTCAGGGCCTCTGCCGAAAGCGTGGGGCACGTGACTGTGACGGCATGGGTTGGCGCATGCGCTTCGTTCCCGGAGTGGCTGGCGGCGGAGTTTTCGCTGGCTACTACGAGGCCGGAGCGCCCTTGGCCTCTCTGCGTCCCTGGCCCTCGTGCGGTACCGGCGG
0.8146204026999964 AGCGTGGGCGACAGCAAGACTGTTTCAAAAAAAAAAAAGAGGAAGAGTGAAAGGATGGACGAAAGGAACTCCTGTGGGGTGGGGCATCTGGGGCACTTGATGCCCCACGTGACCATTCCCTTCCCGGAGGTCTGCCCCAACTGCTCCAGCCCCCATAGCCTGAGGCTCCCGGCACCTCCCACCCAGCATCTGTCACAGCAAATCAATCTGGGCCACATGCTCCTGAAAGGTCCTTG
0.5861338518027123 GTGGAGAAATCCTAGAAAGGACCAGCTTTGGGAAGGGATCGCGAGCCCTTTAAGAAAGCTTTACAAGCGGGGTGGTGACAGGCGCCCAGTGAAGCGCCACGTGACTTTTTCCACGGGGCCGGTGGGAGGGGAATGCTCCTTTATAATCAGCTTTCCTTCCCCTGCCTCCCTCTCAACGGACCAATCAACTTCCGCGGTAGGCGGGCGCCTGCCATGCAGATGGCCAATCCTGGCCG
0.9486628617742442 TCCTAGCGCAGTCCAGTCCCGGGCGCAGGGAGGAGAGCTGGTCAGCCAAGATTCCAAGACAGGTGTCCACCTCCTCCAACGAAGCGGAACACGTGACACCACCCTATCCACTTCCGGCTTGGAGGGCATGCCCTCCCGTCACCAGCATGCACTTTCGACAAAACCGTGGAATCTAGTATTTTCCTCTGACACCTTTATATTTTCTTCACTTCCCTATAATTCTGACCTATCGTGTA
0.7126004401612186 GTTTGAAGCTTCCAGCCCTTAACTAAGATGGCGCCTGGAGGCCCGTTAAAAATTACCTTGCCCTTTTTTCTGCCCTCTACCAACACGGCTTCCGTGGCGTCGTTCACGTGACATTCCTGGACTACGGCGCGGGAGAGGGGGTAGGAGGGCCCTTGAAGGGTGCGCGTTCCCGTGGCGGTGCACCGGGTAGGTTTCAGTCAGAGTCACTATGGCGGCCGGCGCTGGCAAGGTAAGCT
1 TGTTCGCTGCCGGTGTGCGTCAGCAGATGTGGCAGGAGGAGGTAAATAGCCACGTGCCCTTGGGGTGAGTTTCGGTTTCTCCAGCTTTCAGGGACTTCTAAAAAGTGAGCCTGGTTGCAGCTTCTACAATGCAGTAATCCTGGCCCTTCTCTGAAGGTCCTTTGAATCATTGCTCTTGGAATCACTTCTGGGTTGCTCATCACCTCAGCTTTTCCACCCTCCCTTTCCTTACATCC
0.4789213826979495 GAAATCTGTGGAAAGCTCAAGTTTAAGTTAGGTGTTTTAAAACAAACGTAGTTAACAATCGGCCAGATAGATTGGCTACCCTCCAGCACGCCTCAAGTTTTAAGATCACGTGATTGGCCCAAACCTCAGAGCCTGGAATTTTACCGGCGGACTCCAGAGGGACGGAACGCCACCGCCATTTCCTGTCCCTCGATTGTGGCGTGAACGTCACTTCCTTAGCAATGCGCTTTAACTCT
0.7573776109046053 GGGCAATTCCAGGCTATTAAGCAAAGGCTTAGTTTACAGGCTGGACTAATCCGATTTGTGTGCTGTGTCCTGGGCTCCCCTGTGGCAGTGATGCAATCATGTGACAGTTGGTGGTCATGTGCTGGGTAAGGACACTTTCAGGAAGGATGATATCACAGAAGTGATATAATCACCAGATAACTTTCTGAGTAGGAGGCACATGTCAGGGCATGAATTCAATGGTGACAGACGTGAAA
0.05500265884428985 GAGGAGGAAACTAAGGCACAGAGAGGCTTGTCAACCTGCCTGCTGTTAGTTGCCCCAATTCTTGTTCTGCCCTACAGAACCTTGATGTTTCCTTCGGTACACAACTGCTCAGAATAGAGACTACATTTCCCAGTCTCCCTTGCAGCTAGGTGTGGTCACATGACCACGTTCTGGCCAATAGAAAGCAGGCAGGGGCTGTGTGCACATTCTGGGTTGACGGCTTATTTTCTCCTTGC
0.7689356710912759 AGGTCCGTCACCGCCGTCACGACGGCCAGAGATTATACCCGCCGAGATGCCCGCGGCCCAGGGCCTACAATTTCCTCCGGCCAGCTCCTTTGGCCGCGCAAGCGCAGTGGGGCCGGCGGGAAGCGTAGGCGTGTGACGTCATCAGGCGGCGCGGGCCAGCCAGGTGCACGTGACTAAGGCCTTGGGCGCGGCAGGTGGTAGCCTTCCCGCCCTTCTGGCCTCTCCATCCCCTGCTG
0.3624349755904248 TGTTACAATTGTATAATTTTAAGTACAATTGTTGGCACTCACTGATATTTCCAGTGCTGCTTCTCTTTCTGAACACACATGGAAGACTACATTTCCCAGTTCCCTTTGCAAGGCCATGTGACTAGTTCTGACCAATGGGTTGTGAAAAAAAGGAAGTGAGTGTGTAACCTAAGTCAAAGCATTTAATTGCTAATGTGAAGCTCTTTTATCCTCTCTTACCCTACCACTGAGATCAC
0.8648122332014738 GGGGGCTGGCCGGAGGAAAGCAGAATTTCAGGGAAAGAACGATCGGGACGGGGAGGACGGGGAGGGCGGGGCAGAAGACGGAAGAGTTGAAATCAGCTGACTGGGTCTCGTGACAGCCTGGGCGGTGGCGACGCAGGCGTATTAGAGCGCGCTCGCTCAAAGCCTGAGCGAAGATGGCGGCCTCCAGAGTGAAACTCTGAGAGGCAGAGGGAGGAGGCGGAGGGGGCGGGGAGGCA
0.2805566936660047 AGGGGTGTCTCCACTCCTCAGTGCAGTAAGAAAAGAGCATGAAAAAGTGCACATGGGAGTTTTTTATGGGCTCTGCCTAGAAGTGGTGCGTGTTACTTCTACTCACATTCCATTGGCTAAAACTCCATCACATGACCACAGCTAACCACAGAGGAGTCTGGGAAATGTAGTCCTTGGTGGAGCAGCCACTTAGCAGTGACAGCTCTGGAGGGGTTTCTGAAGAAGAGGTAGTTCTC
0.5606262325133433 CTGAATTCCCGGACCCAATAACGCGACCAAGCACCGTGACTCCCAGGAAAACTAGCGGAGTGAGCGCGGCTGAGGAAATTACTGACACCGGAAGTCACGTGAGCGGCTGCCCCTAAGGTCGCTATCTCGACAGTCGACTATTCAGCCTTGCAGGCGCCTCTGGCGGGCTTCACTGAGATCCGCTCTTTCGGTGCTCGACTCGCCCGTGCTGCTGCCGCCGCCGAAGGAGGGGCAAA
0.1865182510681627 GGCGGGACCCGGTTTGGCGAAGAGCAAGCGTCCCCAGGATTGGCCAGCTTGGCGCCACTAGATAGGCTTCCGGGCGTGATTGGGCGAGCGGGCCAGACTTCCGGATTCCTGACAAGCCACGTGACCCACCCACCTGGAGGAGAGAGAAGGGATTTGTAGTTTAGTCGGTGCTTTAAAAAAAATTAACAAAACTTTATTGATATTCCACTTCAGAGCTGCTGACAGACTCACGAGTT
0.9362903951071863 TTAACACGTTCTTTACTATGAGCCTGGAACATGATTTGTCTGTTTTAGTTCTAGCAGGAAGACTCAGCCATGCTTCACAGTTCCAGACCACAAAAGTGAGCTCAGGCAATCATGTGTTTTAGAAACAAGACACGTGATCAGAAATTCTTATGTTTGTCAGCTACATACATTTCCTTTGAAAACATTAGTAAAATTTAGCCTATTAGCTGTTTGAAAATCAGCATGGTGGTGGGGGC
0.7184096816970933 GCTTGGGAAAGTAAGAACAAGATGACTGCACATAGAAATTAATGAAATAGAAAAGGCAACATGGAGCAATGGGTTTGCCATCACGTGTTCGTGATGCTTATTTGTGTATCATGTGAAGGCTATTATTAGTATGTGAAGAGAAAGTGAAAGGTTTACAGGAGGCAGTGGGTGTTGTCTAGAAGGAAATCCAGAACTGCTTCACTGTTTCTGAGACTGAACTTTTTACTGTGACCTAA
0.1102877487131746 TATTTAAGATGGCAATAAGCCAATGAATAACGAGTGGCAAGATTTTTACTAAAAATAACTTGAAAAATGCTTCACTTCCTCTTTCCCTCTTTTTATTCATCTGATGCTCAGTGTACCGAAGAACTGTTTGGTCACGTGACATTTCACCTGCTATACTACCCAGCAAACAGAAGTTTCACAAAATGCCAGGTGTGAGTTACAGATGCTGTGGTGAGGGATAAAAAGAAATGCTTAAT
0.1643196654800891 CCCGCCCTTACCCGCCCCCACTCAGCCCTATTTCCGGGATAGGCCCCGGAGCGTCACAGGCACCGCCCTCTCGGGCTACCATTGGCTACCAGATTCCCGAGGCTCCGCCCAGTCACGTGAAGAGCGCCCTGGCAACCCCACGTGCTGCGGATTAGTGCACTTCCGGCGTGGAGCGCACTTTCAGCAGTCTGGTTGCCGAGGGTGAGCTCGCTGGCAGAGGAACTTGCGCCTTCCAA
0.4946987983186907 ACTTTATTCTGTGAGCACTTATCTCAAACTAGTTCAGAGCAGTGGTCCTTGATCTTTTTGTCTTTTCATCTCATCATATTTGAAGGAACACGTGTCCTTGTGAAACAGTAATTCTCAGTCTCTATGGAGGAAAGTGACATATCACGTGACGGGCCTGTTAGAATTTCTGAGTAATATGTGTAGTGTGAAAAGATTTCCCAGATGACTCTGACCTGCTTGATACCCACTTTTGAAAA
1 GGAGCCTGAGCCTACCTTTGGGCTGATCCAAGAATGTGAGGGCGTCTCCACGAACACCAATCAAAGACCAGAGCCCGGCTTCAGTAGCGACGATTGGGCAGTCTGGCCACGTGCTCGTGGGGGTGTGGCCTTTGTTTCTGCGTCCCCTGGGGCCTGCTCTGACTAAGGCAAGGGTTTTCTCCATCCTCCCCCTCTTGGTTGCCTGTCACTGTTTCTTCCTGCATCCCGTGGGGTTT
0.8199593844457892 AAGCAGAGCGTCTCGGATTTGGAGGTTCCGGTTCGAGGCTCGAGGGGCCTGAAGGTGGCTCTCCCTCCCCGGGCCCAAGACGATGGTATGGCCTGCTCCGCCACCATCACGTGGGCTCCTCCTCTGTGACGTCGGCGCCTTCGCTGTAGCAAAGCTCGGCCTCTGGAATTCTGAGAACTAATTTGCTATTCGGTGACATAAGAGGGGGAGTGCGCTTTGCTTTCCCGGGGTCTGGG
0.7829694659591024 CACTTTGGTAAATGAAAGAACTGAAAAACTGCCTCAAGACACCCACATACGGCCAACGCCCGCTAGCCTTTCTTCCTCCCACAGCCCCACTCACGTGGGCCTCCAAACAGCATTTATTGGCCGGCTTCGCGCCACGAGACGCGATGGACGTGATCGCCGCCCTCATCTTCTGCGGCGAACTTCTAGCGGGTGACGCTGTCCAATCGGAAAGCGCCTTTCCGCCGGCTGGGCCCTCC
1 TTACCTGAGAAGGCGGGAAGGTGCGGCCGCGGGGTGAGCGGCGGACTGACCCAGCTCCAGCGCCTCTGCAGAGGCTTGCAATGGCGTCTCTCGGGCTCTGATTGGTCAGGCCTCCACACGTGAGCCTCTAGGAGCCAATCATGTCGGCCCACCTAGCATGCGCTGATTGGCTCAGGCTGGCCAGGGGCGGGCGCGGTCCTTCCACGGCCCGGTCCCCGCTCCCTTCCCCAGGCCCG
0.9323042626563237 CACCCCCGGCAGCCTGCCTCGCCCTCGCCGGGAGCGCGCCTACGTCACCGCGCAGACCTCGGCCGCGTCTTTGCGCCTGCGCCTCCTGGGCTGGGGTGAGCCATTGGCTGTCGAGCTCAGGGCACGTGCTAGGGGGCGGGGCCTTGACCGGAAAGGGTGGGGCAACGGCGAGAAAGGCCGCGTCGAGCGGTAGGTGCAGTCGTCGCTGTGGTGACCCCAGGTCCTGATGCGTCCGG
0.8896261248191198 CACCTCACTGTGAGCATGGAGCTCCAGGAACATCCCAGACAGGAGTGGGCAGAAGGGCAGGGATGCAATGCAGCTGTCTCCTTATATCCTATTGGGCAAAATGTGGTCACATGCCACACCTGGCTGCAAAGGATGCTGGGAAATGTAGTTTTTATTCCCAAGGGTCCACTCCCTGCTGACAATTCTGTTCCTGCAGATGAAGGGAGAATGAATGCTTGGGGACACTAGCAACAGCT
0.7159800950024681 GGGCCCTTCTTCAGTTCTTAAGGGTGAATCTTGGTGAACCTAAACAGATCATGGTAATACCATCTCCCTTGCTAAGAAATGGTTAAGACATTGCCATGTGACATCATCATGTGACAAGGTCTCATGCGACCACAAGCCCCAGGTGATCATTCTGACCAATAAAATGTGATAGGAACTGGGTTTCTCGCTCTTGAAACACACACACACACGTATGTGGGAAGAAACTTCCTTCTGCC
0.6996357270186867 AGGCCTCCTTTGTTTTCTCTGCAGCATGGGTAAATAAGTAAGCTTGTGCTGAACAGAAACTGAAACAAAATTTCACAGGACAACTTTCTAACTAGAAAAGATCACGTGAGGAGAATACCATTAAGTACTGCTTCATTTAAAGAAGAAACAAGTGAGCAAAATGGTTTAACTACCATTATATATTTAATCTGGCCAATACTTACAAGTAATAACTAAAATGATAAATTACAAGGTCC
0.6189112408233221 AAGCCAGGAGAAAAAAAGGAGTTGCTCAAATAAAGCGTCCCTGGCAGTAACGAATCATTAACTTTCAGCCCACTCCAAGGAATGGGTGGCCTGAGGGTCACGTGCTAAAGAGGAAACCCTGAGTGAGTCAATCATGAACACATGACTGTTCTTAGTTCCTTATAGGTTTGCTTCCTCAAATAGCCTTCCTGGAGTGCTGAGCCAAGAGATGGATTGGGACCAGTTTCAGTTCTGGG
1 AGCCCCCTGCAATGTGCTTCTCACAAATGCATACTGCGCAGACCATTCAGTCAGCCCTGCCCATGAGAGCAAAGGAAGGTGTAACCCCAACATGATGGTCCCCATGTGACCCAGACACTGGGGTCAGGTGCAGGAAACTGTTCCACTTTTAGTCAAAGCTCACTGATGTATAAGTGAGTCTGAGACAGGGTGTCTGGGGCTCTGGAAATAAAGAACCAATATTTCCACCGGAGACA
0.2241665341920426 CCCCTCCAATGAGGCCTTGTTCCGCCTGGCCACGCCCGTCGGTTGGCGCCCCGCCCCTCCGCGTCTATTGGCCGCTCCCTTTTTCTCCCATCGCTGCTTCTTCCTTCTCTACGCGGTCAACTTCCGGCGCGGAGTTTGTCACGTGCCCGGATATAGGAAGTGTTGGGGGAACGGCCGCTTCCCGTTCAACGCTTTATTGAGGGGCGTATCCTAGTGGCCCCCATCCGGTCTCCGTT
0.810703994817585 GCCGCCATCTCCTCCACCTCCCCTCACATTCCACCGATCCTTCCCCCAGGATAAAAACCACGCCCAGAGAAGCTGCGCCTCTCTAGCACACCCCTCCCAGCCCCAGCGGCCACTAGCGACAATATGGCTCCTAAGCACGTGACCCGGGGCAGACGGATTTCCGGTTCCCGGGGCTACGAGGCGGAAGCGAAGGCAGACGCAGTCTCCGTCGTTGACGTTAGTCGCAGTCTTCGCTG
0.6049965231364581 CGGAGCCCGCTTCTACATCCACCTTGGGAAAAGACCCCAAGTTAGCTCTCAGGGCTCGCGGACCGGAAGCACGCATAAACTTCTACCCTGTCCAATCATAAGCCTCACGTGACCTGCCGCGTAGGGAGGGCACGAACAGAAAGGTGCTGCGCATGCGTATTGAAAAACCTCACCTACTCTCGCGGGTCCTCAGCGTTCTCCTGCGGAACCTTTGAACGGGGTACTCGAGCCCACAG
0.9805768215391415 TACCACAACCCTGAGAGGTCGAGAGTTCCTTCCCATTGTGAGTTCTTTCGTGGAATGCGGTATACACAGGAAGTCAAGAAATGGTCACTGGGAAGTCAAAAATAGTCACATGGTCGTAACTCCATCACATGTTCTCCCTCTTTCAATTTTAGCAGTAATGTGATCCTCAAAAATGCATTAATACTAGTTGAAGTAAATAAACGGAAGAGCTCCAAAATGCCTGCATTAAATGCATT
0.6069803463463939 ATCTTAGATCGATCTGATCGCACAACCGCTCCAGAAGGGGGGGTAAGAGGAAAAAAATGAGATTCAAACCGGATTGGCCAGCTTCTGGCCACGTGACGGATATGTCCGTTTGGCCCTGGCGGCACCTGCGCAAGACTGCGGCTGCGTGAGTAACGAGAGGCTTCTGGGAAGTGGAGTCTCTCCCCCACCTTTTTTTTTTTTTTTTTTTTAAGGTAAAGAAATTTTTTTTAAAAAGG
1 GACTAGGCCTCAAAACCAGGCAAAGTAGCGCCAGTTACCTGGGGTTTCTGGGCTGCCTGGTTCTCTCCGCTGTCACTTCAGGGACAGCTTTAAAGACAGGTTCCTCCTCAAGCCACCGTCACATGATTCATGACCTCGTCTGCGCTCCAGGAAGCACTTTCTAAGCCGCCGTCGCCCTACGATACGGGATTTCCGGAGGGGCCCGGCGGAAGCTGCGAGGGCGCGTCCGGCGGCCG
0.8826296666419972 CCACTGCTGTCACACAGCCTTGCCTATGCCTTGGTATATTAAAGAGTGGTGAGTCACTCACACTTATGATAACCATTCATAACTAGAATTTTAGAAGAGGGGAAAACCCCAGGGCTGTACAGAATGACACGTGACACTCTCCAATGGAAGGACAGAAAGAGCAGAAGCCTCTTGCTAAATCTAACCATGAGCTCTTTCAGAGAAAAGAGGGCCGTTCAGCTTTTCTGCGTCACTAT
0.6182859464407646 TAACTCCCCTGCAACCTCAGTAAGTTCTGATAGTAAGGCGAATTCTCGCGATATTTCCCACTCTGGCGGTCAGGGGGAGGTAGTAGGAAGGCTGGGTGTCGGTCACGCGACCCGGCGGGGGCTGACGTCATTCACATCACGTGAACACGTCTAGACTGTTTCGCTTTGCAAAGGGAAAAAAGAAAAGGGGCCGTCGTGTGTGCTTTTGCTTTCAGCCAGATAGTGGCAATTGAGTG
0.7893119047725786 TTCAGGGTTTACTTCCGTGGTTTCCCTCGCCGCTGCATCTGTGACCTCTGGCCCGGTTTCAGCACTGACTGCTGTGGTCTCCGGAGCAGCCTCCACGTGACCTGGACAGGCAGATGCCTCTTTTATGACCACAACTGTAGCACTGGGACTTTCTTCAGCATCTACCACCTCAGCTTCCACTATAAGTTCTTCTGGGGCTTCTGAACTTGCTTTCTCAGTTTCCGCAACATTCTCCT
0.6130996928450596 AAAAAAAAAAAAAAAGAAAAGAAAAGAAAAGAAAAAAGCAGGAGGTAGGGACTACTTTGCCAAATCCATTAAATCCATTTCGTCTTTTTTCTTGACAGTTCACCTATGGTTTCCAGCTTCCGTAACAGTCACGTGACCTAGAGTTTTCAATCTATAGAATGATAGACCAAAAAATTACCACCAGGTGGCGCCAGGCCCAAACAGTAGCTAGTACGGTAGCCCTTTTTTTTTTTTTT
1 GACCTCACCAGGAAGGGAGATTCGCCCCCTGTGCCCCTGGGACGTCCGAGCGGAACCCATCGGCCCGGCTCCCGGAGACTCGCGGGGAGGAAGGGCTGTCAGGCCAGGCGCGCATCACGTGAAGCTGCCAGTTCCGGGATCAAAGACGTACCCCGCACGTGGGCTGGGCGCCAGCCTGGGACCCCCGGGGGCCGCGCGCCCACCGCCCAGGAGCCCACCCCAGCCTCCACTGGGAA
1 TTGGAAGATCTGGAATTTTAAGGTGGGTGGCTCACTTGACTTGAAAATCCAATATTTTTTCTGAAGTAGGTGTTGCCATGGTGACAGAACGGCTTAGCAACTGAAGACAGATTTCATTGGCTGGCTGTCTGCAGACTTGCTTGTTGAGTGGCATTAATATGTTGCCTCCTGCTGTTTTTTTTCTGAGGAGACCATCTGGCATTAGCTGTATTTAAAGGTACAGTTCTGTTAAACAA
0.3696629147812165 CCTCAGTGCAAACCCTCTGCCCAAAGCCTCGCTCCAGTACGGAGGAGCTGCGCCTTCAACACACTTTCTCTGTTGCCAGGTAACCACTTCTCCCTCAGCCTAGTCTCCAAGGGTCACGAGCCACTTCCGCCTCCCCCTCTCGGGCGCTCCAATCAGCGACCTGTGTAGCTGTCACGTGGGCCTCTGGGGCAGACCCTGGAGATCGGGCTCGCGGCGCCTTCCATCGTGGCTCCGCG
0.7787551807898075 CACGCGGCCGCGCACGCAGCACGCAGAAACCGGCCCGCCACGGCCAGAACTCTAGCCCTACACCTCCCGGGACTTCCGGCCGGAAACCAAGGCCCCACGTGTCCGGGCCTGGTCCTTTCGGGGACCTTTGGGGACCGTCCAGGAATAAGCCCAAAGCGCACAACCCGTCTTTCAGAAAAGCGGCGTGACAGGGAAAACAGCGAACAGCTCTAAGGGGAAAAAAATGCTCCAGGAAG
1 TATGAGGGCAAGGACTGCTTACCTTAGCATCCTTGGTTCCTGGTAGGATGCCCATCCCATAACAGGCTGGAGCTCCTGGGTGTGTGGGAGGGAGTAGGAAGGAAGCAACAGCTGCCAATCAAAGGCCCATTTGGGCATGTGACCCTTAGCTAGCCAATCAGAATCCTTTCCAGGGTTGTAGCAGTTGAAGCTGTGAGCAGCTCAGTTGGTTGGGTTGTCTGTCTTGTCTTGGCTTG
0.6124415442194495 CTGAAAGGACGTCTCCCAGTCCACAGTGCCTGTGATTGCCACATTCTGGTGAGAGCTATATGGCAGATTCAAAAATCATTGCGCAGCCTGTCAGCTGATTGGGGTGAATGATCAATGTAACCGGAACTAAAGTTGTATGACATCATCTTTGCCACAGCTTCACGTGACAAAGCTCACTTCAAAAGTGCTTCTTTCTCAGACAAAGCCCTTTAGTCAGAAAAGCCACAAGTAACAGT
0.1786296098807564 GAACGCTGACCAGTTCCTGGTAATGTAGAAAACACCCAAGTTAAAACGGCAACAGAGTGACACAGCAGCCATTGAAGATGCCCCACTTCAGGCACCGACAGGCGTCACGTGACGGGTGGGGAACGCCAACCGCCTGGGCCTAGCGCAGCTTCCTCCGCCCACCACGGAAGTGAGGCGGGGATACTAAAGCGACGGAGCCCGGTGGACGGAAGTGGGTGTTGGAGGCTTTAAGGTAG
