svm_type c_svc
kernel_type gkm_esttrunc
L 11
k 7
d 3
norc 0
nr_class 2
total_sv 1150
rho 0.184354
label 1 -1
nr_sv 536 614
SV
0.504762857553923 GCGGGCGCGGAGGCGGGCGGGGAGGCCCCGCAGCCCGCGCCGCCGCCAGCCGCCCCGAGCCGCGTGCGCGCGCGGCCGCATCAGCTGAGCGCGCGGCGCGTGTCACGTGGTGTGCGTGTCGAAGGTCACGGCGCGCTCACAATGGAGCTCTCGGAGTCTGTGCAGAAAGGCTTCCAGATGCTGGCGGATCCCCGCTCCTTCGACTCCAACGCCTTCACGCTTCTCCTCCGGGCGGC
0.9678122451185822 CGCGCGGCGGCTCACCACGCCAGGGACTGGCCCGTCGGCCCCGAGGAGGCGCGGGGTCCGGAGTCCGGGAAGCGGAGGCCTCGTGATCCAAGACCGGCAGCCGGACGTGGGTCACGGGGTGCAGAGGAGGAAGTGCCATTGCCGGGCCCGCCAAGATGTCACCAATGGGAAACGCGTGCCTGCAGGTGCGGCCCCGTGGCCCGCGCGCTGGGCCCAGGCAGGAAGTGGGGGAAGGA
0.9327279573190077 GTTTACACATTCTCTCAGGTTGTTGGCAGAACACAGCTCCCTAAAGCTTGAGGACTGAGGGCCCGTCTGCTGGCTGACTCCACCTGGGGCAGGCCACATGCATCTGCAGTCACATGACCCCTTCCCATCTTCAAAGCCCACTTGCGGTATCAATCTCTCTGACTTCCCTTTCTGCCACCAGTCAGAGAACGTTCTCTGCTTTTTAAGCACTTGTGGGATTCCATTGGGCCTGTATT
0.9199099452554523 AGGATCCTCAGCATGCTGACCCCCAAGTTCATGCTGGCGCTCTGCTCTTGGCTCCTGGCTCCTGGCTGCTGGCAGCGCAGGCACAATGAGCCATGTGACCCAAGGCTCTGGGGACAGGACAAGACCCACGTGACTGATGGGGAAGGAAACCACTGTCACAGCCAGGAGGCTGTTCAGTTCCTCTCAGCCTCTCTGAAGACAGGGCTGAAGGAAGCCCCTGTCATTCTGGACTCCAC
0.7102400536739027 CAGCCTTAATGACTTTATGCATATATGATTTTAAGACATTTTTGTTGCACTTTCTTTGTTAAAAAATAACTCTTTTGTGAAGAGAAATTCAATAGACCATTGAATTCAATGGACCATTAAGGCAAATCACGTGATGCCTCTGTGACTCAGGTTCTATAAATGGAGAAACTGCTTCCAGTTTGATCTTTCTCCTTTTAGGAACAATAAAAGTCTAAGGCAAGGTTTATAATCAGGGT
0.8798376581600721 GTGCCTTCCCTCCCCCCGAAGAGTGTAATCTCTTTCAATTTCTTTTTTTCTCTCAGGCTCTGCACGGAATTTTCCTCTCCTCTTCATCCTGATGGTGTAATACATGATCACGTGTTTGTTGTCTTGTTTTCCTCTGGGTCACATGGGTACTTCTATTTCCTTCTCCTTTTTCATCTTTTCTCTCATTATGGTCTCTAACAAGATCCTCTCCAGGGTCCCTCTGATCTCTATGCTAA
0.2582580691509589 TAATTTAAAAAAAGAATGTTACGGGGCATATCCTTTCTCTCAAATAATGGAACGAGGTTAAAAAAAAAAGGTTAAACATAAAATGGCGGCGGGCTGGATCGGATCACGTGACCGCCATTTCTTTCCTTCCCACCCAAAGGAAAGCCCTTCCTTCAGAGCAAGCGCAAGACATATAGCCCCGCTCATTGTTAAGCGAGGCCAAGGCAACCCTTAGGCGCGCTCTATTTCCCCTTTCG
0.2329235500828024 CCTCCAAGCGGCCTCTCCCCGGAGTGCCTGGCGGCCAGCAGGGCGGGGCAGGAGGCTGGGAGAGGGACGGGTGCGGGGGTGGGGGAGAGGAAGGGAGCGGTCACGTGTGAGGGGCGGCCCGAGGTCACGTGACGGAGCGCCGGAGCGGAGGGAGCCGGGGCTGGGAGTTCTCCTGAGGGAAGAGGAGTGGAGTAGGGGGGACGCGGCGGCGGCGTTGACAATGGTGAGTGCGCGGC
0.5355271435337611 CTATTTAGTGTTTGAGTCCGCAAGACATACTCGTACCCTGAGCATTCGCAGTTGCTGCTCCACCACCCATTCTCTCACTGCTCACCCACGTGCTTCTGGACACTTGCTTACCAAAGTACTAGTTTGCATCACGTGACACGACTAGCAGGCCCCCTCCGCTCATGTATGACATCCCAAAGATGCCTGATTATTTTCCCTTCTTTAGGGAAAGGTGGTCCCAATCACCAACAAAACAG
0.3582020548332001 CCAGCCATTACATCAGTAGGAAAAAGCAAGAGGAGAAGGAGGAAATGCCTGTTGCCTGTACGAACACTTCCTGGAAGTAACATACATTGCTCTTCTTACATTGCATTGGTCAAAACTTAGGCATGTGACCACATCAGCTTGCAGAGCAGGCTGGGAAATGTAGTCTTTCAATGTAGCTTTATCTCAGAACCATGTGCCTGCTAAAATGGGAGGTTCTGTTATGGAAGACAAGGAAA
0.2941668250839055 GATTCCGCGGCGGAGAAACCAGAAGCTAGATGGGCAGTCGCAGCGGCGGCGGCTCAACACCGCGAGGAGCGCTGGGCTCTCCGCCCTTCCCGGCCACGTGACGCCCGGGGACGCGTAGATTGGGGCAGCAGCGGGGGTCACATGTTTCCTCTGTTTCACCCTCAGTCTGTCCCCCAACCCCCCATTCTTACTCTCCCACCCTGTTTTCCTCCCTCCCCCCCTTCTTTGGGCATCTC
1 CCAGATTAGAGAAACGATGCCCCCAGCACCTCCTGGGGCTGCTTCTGGACTCGCCGCTAACACATCTGCGGCATCCTCTCGGCCACCGTAGAGTGTCCCACGTGTCCGCTTCCTCTTCCGCTACTCGCCCGCGCGTCTGTCTGTCAAGAGAGACTTCCGGCATGCCTTTTTTTTTTTTTTTTTTCCCTTTCCCCGCACCGTCACCTGGTGGCGCTTACTGGAAGCCGCACCGAGGC
0.7598766199762521 GTTTGTCTTGTTTTATTTTCCATGGGGTGCTATGTAAGTACAGTACTGACAACTATAGTACTGAAACCCTGCAAATTTACTTTTTATTATTTCAGTTTAGTTACCAAAAATTATGTGATGCATCACATGACCAATCATGCAAAAATTCGTGCTTAAGTGCCTCAGAAACTTCTCCATGGTCTAAAGGTTCAACTCAGGATGTGGTTTCCACCCCAAAGCCAGTCCCAGCTGCCACT
0.661002951856891 AGAACCCACCGCAAAGATGGCGGTGGGACGAAGCCCCTTCTCCCGCCGCCGAAGCCTCTCGCCTCACATTTCCCACAAACCCTTCGCGCCGCCTCGCTAGCCGAAACCTGCCCAGCCGGTGCCCGGCCACTGCGCACGCGCGGGACGACGTCACGTGCGCTCCCGGGGCTGGACGGAGCTGGCAGGAGGGGCCTTGCCAGCTTCCGCCGCCGCGTCGTTTCAGGACCCGGACGGCG
0.7185237067736865 GTGAGTGTGGTACCCACAGTTTTAACAACCACATGTGAAAATAAGTCTGCTCCCTGGGTTTATTTCAGTATTTAAGCACACGTGACCAGAGGGCCACTGCGTGTTGTGTGCATCCGGAAATAAACAGGGTGGTACCATCACCTGCCTGCCCATGCAGTTCCAGAAAACCACACTCAAGAGGACACGGAAATCAATATTGAAAATGAGACACTCAAGTTACCACAAAGAGCTATTTT
0.443921459858477 CTCCGGAGGGAGGATCGCCGCCCCCAGAGGGGACAGCCCGGAGGCCCACGTACCGGATCGCGGCGCGCACAGCGCCCCGCCTGCAGGAGCCCGGGCGCGCTTCCGGGTAGGACCGCGTGATCGCGCACGTGACCGCCCGCCCCGGGAGGGGCCGGAGCCGCCGTCGCCTTCCGCGGGTTCGAGCCCCGCCCCTGCCAGGCCTTGCCCATGCCCCATTTTACAGAAGAGGAAACGGA
1 CATCATCACCCAGGCGGAGGGGAACATAAATAATAGGGATGAGACAGCAGGCTCTAGGCGGGGCCAACTTCTCAAAACTGCTGCTGTCTTCTTGAGAGGAAGGGGGAGTCATGTGACTCTGTGGTTACTGGTCACCAGGACAACGCAATTGACGTGCCCCTCTACTCTAAGCTCTAAAATGAGCTGTGTCTTCACAGCAGACCCACAAGGATTTGGCAGAAGTTTATAAATGAGAT
0.591541657136157 GCGCTCCTCACGACGTTTTACAGCGGCTTCCAACAGGCAGTTGGAAAGGGCAGCTGGGGGCGCGGCCAGGAGGGCACGTGGTGCGAGGGACTGGCCGCGAGAAAGCGGAGCCAAAAGGGGCGGGAGCTGTGAGTCACTCCCACGCAACAGGGCAGAGGTTCGCCCCGCCTCGGCTGGCAGGGAGCTAACAGGGGAGGCGCGACGGGTCGGGACGGGCATTCGCCGGCCCCGCCCCC
0.5992742005449486 GGGCATGAACAGAGCCTTGGCGCGATGCTCCTTGGGAGGTGTAGTTTCCACGCGTCCAGCTCGAACGCTGATGCCCCAGCGCGGTGGTAAAATGAGCCCACGTGATCGGAAAAGCAGCGGTTTCCCTTTGAGCCGGAACAGGATGACTGGGTTGACCGATGCTGGGCAGCTGAGCGGACCAATCGGCCCCCTAGACTGAGACGTTGGCGTTTGAAATCAGCCAATGGCAGGTCTAC
1 TTAAAAAAAGAAAGCCATTTTATTCTACATTATTCTACAACACAAAGGGCTGTGCTCCAGTGAAATTTGAAGTGCCTCTTGTGGATTGTGCTTTGGGTAAAGTTCATTTAAATCAGGTACTTATAAATGTTAGGTCGATTACAAATATGGTGTCCCATTTTCTTTTCTAACCTAAACGAGATGTTTTAAACGAGTCTCATTCTATCCGGTAAGAATAAGGAAGGAGGCAAGTAAAC
0.9065800022440067 GCACTGTGCTTAGAGACTTACTTGAGGGACTGATGAGAGCTTGCTTTGATGCAACCTTGAGTATTTTTGCTTGTTTTTACTTTTTCTGGACACATGGTGGCGGTAGTTGTCTAGAACCACGTGACTCAATTCAGTCTACACTTGATGTTCCAACTGAAGCTTCAGGGTTGTCCTGGACCCAGGGGCTGGGGCTTGTCGGGTTTATCCTCATTCCTCGGGGGCATAGATGTGGGTTT
0.592109856107189 GCCCAGGCACGGAGCCGCAGGAAGCTGGCACCTGACGCGCCTGCGCCCACCCAACTCGAGTTGGTGGCGCGTCACCTTCCCCTGGGATCGCCCGCAGCAGGGGCGCCCACGCACGTGCCAGTCCACGTGGCCCCGCCCTAGCGACCGTTGCTAAGGGGCGTGGCTCAGCCGCACGGAACCCGAGCCCCCGGCGACTTATAAATATTTGCGTATTCAAATGAGGCCTGGCTCCCGTT
0.8482328658248645 GATCCCTTTCTCCCGAGCCCTCTCAATTTCTCACCAGGCTTGGAGTCCCATTCTGCCCTTCCGCGGATCTGCTGTCATGTGACGGATCACATGAGCTCTATATTCCACCACCACTACCCCTCTGCCTAGTAACTAGTGACGGTACTGGCTCCTCCCTTGCATGGGTGGTCCCAAATGCTAGGCAAGGGTGGGG
0.5796279193399663 CTCCTCGGGCCAAAAGCAGAGCGCACAAATTCCAGAAGAAATTACCAACGGCGGGACTATTTCAGTGCTCCGAGAAGTATCACCAGTAACCAATCAGCAAAAAGCTCTAGCTCACGTGGTGTATATTCAGCCTATCAAGCTCCTGATATTCATGAATGCTGTCATTTCCGCTTCCGCCTCCTTCTTTCTCGACAAGATGGCCACACCGGCGGTACCAGTAAGTGCTCCTCCGGCCA
0.7121104534421361 TTATGAACATTGTGGATATAGTATGTGAAACCTTTTGTAACTGATTGTTTTGCTTTTCTTTTTGTGGAACTTGAACATTTTTCGTTTTTGAACAGAAAGACTTGTCTGTAGGAACGACAGCTCAGGCAGCCACGTGGGCTGCGGACTGTGTTTGTGGACTACATCTCCCAAAGTGCTCCGCAGGCGCGCCCACAGGAAGTCGCCGGAGCATCTCCCGCCTCCACGCCGAGGCGAAG
0.8143614660243732 CGCCGAGATTACTTTGTGATTGGAAGACTGAAAGGAACAGGCAAGACTTAAACTCGTCCACTCCAACCAGTATTTACCGAGGCCTCACGGTGGGTCAGGTGGTATACGGTGGGTAATTAGTAGCCTATCACGTGGTTTCTGTAAAATGCTTGATAGCACGTAAAACGCTTTCAGGTCGGCGTCTCGTTTCATCCTCACAACAGCCAGGTAAGGAAGATAACCCCCTGATAATAACT
0.1528815651646827 CCCAAGGAGGAGACAAAAGTCATCTTCCGGGCTGCAACATTAACCGTCATCAGCGCGCCTCTTCAGCGCGCACTGCGCCAACCCTGCGGCAGGAGGAGGCGGAGCCCCCGCTCTCGCCCCGCCCCCACCTCACGTGACCCGCACGGCGCCTCGAGGCCGGAAGCGATTGCGAGCCAGCGCGCGCGCTTCGGCGTTCCCGGCGGTCTGCGAAGTTTCCGGAGCCCGGGTCCCGCCGC
0.7937803448621072 AAATGTCAAATATAAGTCAATTCAGTCAAAGATTCACCCCTAATTTTATGAAAGTACTATAATAAATTTAATTCATTGATTGTATTCACTGATACGTTCATCAAAAGCATTCAGATCATGTGATGCATCACATGGCATTCACCTGCTCTAAAGTCTCCAATGACTTCTCACCAGAAGAATAAAACACAAACTCCTTAACGGGTACAAATCTAAAGTCCATGTTATTAACAGCTAGG
0.2910459268802628 ACCCCTTCGACTTACCTTGAGCAGGCTCTGGAGTGCTGCAAAATGCTCCGCTGTCAGGGCAGCCATCTTGCCGAAGTCACATGACCGTGGCACCCAGGGAAGCGAGGTCACGTGGCTGTCGCTGTTGTCGCGGGGCCTGCCGGGGGCTGTAGTCCTTCAGAGTGGGGGAAGGCGTTTCGGTTGTGGTGCTGCGGCA
0.321505210216019 CTGCATGACTTCTGTCCTGTGCTTTCTTTCTGGTAACAGAATTGAGATTTTTCTTCAGGGCGCCATTGGCCCTTGAAGTTCAGATGGACCAGACTTTGTCTTGGTTTCAAGACAGGGCATGTGATCAGGCTTGCCCAATCAGAACATGACACTCTGTAGTCAGGTGACTGGCTCAGGAATGGTCATGTGATTCAGGCTGGGCCAATGATAGCCTTGGCTGGGACTTCTGCAGGATT
0.6011054261738652 AGTGTAAATTAGCCTGCCTGTCTTGTGCAGAAGAGAAACTGAATCTCAGGGAGATCAGCTTTGGACTCATCAGCCACCTTAACAGTTATGGCCACCCAGATAAAAGACTACATTTCCCAGCCTCCATTGCAGCTAAGAATGGCCATGTGGCCAGGCTGTAGCCAATTAGACATGAGTGAAAGTGATGTCTATAATTTTAAGGTTGTGCTCATACATGGCAGAGGTGTAGCATCCTT
0.7735513249513051 CATTGGAAAGTGTGTAATAGTCACTCAGGTGATGCTCTGAGTGAAGACAAACCTCCTAGCATCACCAGAATCCAAGCTTCTTAATAAAATCTCAGCTGTCATCCCGTGACAGCTGGCAGGCCCAGTCACGTGGGCTCCAGCGTCTGGTGCCTTAGCAGTTGGATGCTGGCTCCCTCTGGTGGCCTGAGGTGCCGCTGCACCTAGCTGGGTGCCCAGCTCCCAGGCTGCCTCATTCA
0.4963578158123746 AACCCGCCCTCGACACCCGCCGACGGGCGCTCGCTCTCTCACCCGGCTCTATAGCAGCCGGGAACACCGACGAGAAGAAAGCCGAGGGGAAGCGGAAGTGCCGGATCTGTTTGGGTCACGTGGGGGCGGATGTCGACGGGTGCCGCTGAGAACCATAAAACTTCTGGCCCTGCTGCCAGGACTTTCCGTGGGTGGGAACAGGGAGGCAACCCACCAAGCCAAGGCGCCAGGCTGCT
0.08889114958271595 GTGGTAAAAAAAATAAAATATGCTTATTAAACGTGTGTTAAAACAATACACACCTACTCGCAAACGTAGCAAGAGAGGTTGCTTTAAGAAGCGGGAATCTTCAGCGTCACGTGACCGCCGGTCTCTACAGTCTGTTCACACTGGCCAATCAAGAGCCAGGAAGCCTCCTGGAGGGCCGGAAACTTTCCAAGGCGCCCGCCGACTGGCTGTATTGGGGAGGGCGGGGCCGGGGCCCC
0.239397945883187 TGAGGCAGAGAGAGGAGATGGGAGGTCCAGGGGCGCTCCTCGCTACCCTCGCCCCCTTTGTTCTTAAACCCCCCTCTCACGTGACCCCGACCCCCTCCAGCCTCACGTGACCCCTGACCCCCACATGACCCGACTCCCCCATTCTAAGGGTCCCTACGCTAGGCCTAGCCCGGGAATCCTCTGGAGAGCCCCTGGTCCGGGGCCCCACCCCCTCGGCGCCCCCAGCGTCACGCCCG
0.852714638621219 GTGTGAGCCACCTTGCCTGGCTAAATCTGGTTCATTTTCTTCCTGACACACAAACTACAGTTCCCAGCTTCTCCTGCAGCTGGCTAGGTCCCTGTGGCCATGTGACCTGTTCTAGCCAATCAAATGTGGGCAGAAGGAACATGTGCTCCTTCCGTGGCATTCCTATGTGCTGTGATCTGGAAGGCCACATGTTGAGGATGGCAGGGCTCCACGATGGAGGGATCTCAGGTTTCAAA
0.7244914693476866 TCGGGAGGCGCAGCGTCAGGGCGGGCGGCAGCACAGAAACCCCCCGCGCCGCTAGAGGGACCCTCGCAGCAGCTGCGCGGGCGACCTCGCGGTCACGTGCGGCAAGGGCGGGACCAAACGAGCGTCCGGCCAATCGACTATGCCGTCGGCGAGCGTGATAGCCAACAGGAACCGGGAGCGGGGTCCCGGGACTGGGAAGAAACGGCGGCCGGGAGGGGGCTCCGGGGACCATGGGG
0.7607699624713641 CAATCTCCCACCAGATTTCGGTGGCAAGAGGAAGGTGGCAGCCAATGAAGAGGCTCGGAGCTTGCATCATCCTCCTGACCAGGGTGGAATAACCAGGAGGCAGGCGCACGTGACCGTTTCCATGGTGACCTCCCTTAGCAACCCTGACTGGTCCTGTTTATGAACGCTGGAAAATTCCAACCAGCCTCTGTCCTGATTTTTTTACCTACTCTGCCTCCGCCTGCTCCAATGCAGGG
0.2382952195003745 AGCAGCCATCAGAGATGCATTCTTAGCTGTCACTATCCCTCACTCTACCCCTTGTCAAGGGAAGGCTTCGGCAGCCATGTTCGTATGTATCACGTGACCCCCTCTCTCGGTCACTGTGGGTTGGAGGAGGGCTGATCACCTGACCCAAGTTAGCCAATCAGAGCTCTCTCCTGACACTGGCTCAGGTTGAAGTTCTAGAAAATGTTAATTGGGGGAGCTGTGGCTGGCAGAGAAGG
0.4205767603094982 CCGCCCCTGCGCCTTTAGATTTCGGGCAGCAAGTTTAATTGCTCGCTTGGAAAGCGTCCTCGGAAGGGCACCGCCAGCAACTGCGGCTTCGCGCCCCGCCCCTTCCCCCAAGCCCCGGGCGGCGTCACGTGACGGCTGAGAAAAGTAGGGGAAAGGTCAGCAGCAGCCCCGCCCCCAGGCTGGCGCGTCCCAGGCGCTCGGATCCTGTTCCACCCGCCGTGCCCACAGAGACCTTC
0.4118541628204935 GGCCTGTTACCACGGCAACCAGTGAGGGCGGAAGTGGCTCAGAAGACCGGTTCTCCCTAATCAGGTGACTCTCCCGCCTCCTGCACGTGACACCGGAGCCCAGAAGCGCGCTCTACCTAATCAAGACCCCACCCCTCTTTCCCTTTACTGACAATTGA
0.6115541674132287 CTGTTCCCCAGCCCTTATTCACCTTTTGGCGTAGCAACCAACCCCGGTTGCCTAACATTCCCAAGGGCCGGCTGGGATAACTGCCCACTCCCTGGCCTGCAAAAATGTAGCTCTTTTGGTCACGTGGGTTCAGCGGCCCCTCTAGGAAACTCGCCAGATCAGGTGAGGCGCGCCAGTGTGTTTAAGAGACGTTGCAGAATAGTAGTCCGCCGTCTCTCGAGCGCTTACTAGTCGTT
0.2109918728990432 CATGCCCCGCCCCCGGCATGCGCGCGCACGCAAGGCGCGCGGCCCGGGGCCGAACAGTTCTGCGTGCTCCCGCGCACGCCCGGCTGACCAGACGTCGGTCACGTGATCCCGGCCCCGCCTGTCGCTGTTGGTCAGCTTCACAGCCGGTGGAGGCTGCGGGCCGCGCTGCCAGTGTCCGGGAACTGGGTTTGCGAATCCTGGGAGCCGCGTTCCTGAGTCTTCTCCGCTCTCTGCCC
0.5113885635210184 GGGGGGCCGCGGACGTCACTCGGGGAGGCGGGGCGCTTTCGCCGACCGGCGCCCGGCTCCATGGCAACCGCGGGTCACGTGCCGACGCGCGTCACTGCCCGGAGCCATGGCAACCGTGACCTCACCGGCGGGCTCGACCTTCCCGCGTGGGCCCCGGTTCCTGAGGCGCTGGCTCCCGGGTGCCCCCCTCCGGGAGCTGGCGGTGGGAACCTTCGATGGGCCCCCAACCTCGAAGT
0.3861473595068642 CAGCAGCGGGACGCTGTCACCCCGACTCAGGAGCTCCTGGGCCCGCGGGCTCCCGGAAGCTGCCGACCACGTGATTCGCTGGCTCAGCTCACGTGACAAAGCTCCCGGAGGTGGGAGCCCTGGGCCAAAATGGCGGCCTACCTGCAGT
0.4994100107064571 GGTGTTTGTGGTAAAGCCTAAGCCAGTGCAGCCATCCCCGTCGCCATGGCAACCCCAGCGCGGTTGGGGAGGACCCGCTCCTCCGGCGCCCCCTCCCATTCACGCAGCGGACGTGACACGTGCGGCGGGGTCACGTGTTGTTGTTGGGCCGGGAAAGCTGCTTCCGGGTCAATGCAGGACACTGGGCTCCGGCGGCCAGAGTGGGGGACTAGGTGAAGCGGCGCCGGGCCGGGGCT
0.372442191546937 GTGCAACTCTACCTATCATGTTCATATTCTAGGTAGAAACTGGGGAAAAGAGAAAAGGCGGGAAAAAGGCGTTTCTCTACAAAGATCACACATAATCTTCTGTCTGCATCTCATTGGTCGGCATTTAGTCACATGGCCATAACTACCAGCAAGGGAAGCTGGGAAATGTAGTTTTTCAATGGCACATTGCTACCCTTAATAAAATAAGGATATGCTACCAACAAAGAATGAATATG
0.4382340969463906 CGGGAGGGGAGGGGGTCCCGGGCCGGGGCCGGGGGTGGGGTCTGGCACCGGAGCTTTCAGTTTGTTCCGCTGTTTGAAATTGGCGCCGGCGGAGCGTTAAGGTCACGTGACGGAACGTCGCCAATCGGCGCCGGCCTTGTCTCGGCATTCCGGGCTCGAAGGCTGTGCGGTCTGCCAGGAGCTGCGGCCCCGTCCGGCCCGGGCTGGTAAGGCGGACCGCAGGCCGGCTTGTGGGG
0.7541545100915736 GCCCGCCAGCGCCCCGGGGCCAGCGTCTGGAGAACTGTGGACGCGCACGCGCGTAGGACGGCGAGCAGGCCCCGCCCCTCCCCGGCCCCCTCTCACGTGCTGCTCAGCGTGCGCCCAGACATGTGCGGGCACACGTGACAGCGCCGCGTCCGGCCCCGGTTCCCTAACCCCGCGCGGCTGTACTTTGAACCCAGGCGTGGGAGACTGGAGCAGGGAAGGGAGGAAGGAAAACCAGG
0.8706374595943963 AACTAACAGGAGGTAGACTGGGAAGGAGCATGGCAAAGTCACCCCTTTTCACAGGGCAACGCTCCAAAGACCACGCTCAAGCTGGGGTGGCAGGGCTCTGAACATGGGGCCCCGACCCGGGCCTCGGCCTGGGGCCACGTGACGCGCGTGTTTACGTTGAGTGACGGGCGCTGTGTTGGGCGGGCCTTGGCGGAAATCAACTTCCGGGGGCAGAGGTGTTCGAAGCCGGGTGGTGC
1 GGAATATAAAGTAAAGGAAGAAGAAGGCAAATAAGCTTTGTCTTTTTATTCTGAAAAGGACACTACCCTCAGAAACCACCACCTTCATCTTATTGCTAAAAGCAGCGTCACATGACCAGCACAAGTGCAAATGAGGATGGGAAAGTGAGTTTTTAAATTGAACACATGGCTATTTCAAATAAAAGCAGGGTTCTATTACAAAAAATGGGGTGTGTGTGTGTGTGTGTGTGTGTGTG
0.6615670761054772 GAGGAGGGAGGGAGGGGGCGGGGAAGGCCGCACCGCCGCGCTCGGGAGCCGCCGCCGGATCCCACGCAGCCTCCAGCTGTCGGGGAAACTCCTGCCTGGGCGCACGTGACCCTCGCCGGCCAACCAGCAGCCGCGCCGGAGACTTCAAACGCGGCCAGCGCGGCCCAGCACCCGCGGCGAGTTAGCCGGCGGGCGGTGCGGGGGTGGCCGCGGTGGCCGCGGCTGCCTCGGGCGCC
0.9372558811049052 AGGTTTCACCCAGAAAGAGGAGGGGCCAGGCTCCTCCCTGCAGACTTCTGTGGCTCCACCCCAGTGTGCAGGCCTGTAGGGGTTTTGCCGAGTAGCCTTTCCCACGTGACTGTCTCAGTGTAGTACATGTGATGTGGCCTAAATTGGGAAATACCTAAATTAGTAGCTACCTGTGAATTTGTCCTAACTTAGAGAATCTTTTGAAATGACTTAAAATTCTTTGGGTTTTCAGCTCA
0.1196066969299074 GTCAAAGGACCTACTTCCGGAATGCACCTCGCTACACCCCGTAGCCGAGTTAACAGCCAATATGCGACCAGAAAAAACCTTGAGGCGAGGACGCAGGCGCGTCACGTGACCGTTGGGCGGTGGAGTGGGGTTAGAAGTTCTTTCTTAAAAACCGTGTATCTTCCCGCGAGAACCGGATTGAGCGTTGGCGCCCCGGGTCAGGCTGCGAGGCCGCAATTATAGTGGGATGGGGCGGC
0.6901224593301152 CGAAAACGAGGTCAGGGTGTGAGCAGGCGCGGCAGCTGGTGCAGGAAAGTCGCTCACCCCGAAGCTGCCGTGGGCAAGTTAGAAGGAAACCAAAACAAGCGCCGCGCCCGGAGCTGCCCACGTGATCACAACACAGCACGTCTAACGCCAGGGAGCCGGGCGCCCGGGGAACTACTGAGCCGCGCCGCGCCGGGCTCCGCCCCCCAGGCCGCTCGCCATTGGTCCATTAGAATGGG
1 TTGGTTTGAACTTTTGAATCCGCCAATCAGCGCCGCGCGCCCCCACTCCGCGGGTGCGGCCGGGCGCAGGCCAGGGCTCGAAGGTGGGGCCGCAGCGGCACGGGGCGGGGTCTGGGGCCCGCCCTCCCGACACGTGGCCGGGGACCGGGTATATAAGGCCCTTCGGGGCCGGCCACCCTTTCACTACTTCTCCCCCGGACTCCTTGGTAGTCTGTTAGTGGGAGATCCTTGTTGCC
0.3653447540920736 CCGCAGGCACCGTCCCTCTCCCGCTGCAGCCTGAGGAACGCGTTCCGAGGAACCCCTAGCCACAAGTCAGGACCGCGTACAAGATGGCGGCGCGTCACGTGGGCAGCGCGGTGACGCAGGACGGCGGCCCGCGCGGAGGCAGCGCCATAGCCTACCCCAAACGCACACTAGTGCTCAGTTTTGCCCCCCTCCCCTCCCCCGCCCCCGCCCCCGCCCCCAGGCTTGTGTAGATCATG
0.3303292367477207 ACCTGAGATCCAATCAGCACAGACTTTTTCCCTTTCGCCCCGCCCCACCTCGAGGGGAGGGAACCCCAGGAGACCTGGCCGGGGCATCACGTGCGCAGAGCGGGTCACGTGGGCGCGGGAGGGGTGCTGAGAGGTGGAGAGCGGGAGCCGGCGGATTTCTTAATGAAGTGTCTCCGCATGCGTAGAGGGAATGTAGGGAGGGAGGTGGAAGCACTAGGAGGAGGGGAGGGGTGGAG
0.9026081044641543 ACCCACCCCCGCCTCCCAGCACCACCACCACCACACACACAAAAAAATTGGATACATTTTGAATAAAGCGATTCGGTTCCTTATCCGGGGACTGGGTTGCTCCGTGTGATTGGCCGGAGGAGTCACATGGTGAAAGTAACTTTACAGGGTCGCTAGCTAGTAGGAGGGCTTTATGGAGCAGAAAAACGACAAAGCGAGAAAAATTATTTTCCACTCCAGAAATTAATGATCATGAG
0.8618822090107932 AAGCCCGGAGGAGCCACCGGCCCTCTGGCGCGGGGCCGCAGCCTTTCCGCCACCAGGCTCAGCTGGACCGGTCCCCGCCTGCGCGAAGAGCGAGGCGGGGCGAGCCGGGCTGGTCCACGTGACTCCGAGCGAACTGGGGCGGAGATTGGTGAAGAAGGAAGGAAAAGGGAAGCGAGTGCAGGGACTGTTTTATGTGAGGTCGATCTAAAAATCACAGCGCTATGAATTTTCTGCTG
0.2586407364319985 ACTCACATCCAGCTCCACCCCGGGAGATGCCCCAGAAGCCCCGCCCACGTCCAGGCACGTTCTTCTGGGGCTAGTCGCAGGGGCCGCCCCGGCACCGGCGCTCACGTGACCCGAGGTGTGACGTAGGAGGAAGGAGACGCCATTAGAGGGAGGCAGAGAGGGATCGTTCTTCGCTTTTCCTCCGGTGCCTGACGTGGTGGGCTGGGGCCCTTCATTCTCGGACTTTCCCTCAGCCC
0.1730443287751318 GCCTTTCTGGGCACCCAGAACCGCGAAGATCCTTCACATTCTAGTGCCCTCCCCCTGCCCCGCCCGCCCCCCGGATCACGGGCTTCGGCCACGCCCTCTTCCCGTCACGTGACGGTGCGCGGAGGCGGTGGTGGAGTTGCTTCCCCTGCTAGGCGGGCTCGAACCGGGCGGGAGTCACTGTCCACCTTGCTTCGCCAGGGTGTTATCGCCAGCCAGTCCCCTTCCGCATGCCCAAG
0.8411539313407231 CTGCAGTACCCAGTAACTAACCAGGTAGAAAAGCAGCCATCTGGTGTGTCAGGACTGGGGTGAGTGGGGTGACAGAGAGTTGTGAAGGGAAAGTGGAAGTGGAGGCAGGTGACTACACCTTCAGCTGACCTGAAGTCAGCTGACGTGACTTCAGCTGATGTGATGAAATCCAGCTGGTTTCCCAGGCTGGGATGCCTTTTGCTTTCCACAATAGGAATGGCCAGTAGCTGCCAGCC
0.7989287728035268 AAGACTAACAGTGTAATAGTGCAAGCCAAAGATGCGTAATGAGTGATGCAGATCATAAGTGCAGTAGAGACTTGAAAGGAAGGGAAACCACAGTGGATTACAGTGGTCAGGAAGGGCCTCACGTGACATGTGAGACTTGAACTTTGAAGAATGTTTAAGAGTCAGTTAAGGGAAGACAAGAGAGCATTCTTGATAGATAGAGAGATGGATAGAGAAAATGGAAAGAGCAAAGTTGT
0.4353916330748468 ACCTTTACCGAAGGGAGTGAAAAGAACACCTCACCCAAACGCCCGCCCTTATGTGCGCAGCCCCGCCTCCTGTAGGCCCCACCCCACCAAAGGGTGCGCCTGCGCCGTTCTTTTTTCCGTCCACGTGACCCACTCAGGCTCCTCCTTGTCTCCAACATGGCGGCGCCCAGGGGCTCAAGCCGCACGTGAGAAAGTCTGGGCATCTGGGAATCGGAGAGTATAGCCTGTGAGCCGCT
0.7229947820842032 TGACGTCGGCAGAGCGCTCCTAGTCCCCGTCTTCTGGTCCTCCACCCTTCCCGAAAGGCCAAGCGGCGGAGCTGGGGCGCCAACGAGAAGGGGGTGAGCGTGATTGGGCTGTCCTACATCACGTGACGGCCAGTACGCGTGGGATTTGGCTCCGAGGAGGCGGAAGTGCAGCACAGAAAGGGGGTCCGTGGGGGACGGTAGAAGCCTGGAGGAGGAGCTTGAGTCCAGCCACTGTC
0.7184125030800217 GCCTGAGGGAGGATCAGTCTCTGAACTAATATGAGTTCCCTATGTTGCTTTAGCCACTTTGATTTTGCCTTGTAATGCAGTGAATTCTAACAAACACATCACGTGATCCAAGTACCATGACTACAGTTACTAAATCAAAAACAAATCCCGAAACCAAAAGCAACTGTTTGAAGGGAACTTATCCTCTACTTACTTATATAAGCAGAGAGGGAACTTCCGCTTTTCAATAGAGAAGC
0.9431790080653958 CACCCTCTCACCCTAGACAGATGGGAGCCTCCTGGGGTGTCCACGTGAGCGCGCGTGAG
0.2363601736503197 CATTGGCTCTAGTTCTGGCTCTCTAGCCAACAACACAAACGTTCTGTTAAAGGCACAAGTTGGAAGGGCACATCTCACTTTCACCCGTGTCTCATTGGCCACACCAAGTCACATGCCCACACCTAAGTGGAGGCTGGGAAATGTAGTCTCTGGCTAGGCAGCCATGTTTCCAGCTAAAACTTTGGATTATTATTGAATAGGGGAGGAAAGATGTTGGGGGACAATTAGTGGTCTTT
0.7059822374526344 GTCCAGCCGCCGGGCCCTTGTCGGCCGCCATTCGGGCCGCGCGCTGGGAACGCAGAAGGGGGCGTGGCCTGAGGAGCGCACCAACTGCGTGGGGGGGGGGGAGGTGCGGTGACCACGTGACCTCCGCTGAGCTTTCGCCAGTGCCTGCGGCCCTCGGCGGCCTAGTACACACGCACCTGAGTGAGTGGCACCAGAGGACCCTCTCCATGTTTAGGGACCTCCTGGGCCTCAGGAGC
0.09599358722934047 CGCAGCCCCACGTGACCCCGCCCTACGCCCCGCCTCCGCTCCGCAGCGACAAGGGCTAGTCGCGCAAGATCTTCTCACCATTGGTCCCTAAGGAACGGCGGCCTCCTATTGGTTAAGTGCCGGGAAAGGGGGCGGACAATCGCGTGAGTGCTGCGGGCGTAGCTGTGCCCGGGTCCTAGCGCCGGACCCGGCGACGCCAAGAAACCACCCAATAGGAGGCCGGAAGCATCGGAAGT
0.9900811824605011 CGCGCTGCCGCCAGTTGTCACCACAAGGCACAACACTACCGGGTCTACATCTCCGCCCGCCCTCACAATATCCCAGGAAACAGACATCCGCGTGCTCGCGGCATTTGTTAACCAATCAGAGCAGTCTGTCAGAGCACATGGGAGAGCGACAGCCAGTCAGAATGTACAAGAGTGCGGGGAGGGGTGCACCAAAAGACTGACTCCCTACAGAAACTTTTGCCGAGTGGGAGCAGGTT
1 CCTTTGGGGACACCACTCTCCCACTCTAAACCCCCAAGGTTTGGGTGGCTGACTCCGCCCCCTGGCAGGCCTACCCAATCAGTGTATTCTACCCACCAGGCTGCTGTGATTGGGTCAGTGCAGGCCACCTGACCCAAGTTGGTCCAATGAGACTCCGTGTAAGTCCATTTGGGCCACCACACCCACCCGGGCCTGCAAGGGGAGGAAGCTGACTTAAGAAGGAACTCAACGCAGAG
0.3591200447053819 AGGGGACGGGACCATGTGAAAAGGTGGGATCGTGCGAGCGGAGGAAGGACAGAAAAGCGAGGAAAGTCTATGCCGCCAGCGACCGGCAGGAGGCACGTCGGGCACGCTCGTCACCGTTTCCTGGCACGTGACCACCGCCCTGCCCTGTCGCTTTAGGGCCTGTCGCTTCCGGCGGTGGCGGTTGCCATGGGGACGGAGCTTGGGTGGCAACCAGAACTAGGGAGCTGGTGGAGAAG
1 AGACATCCTTTGACCTTGTCTATCCAGTTCTGTTTCCCTCTTCTTCCCATAGGGGTCTCCCTCCCTCCCCGTCCTTAAGTGGGGCGGGCACTTAGCCCAGGGTGGTGATATGACCCAGTCCTATCCAATCACCATGGTCCCGCCTCCTGGCTACCACAATTGGCTCAGGGATGAGCACGTGGCCCATAGCAGCCCAGTGAGAGTCAGCCCTGGGTGGGAACTGGTGGGAAAGAATT
0.6197333380500232 CGGAACCCAAACGGTCCATTACCGCGGCTCTGGGGTGGGCGAGGGGTGAGGGGGCCGGGTTTCCGCGAAGGGGGAGGGGGAAGGCGAAGGCCACCTAGGAGAGTCACGTGACTACTGTTTCCGCCGGCGCTCACGGAGAGCTCGCGGTAATTCCGTTTCCCCGCCCTTTTTTCCCCGCGGCCTGTCGGGAAGAAGGTCCGCGTGCCAGGGCTATCGGGAGGTCGGCCGGAGGGCCG
0.5318044761922338 ATTCTGGACCCCTGACTTCTAGAGGCATATTATCAGAAGAGGTTTTAGCAAACATGGAACTACTAGTTGCCTACCCAACATCGTTCTTCCCTATTCTAGCTAGTGAAACTACATTTCCCAGGCTCCCTTGTGCCTAGGGGTGATCACATGGCACAGCTCTGGCCAATCAGCTGTAAGTGGAAAGCCAAAGGCGCCTTCTGAGATTGTTTTGCTTTCCTTATTTAAGCAACACTTCT
0.5663401050655963 TCTCAGGCAGGCTCTCCCGTCCTAAGGTAAGAATCTCACTGATACCCGACTACATCATGTGACCCTCCTTTGGACCAATGACTGCTGTCAGAGGATGGGATGACCTGATTGGCCAAGCCTTGGTCATGTGCTCCTCCAGGAGCCAGGGAGGCGGGGTCAGCCCCACCTGAACTACAGATGATGAGAGAAAAGAAGAAAGCTGTTTTCCTCAACGAGATCCGGGGCGCCATTACCAG
0.6559042837299079 TTCCTACATGCACACGTCCCTCATGCTGCCTTGCACAGTTCCAAGGAGGAAACCAGACTCCATTTCCCAGCATCCCTTGCAGTCAGGCCCCTCATGTGACCCGAATCCCATCATGTGACCCAGGCTCAACCAATCAGAAGTCTCCCTTGAGCCTCTGCTCAGGAAGAGGGTGAGAAGATGGCGCTGGGCAGGTCCATGTGTGGGCGCAGGAGCTAGAAAGGCCTGGTGGATTCAGG
0.3828624050445513 ATCCAAGATGGCTTCAGGCATCCACTCTCCTTCAGGGGCAAGTGGAGAGAAAGAAGAGGGCAGGCTTTAGGGGCATGACCTGGAAGTGCTATGCACCATTTCCTCTCTCATCCCATTGGCCAAAACATGGTCATGTGACCACGCCTTGCTGCAAGGGAGCATGGGAATTGTAGTCTTTATTCTGGGAGTTCGTGTGTCCTGCTAAATCCTGGGGACTCTATTGCCACAGAACAAAA
0.9698046995527512 AGGAGATGAACTGTACTCAGGAGATCCAGGGCCAATCCCAGGCCCACGTGTTTTGCCCGCAGCGGCTCTGACTGGCTGTCCACCTGCTCTGGCAGGGTCACGTGCCCCCAGCCTGCAGGCAGTGGGTTCAGTGGGTTTTGGTGACTTCGGCTTAGACCAGCTGGCCCCTCAGGTCATAGTGAGACAAGTCTGCTGCTGCGTGGCGTTAACACAGCCACAGCACCCCAGGGTGGTTT
0.3991689493875996 GCCCAGCCTTCCGACGCACAGCATTCTAGCACCAGAGCAGTCCCTTCCTCCAACGCAGATCCCTGCCCTGCTGCTTTCGCTGGGAGCGCGCGCTCCGCGTTTCCAAGGCAGCAGCCCACGCCGCCCCACGTGACGGCCCCGCTTCCGGGTCTGGGCGCGGCCTCAGGACGTGGGCACGTTGTCGTCCAGAGAGCAAGAGCGTCGCTCCCCCTCGCCTTCTCGGCCGCCCTCCCGGT
1 AAGTGGTGGGTTGGGGGGGAAGCCGGGTGCGGTAGGCTCACGCCTGTCATCCCCGCACTTTGGGAGGCCAAGGGCAGGTGGATCCCTCGATCCAAGCCTTGGCAACATGGTGAAACCTCGTCTCTAAAAAAATACAAAAACTAACTGGTTCCATATCCTGGACTCAAAGTTAATAAATAGATAAATAGGCCGGGTGCGGTGGCTCACGCCTGTAATCCCAACACTTTGGGAGGCTG
0.2788945816469108 ATGCCAGGATTTTCTTCCTGGTAGTAAGCATTGGCTAATGATTGCCAGTCGGCTTCTGCGTCTGTGTGCCATGTGACCTGGACACGTGACTTGGAGCCGGCTGTGGTTGTTACTTGTATTTGAATAAGAAGATCAAGCTTATTATTGCAGTAAAAGCCTGTGGGA
0.4048032730248856 GCCTGACAAGGAATTTCCTTTCGCCACACTGAGAAATACCCGCAGCGGCCCACCCAGGCCTGACTTCCGGGTGGTGCGTGTGCTGCGTGTCGCGTCACGGCGTCACGTGGCCAGCGCGGGCTTGTGGCGCGAGCTTCTGAAACTAGGCGGCAGAGGCGGAGCCGCTGTGGCACTGCTGCGCCTCTGCTGCGCCTCGGGTGTCTTTTGCGGCGGTGGGTCGCCGCCGGGAGAAGCGT
0.6248718622331619 CAGGTTCGTAGGTCGCCCTCGAATTTAAAGCTCCCAAGGCTGAGTGGGTCCCGGCCAATGGAGAGGCCCCCTTTAAGTCATGTGACCAGCGGGGCTGCCCCGCGGGCTGCTCCGCGGGCTGCACTGGAGCACGTGGGAAGGCTTTTTTTCCTGTTCCTTCTTTCCCTTTTTAAACGCCCACCCACTTTTGCGCGGGCTCGGCCGCGGAATTTTTCTCGCGAGAGGCGCGCTGCCCT
0.8836243284110062 CCCGGCGGTGTCACCACTTTCTCAGCCCCTCTCGCTACTGAAGCGCTTTTCTCTCTCACACTCCGGTTTTAACTCGGGCAGGGGCTGCGGAGGCTCCGCCCCTGACACGTCCCCGAGCCACGTGATACACCGCCTCGCCGTTCTACTGGTCAGGCCCTATCCTTTCATTAGCATATTTAAACAGCTCAGGGGCGGGGGAAGCTTGTAGGCCGGCTCCGGGGACAGTTATTGAGCAC
0.7657156971778819 GCCAAAGCAGATTCTTGTCACCTTCATTCTCAGTGTTGGGGAAGTATGCTGCTGGAGCGTGGCCTTCACCTTTTCTATGGCCCCTCTCAGCATCCGAAGCACAGCAAGGTATCACATGATGTGACTGTCACTAGTAAGCTCATGTGACATGACACAGGGAGGACTTATCCAAAACAATAAAGGGAACTGAAAGTCAGAAAGCAGAAGTGGCCACATATTAGATTTTGTATGCATTC
1 GACAGTTATATGTGGCTTCTTATTGTGGCTTACACTTCCTCAGTAGATGGTGGCTGGGTTCCAAGAACAAGCATTCTGAGAGAAAGTCAGATGGAAGCTCTATCACCTGTTATGATACTGTCTCAAATGTCACATGGTATCCCTTATGCCATATTTTGTTGTTAGAAATGAGTCACTAAGTTTAGTCCTTATTCAAGAGGAGAGGAATTCATCTCTACTTCTTGATGAGAGGAGTT
1 CCCGCCTGGCAAGGCACTGGGAGGTGGGCTTGCGGATCCTACGACTAGCGTTTTTCTCGATTGGTTGAAGGAGTAAAGGCACGTGGTATGGGGGCGCTCTCTTATTGGTCGTGAATGGTACCTTGTGGTACAGAGACGTGATGTGGTTGGCTAGAATGAATCCCAGCTTCCCACTAGATGCCCCTAGCTGGCTGTTGCTATGAGGAGTCCAGGGCCTTCCGGCTGCCGTTCGGGAT
0.8575325865549654 AGGGGGCAGAGGACCCTGTGCGGGGGTGGGATCAAGCACAAAGAGAAAACTTTCCCAAAACCCTTCAACAGACTTTTTTGTTTAAGAAAATAATAATGTTTCCGTCTCTGAACACCAAGTCAGGTGACCCGTTTTTCCTTCATGTGATTTGTGAGCTATTTCAGAACCTCGTAAGTCTCTCTGACAGGTCAGGAATGGGGAAATGAGAAGTGTCATCCTGTAGAGTTTCTCTTCTC
0.469393123125671 TTCCTGGTCCTGTGAAGGCAGCTCTCCTTTTCCATTGGGGAGCGACGCACAAACGTCAACTGTCACATGACCTGCCAGATGCTGCTGGGCTTGCAAAACCTGCACGTGACTAGAGGTTCTGCAAGCTATTGGGAGCGACGCCCATCGCGCTACCTCCAGACCAGGAGGTAGGGCTAGGCTGCGTCT
0.2893475265192246 GAGAGAAAGAAAAACGAGGGAAAATCAACAAAATGTGCGATGCAAAGAGTCGATTTTCGCGGGGTTTGTCAACTTCGCCACTGCCGCACGCGAATCGACGTCGTCACGTGACGGTCTGCCTCCGCCCTTATTAACTCTCAGCCCAGCGGCGGTTTCCAGGACCTCAGACTTTTTGCCGAGGCGGCAGTCCCTAGACGAAGCGAAGGAGGCGGCGCCTGCCCCGCCCACAAGAGCTG
0.4856175689374734 GCCAGCAAGCTGCTGTTCCACCCTCCCACCAACACCAAAGCTCTCTAGGCATGTGGCCTCTAGGAAGAAGAGCCAGGGGAAGCACGGGGTCACGTGGTCCTGGGTGTGGGGGCAGTTTCTGATGGGCGAGGCCTTGATAGAGGAGGAGAGTAACATCCCCTTCATGGTCTTTGCTCTCTCGGGTTTACTCCACCTTGAGTCCAGGCCAATCAGAGCAGACGTTGCTTCTCTGTCTC
1 GGCTGGAGCTGAGCCAGCAGGGCAGGGCCCCCCTGCTGCGACAGTGGCATCCTGATAGTGAGATGCTCAGATGCTGCTGCCCTCTAGTGGCCGCCAGTTCCCTGCAACTCAGACCACGTGATTTCTGGGAAAAGGCCCTCCCTGGAGGAGAACTGAAACTTAGGGTGGGGACTGTAGAAAGGGGCGGAGAGATCAGCCGCCCAGCCAGGAGTTAAGCTGAGGTCGTCTGAGCCCTG
0.2796370943770216 ACTTCCGCCTTGCTCCTGGGAGGGTGATGTCTCATCACACAGGGACCAGCCTTGCCCAATCCGTCCTCAGGGCGCCGCCGCGACATCAAGAGGCGCAAACGAGACCACCGGTGTCACGTGACCCAAGCCACCAGCCCCAGACCGACGCGCTCCTCTTAAAGCTGCCACATCATTTTCTATTAAGTAAAAAGACAGTTCTATCTCCACCTGAGTACGTGCTTGTTCTCCGGAAGGAA
0.762283472919034 AGTAGGAAGTCTTTTCCTGTCCTTAGAGAAAGAGTATGGTAGAAAAAAAGCATTATAGTTCTGGCAAGGGAAGGTAACCATGGAGATACACACACCCCATGTGGCAATGACCACGTGATGAAAAATAATATCACCTGACATTTGTGGTTGTATGTTTTTCAGGGTCAAAAGAACCTAACTCCCGGCAGTATTCTTTGTCCTTCCAGATCTGAGATCTACCCTGTTTTCCCTGCCAG
0.4897127670309556 CTATGAAAGAGATGGAAAATGGTTCTCCTTCAGAGGCGACCCAAGCTCACCAAGCCGGATTTTAAAGGCCACGATAAGCCCGCGTTTTCCTTTATCGTGTGCCTTTGGCGCGTGCGCACCACGTGACCCAGGAGTTCATTAGTTCCGGCTTGAGGGAAGCGCCTTCTTTCACAATTTCTTTTCATTGTTCATTGCGGATATCTGGAAGCCTTCCAGGTCCCCTGAATGTAGTAGAC
0.5226258198479097 GACTTTGGCCTAGTCTCAACACCTGACGTGGACTACATAACCCAGCATTCATCACGGCAAGTGGATTTCCGGGTCAAGAGGTCCGCGCTGGGTACATCACCATGGAAGCAATCGGTTTGGTCACGTGGTGCCCTTGGTTACGCCCGGTGGCAGCTGTGGGGTCTAGGGCTCAGACGGGGGCCATTTTGCCAGAGGCTGCCTCCCGGAGTTGGGGGCGGCCTGGCGGCAGGCTGAAG
1 CACTCGGGCGCCTTTAAGAATGGCACGGCGGCCGCCTCCCTTCCTGCCCCGGCGCCTGGCCCAGTCGCCCCCACCTATCAACGCGGCCTCAGCGGGCCGGCACGTGATGGCGGACGGCAAAAGGCGCGGCTCAAAATTAGACAGAATGCGATCGCCTGATTTTTTTTTTTTTTTTTTTTTTTTTTTTTTTCTTTTCCCTGCTCCCTCTAGAGGAGGACGCTCTGCCTGGCTGCAAG
1 GAGCCTCCAGCGCCCGGGCTCCCTTCCCACTGGGAGACGCCATGATGGCCTGAGAGGAGAGCCAGTCACGTGGGATTTTGTTTTCAACCGGGTGCATTCTGGGCCAGGAGGAGGGGCCTGGGGAAGGGGGGCTGGGATGCCGGCGAGCCCCCGGACCCCTCCGCCGCCGCGTGTTCCTGTCCCGGGCACTGTTGTTTTTCCGGTCTGCTGAGGGGCAACAGGTCCCGAAGCAGGGG
0.6908189025823118 CGCTCTCTCACTCACACACACACACAACACGGGCAAGAACCACCTCCTCACTGCAGCACCGGATCAACGGCGGCACGCACGCCCGGTCGGCCCCCGCCACGTGACCAGGCTCGCAGCGCTGGGGCAGCCGAGACTTGTAGTTCTTGTCCCTCTAACAGACGGCCCGGGTAGCTCCAGAAAAACTACAAATCCCGGAAGAAACCGCATCCAGGCGACGCCAGCCCGGCTTGTTGACG
0.2456322833711515 TCAGGTGACAGAACCCACTCCGAACAGCGGTGGTGGGGGTGGTGACAAAGACTGAAAGCCCCACTCCTATTGGCTCAAGGCAGGGAAGATGAAAATTAAGTGCCATATTTGTTTGAGTCACGTGACGCCACCTCTCCGGGAGTAGGGAAAGCTAGAAAGCTCGGAAAGAGGAAATCAGCTACCTGGCTGCGGACCATCTCCCTCAATTGTGACAGCTCCGGCGCTCAATACTTTCA
0.311839357242572 TTTGAGTGCATTCTGAAATTTGCATAAATGATTTATTGTACACGATTTCACAACTTGCTTTTGTTGCTTAACACTGTTTTTGTAATATAGCCATGTGATACACAGGTCACATGATACACAGGCCACGTGATACACAGGTCACATTCTTTCACCTTAGATATCCACATCCATTCAGTGTGTGAATGTACCACATGCTACCCACTCCCCTACTTATGGAAATTTTGATTATTTGTAAC
0.4498675835732119 GTTTCTCTTTGGGGGCGTGGCTTATGGAACCTCGTTTTCCCGCCGACGGTTGGCCACGTCACGTGACATGGGTTGGAAGATGGCGTCTCCCACAGACGGTAAGAGCCGGCTTAGAGATCTTTGCCTGCAGCCTCCTTCTTTGCTCTACTGGGAACATCCACTCTGTCTCTGCCCCTCGAACATACATTTCTTTCTTGGGCTCTTCTCCTTTCCCTTTTATTTTTTTTCTTGAGATC
0.7506146740229774 ACGGAAAAGGGCCGCGCCGGGCTGGTGGGCCAGACAAACCAGACATGGTGCTGGAGACTCGTTCACCACCGAAGGCCTCAACCGCGCCGGAACCGGGGGGACCCACGTGACTCACCTCTGACCTTCTGATGCCGTCCGCGCCATTTTGGAGACTGGCATGTAGAGAAAGACTCTATAGCGAATCTTTTGAAAAGGGAAGAAAGGATAGGTACCATGTCAAAACCGCAAGTTTAAGC
0.7431943924753868 GACCAGCCTGGCAGGGCCGCACCGCGCCTGGAGCGCGAGGGAACCGGCATGGACACGCCGGGAGTCGGCCTCTGCTCCGGTTGTGCAGCCGCCCTGGGCGCCGGGAGGGACAGCCCCATGACCTTGTCACCTGGGCCCGGCGCGCGGCCACGTGGCTCGGGTGACTCGCATTGCCCCGCCCCCCTGCAGTGACTTCTCCAGTTTGGCACACCAGTGGGCTTTCATGTGACCTGTCC
0.2096624427257877 ACTTGCAAAGCGTTGCTGGAAAAGACGGGAGTTCTACTGACACTCCAGTCCAAAGCTAGGTGGGACCGCCTCCTGTCGCACGTTTCCGCCTGGTCCCGCGCTTTAGGAGCTAGGAAATGTGACAGAGGCGGTGCCTACTGCCTCGCTAGGAATGGCCGCGGAGGAGGACTGGTCACGTGGCGTGGCTTCCGGCCTCTGGCGCGTTCCTATTCGGGAAGGTTTTAAATGCGGAGTCA
1 GGTGCTCAAGTGGAGAAGACACAGTTGCCCCAGGCTGTGCACAGGTGGCCTGGTGCTTCCTTCCTCTGTGAGGCCTCCGTTTTCAGAGTAACAGTGGCCGCTAGGTGATGCCCGACGTCTGCCAATGAGAGTGTCAGCCCGGAATGAATTGGGATCCCCAGGGGTGGGGTGGGGGGAAGGATGGAGGCCCCCACAGCACAGTGGGTCACCGCGCCCTCCCAGGAGATCCCCACAAC
1 AAAGTCAAGGCTTGGTTCAAGCCAGATAGCACCTGAGGACAGAACATATCAGGTATTGGTAGTGTTTCTCCTCTGTTCTCTCTCCTGCAAGGCCCTTTCAGTCCTTGTCACTGCCCTTGAGAACTCCCAGGTCACATGAAGGCAAAGAAAGTAAAACTGAAACTGCCTTTGAGCCACAGGCTTGCTGGGGATGAGGTGACAAAGCTAATCGAGGTGGCAATTGGGGAAGGGGTTCT
0.2099856501201417 TGCCCCTCTCCTCCGCCCACCCCGCCCCTCCCCGGCCCGCCCCGGTACCCCGCCCACGTGCCGCACGCAGACCAATCACCCGTGAGGATGCGAGTGTCGTGAAGCGAAGAGCGAGTGAACGCCGGGGACACGTGACCTTGGTAGCGCGTCCTCCTAGCTTCTGTTAGCGGGCCTTCTGGGGGATGCTACATCGCCACCTGCTGTCTGGAGGATCTTCTCCGCTTCCCACCCATTTC
0.2474720910975992 CCGTCGTCCCGCTCAGGGTCACGTGGCCCGACGTCGCCGCGCGAGTCGGGCCGCGTGGGGGGGCGGTGCGTTCGCTGGATCCATGGGAGCGGAGTGCGCGCGCATTATTTTTGCTCGTCGGCTGGGAGCCGGGCGTCGGGTCGCTGGGAGTTTGCCTCTTGTGGCAGCATCCTGCTTAGTCCAGCGAATTGTGACACATTATTAAATGTATCAGAATATAAGAACTGTGTCACTAC
0.4012843225750222 CGGGAGATAGGAGAGGGATGTCGAGCTTCCTCTTTAAAGCAGTAACAAGGCAAATTATAGGTATGCCTTCTATTCACATCCCATTGGCTGAAATTAATCACCTGACCACTCTCAATGGCAAAGGAGCCTGGGAAATGTAGTCTGTAACTTAGTGACCACATACCCACCTAAAGCTATAGTTCTAAACTACAACTAAAGCTAGGGTTTAGGAACCATTACAAAAGGGAGGAAGTGAG
0.5295188925381789 CAGGAGTCCCGCCCCCTGAAGGGCATGGGCCAATCACAATGCCTCTCCTTCCTGGCCGCTGGGATTGGTCCGAGGGTGCACATGACCGGACTGCGGGACATGTGACCGTGCCGATCTAGGTCGTGTGACCCGTCTGGTGTAGTCCTGGAACAAGGGTTTTGCTGCGG
1 CTTGGACCCGCCAGGAGTCCCTGCAGGAGTTGGGAGCCCCGCCAGCCACAGCTACTTCCCCGACCCTCCCGGCTTCCCACCGCTGATTGGACCAGGCATGGGCATCTGACTGAGGGGAGCCTATCCATAGGCTGGCCAGTGATCTATCAGGGCTGGCCTAGTGAGAACACGGCCAATCAGATGCTTTCCTGGAACCCGGGGCCAAAGCTGCCCCAGGGGAGTGTGGTAGCCGCAGG
0.948862821176266 AGGTCTCCCCGCGCCCAGTCCGGCCCCGCCCCGCCAGCTCCCAGGTCTCCGCGCGTCTGGCCCTGAACTGAACGCGCCTGCGCCTGGGGCCCACGTGGGGCCCTCGGGCGGGCGTGGCGGGGCAAACAGAGGTTTGGACTCTCTCGCTTCTGCCTGGCTCAACTTCTCCGCCGAGGCATCCGTGCCGGGGTCGGGAGGAGCCGGGCACGGCAATTCCCGGGCGGTCTGGGCTCCGA
1 TGAGAGACTCTGTCTCAAAAAACAAAACAAAACAAAAACCCTCGGGCCTGAGAATGAAATTATTAGTACTACAGTTTAACCTAACAGTGGCTTAAAATAGTCACGCGGCCTAGCCACACTATCTTACCACGTGGTACAGCTTCTACGGCGGAAATTTTACATTCTTAATAATTGAATTACAAAAGCATTTCTCCCTGTTACCTCAATTCTGGGACCCAATCCGGATCGAAAGAGTG
0.7022585726726663 CTGGTGGCTGGTTCTGTAGTCTCCAAGGTAACAGAACGCGGCTGGGTCCCGCAGAGCGATCATCGGGTTCCGGCCGGCGGCACGTGATCTGTCGGGACTCTTCCCCGGAAGAGCTTTCCTTGCGGCATTTTTTCACGTGGTTCTTGGCCAGCTGTCCTTTGCAGTTGAAAAGCGGCGGTTTGTGGGTCATTAATAGTCGACGGCGTCTGCTCCTCTCGGGGAAGGCAGTGAGACCG
1 GGGCGGGAGAGCCCCACATCACAGGTTCGTGCCACGCCACAGACATGGGAACAGAGGAAGGTTCCACGCCAGTACTCGGCCCACTGAACGCTGCTGCTTCTGGGCATGTGACCAAGTGAAAGGGAAAATTGGGTTTCGCATCTCACTTTCCATCTCAGATTAAATACCAGATGAAGAAGCAGGCCCATTTAAAGAAGGCTGAGCCCTGGAGAAAGACAGCAACATGGTATTATCAG
0.2334168887290018 ACGGTCACGTGCTCGAGCCCGCGGGAGCGCCACATCGCCAGCCGCACCCCTCCACCCCCAACCTGCCCACGTGAC
1 ATCACTTATCTAGAGAGTGGGAAGTTGCTGATCTCATCACTGCATGGGGTGGGGTGAGGGAAGCAACCCTGCCCTTCCCCTTTCTCGGAAAGCAGCTGGCTTTGAAGAAAGAGAAACCAGGACGGGAAAGTCCTGATTTCTAATCTGAAACAGCGCTTTTTGTCCAGAGACCGGTGACGAGCGACCCTGGGCTCGGGTTTTGATTGGGCAGTTCGGAAACTGTAAAAGCGAATTAA
0.4854697189074688 GGCGGACATCGGGTTAGGCATTTTGGATCCAATTTCTCATTTAATCCTCACGACCATCTTGAGGGAGCGCATTTTACCCGTGTTTTACGGGGGACTGAAGCTTAAGGAGCAGTAACTTGCCCAGGTCACGTGGCTAGGAAGAGACAAGGTCAGGTCAGAGCCACAAGAGGGCGCTCTTCCCCTTTCTATTCTATGTTGTCCTGTGGTTCCCGCTTTTCCTCAGGGGCACCTTCCAC
0.9119191354515805 AGCTCCTTGCCCGCCCGCTGTCTCTAGCTCTGGCGCCCCGGCTCCCCGTCCCCCTCGCTCGGCCAGTTCTTTCTCTGCTGTTTGCCCTGTCAAAACACTGCCTAGGTCACGTGTCCCAACAACAGCCAACCCACCCCGGTCGTCACTTCCTCCCCGGCGGCCTCCGCGGCCCTGGCGCCCGGTTACTATGGCAATGCCGCCGCTCGCCCCGGGGCGCTAGTTTGGGGCCGGGTTTT
0.5673874852726793 CCTCCCTCCCCCTCGTTCGTTTCCTTCCTCCTTTCCCCGCTTTCCTTCCCTTGCTCGTTCCCTCTTCTCTCCCCCCCTCCTTCGAAACTCAGACCTCCGCCTCCTTCCTCACCACGTGACGCGCGGGCACCCAACTGGCACGCGGAGCCGCGCCCCTACCTCCCGCCCCTACCCGTCCCCCAGGCGCTTCAGGGGCGCGCGCATGCGCGCGGGGGACGGTTCCCGTGCTGCTAGGC
1 ACCTTAAGTGAAGGTGCAGATCAAGAGAGAGAAACCAGAATTTCACAGTTTTGTTATACGTGCAGCTCCCTTGGGAGCAACAGCACGCCACACAAGGCCACTCAGGTGAAGCCCCAGGTCAGTCACGTGGCAAAGGGGGAGAAGGGGTGGCTGTGGAAATTCTCCTTTCTTGTGGTCTCTGTGGGAGATGGGGGAACATGGCTTACTACTGGCTAATTTGAATAATTTCACTGGGC
0.268712379338601 AAACAAAACAAAAACCCTGCTCTTCTCCAGCAGTTTCAGTTGGAAAAAGAAGGGACCTAATTGGCCTTATGTGAGTCATGTGCCCATTCCTGGGCTAGTCATGTGACCAGGGGAGCCTAAATGATGATTGGCTCAGACTCAGTCATGTGTCCATCTCTGTGGCCCAGGAAAAAGAACCATGAAGCATCCATCAGTATTGGTTGAAATCTAAATAAAGCCATTTCCAAAAATAAGAT
0.6657019894425023 ACACAGCTCCCCGCCAGTCCCACCGGTGACAGCCACACAAAGGCAGGGTCACAAGCACACCGACCACCCCACAGCCCAGATTCGGCCCCAGACACACACTCACAAGGGCACGTGATCACGTGCGTGGTCACATGGACCGGCCCACTCAGAACACACTCACAAAGTCACACCAACCAAGGCAGCCACGCGCCACACACACACACCTACAACCCCGCATACCGCACACCCAGCCGCTT
1 GTGCCCTCTCAGCATCAGGAGCCGGCAGCTGCCTTTCCCTCCGGCACTTTTCCCTTTTCTCCTCTCTGTGTCGTAGGCGTGCCAATCCCCAGGAGAGAGGCGTGATAGGCCCAGCCTTTGACATGTGGGGAAACACAGGCCTGTGATTGGCTACCGCATGACACCCAAGGGACAAGTTGCTATGGCAACGCGTGGGCGCGCTGTGGGCTCGTAGAAGCCAGGTGCGGACGCTGAAC
0.4497579069814587 ACAGTCAAATTAATTCTAATTATCTCTCTAACAGCCTTGTATCGTATATGCAAATATGAAGGAATCATGGGAAATAGGCCCTCTTCCTGCCCGACCTTGGCGCGCGCTCGGCGCGCGGTCACGCTCCGTCACGTGGTGCGTTTTGCCTGCGCGTCTTTCCACTGGGGCCGGGGCGGCGCGGAGGGTTCAGACGCGGGCTCTTACTCAAACGCTGATCCCCGAAACTACCGAGCAGT
1 GAGATAGACTAAGCTGATTTAAATGCTCCCCGGGGCAGAGGGTTCTGTGGGATTTCCCTTGTTCTTACGGGTGGAGGAGAGGAGGCAGGACTGGAGACCTGCACGTGTAGCACCCGCGTGGTGCAGCACGTGGGTTGCAGATGTTCTAGTGAGGGGCTGGCGGTGACAGTGGGAAGGAGCGAGTTGGTGACATCTAGAGTCGTGTGAGAGGTATGGTGACTGGGACTCTGGATGTG
0.5390093854098948 TTCCCTCTGCCTGGGAATTCCTCACGTGTGAGTTTCTCGCTTCTAAGGCAGCTGCCACTTACTGGTTTTCCTGCTCCTCGGCAGCCAGAGCTCAGTCACGTGACCTCAGCTCTGCTAGCAGATATGCTCACGTGGGACCTCAGCCTGCAGTCAGGCGTCTGAAGAAGCAGATGCTGTGAGACCCCCGTCCAGCAGGAGTGCCAGCTGCTGGGCCCCCTCTCCCAGGGGCAGCTGTG
1 GTTTGAGGATTTGAGGAAAGTTCCGATCACCAGCATTTGGCCTCTTTCTGTTTTTGTCTCACTTCCAGGACCTGATGCAGGAAGCACACTATGACATGGTCACATGCAGACACACGTGGTGCAGGATGGACTAACCTCAAGCTCCACTGAAACCCTGGCTCCCGGCCGACCAGCCGTGGCCAGTGACCACGTGCAGTCTCCGATCTTCATTTGTGCGTCGATGTGGGGAAATTCAA
0.02373450288385674 CGTCGCCCGTCCTGCGAACGCTGCCGCCAGCAGCAGCGAAAACCAAAGCCTGGAGCTTGTCATGGCCCGCTGGTCTCCCCTCTCGGAGGGGGCTGGCCACGTGAGACCCTGGTCAGGTGAGCGGCGCCCCCGTGACTTATCGGCGAATCACGTGACCAGAGGCGGCTCTGCGCCTGCGACCCCAGGAGGACCCACACCCTGCCCTTTCACTTCCGGCCTGGACCTGAGGCTCCTGCTACGTGCAG
0.8370111643642141 CTTGTGTGTTAGCAGGTTTCTCTGGCGTTACCCCAGAAGCTCCTAGAAAAGCCTGCCCGGCAGCAAGCCACAGGCCCCGCCACGCCATTGGCCAGGATTGAGTCACGTGCCCTCCCCAGAGCCAATGGGAGCGAGGGGGCAGGGTGACCGGGAATGACCTTAGACTGCCCGCCCTGCGCGGAGGGAGATCCACTACAGGCTGCGCCTCTGCCCCTGCGAGGGGCACCCCTGGGTCT
0.6198690833824566 TTTCGCCCCCTGCACCTCCAGCGGGCTGCGGTCCGCTCCCGGCCTCACTCGAGCAGGCCCCGCCCTCCCAGAGGCAGTTAGTCCAAGTCACGTGATCGTCGACTCAGCTGACCCTGCGGGACCGGAAAAAGAAATTCCCGGGCCCTGGCTTCTTGGCGCGATGGTGAGGCACTAGGGGCGAAGCGAGGCTTGGGCTGCTGGAGCGGGAATGAGGGGGCGCCAAGTGGCTCCGGAAA
0.1376834621222947 CAATTTCATCTTCATGTCAAGGGGCAGGAAGAGAAAAGGGCTTCCTTCCTGGAGCCTGACTTAGGAAGTTGTGTACTCCACTTCCACTCATTGGCCACAGTTTGATCATGTGACCACATGCTAGCTGCAAAGGAGTTTGGGAAATGTAGTTTTATACTGAGAGGTGACATGCCCCTTTATTCTACAAATAGTTATGAAGGGTAGAATAGAGAGAGTGGGACAATTAGCAATCTCTA
0.7191567376202325 AGGGCGCTGGGGCGGGGGTTGGGGTTGGTGGCCAGCTGAGCCTGGTTGAAGGGCGGCTTGGGCCCCGCCCACCACCCCAGCACGTTCGAGGAGGGCTAAGCCCAGCGTGAGGCTCGTTGGCTCGACAGAGGCACGTGACGGGTCCTGAGCCAATCCGTGGAAGGTAAAAGCTGCTTCCTGTTGGGGCATGAGTCCGGCGCGTGTCGGGTTTTGAGCTGCCGCGGTCCCGGGACTGA
0.3841579628839337 GGGGGCTGCCTTGGGAGGCCCGCGGGGCAAAGGGCAGCGGGATTCGCGGCTGGAGCAACCCTGGAGGCCGCTGACGTGAGCGGGGTACTCCCACCGGGGAGGTCACGTGGCCAGGGCGCCGCCATGACGGCGGAAGTAATGGCGGAAGTGGCACCGTTGCCAGGCAGCCGTTGCCTGGCGTCGCGGGGCGTACTCTGCGCTGGGCGCGCGGAGGCCTAGGCGGGAAGCTCGAGCGG
0.1210781568117701 GCGCCTGCCCCTCAGCTACACCCCCGGGGCCTCAAGGCCACGCCCACATGGGAGCTGCCCCCCCCCCCAACGACCAGGACGGTTCCCACGGGGGCGGGGCTTCACACGTGACCCGGGACAGCCAATCGCGGGCGCGCAGCGGAGGGGCGTGTCGCGCGGAACAAAAGGCCTTTCCCGAGCGGGGCGGGGCGGGGCCGAGATCACGCTGATGCCCACAGGACCGGCACGGCGTGGGG
0.4590314619755591 TCGCTGCGGGGGACAGCGTTCCGAGGCAGTTGGTCCTCTCCGGGATGCCGTAGGCATCAGCTGACCGGCCCAGCCCACGTGACTACAGGGGCACTTGATGGGAATCATGGCAGCATCCAGGCCATTGTCCCGCTTCTGGGAGTGGG
0.1977798073883031 CCGGGTCCCAGGCTCCGGCTCCGGGTCAGCATCCTCGCGCTCAAGGCGGTCATGCCGGACTCCTGCGGACTACACATCCCGGCGGCCCATGCGGCCCCGTCACGTGATGCAAGGATCGCCGGCCTTTCCGCCAGAGGGCGGCACAGAACTACAACTCCCAGCAAGCTCCCAAGGCGGCCCTCCGCGCAATGCCGCTACCGGAAGTGCGGGTCGCGCTTCCGGCGGCGTCCCGGGGC
0.8012651405192345 GCGGTTGGGGGCGGGTGTCTGCCATTGCCCGCTAGCGTTGGCGCCCCAAGCTCGGTTTCACTCCCTCCGGAAGTGGGACCAGCCGGCTGCTTTTCCCGGATGGAACTTCCGCCTGCCATGTGACCGGCGGGTGTTCTACAAGGGCTGACCAGTGGGCGGGACAGAACGCAAAGGGCGATATTAAAAGCCGGACTCTTCCGGTGAAGCGGAGGTGTGGTGGGGCTTGCTGGGATCAT
0.8915656380048527 CAATTGGTCCCTCGCTCATCCAGTCCCCGTAGGCCAATCTTCCCTTCTCATTGGTAGGCGGTGAGTGTGTGGAGAAACCTGACCTAATGGGCGCTGGAGTTCGCAAAACGTGACCCGGAAATTGGTCACGAGCAGGCGCCGTGGGCTTGTGGACGCCTAACTTGCGCGCTGAGATTTCCGGCGTGGGAGCAGAGGTCTGAGTCTTGCGTGGGTCCTCTATATAGGGTGAGAAGCGT
0.7832423717039512 TTGGACCAGGGCCGAGGCCCGGGACGTCACGGTGGGGGGTGGGGTCTCGGGAGGCACGTGATGCGCCGTGATGACGTCAGTGGGAGCGGAGGCGATTTGGCCTAGAGCTGGGGCTGAGCACGTGGGATGGTCGGGGCCTGTTTGCCCAATGTACACGAGGCTGGAGAATAGGGAAAGAACCGTCCCTGTGAGCGCCTCCTCTTCACTCATGCCAGCAACAGGGCAGGGCATCTTCC
0.1659485747649555 CGAATAGTGCAAGCCGGAGGAGAAGCCAGCGACCCGTGGAGGTCGCCATATTGGACCGGGGCCTCGGGTCATGTGGGCTCGCCTCACGTGACTCAAGTCCCAGGGTGGCCGCTTTCAGCTCGGACTGAATT
0.5553031521650927 TCAGGATGAGTAAAATGCAGGAGCACGGAGGTCAGCCCAGGAGGTGGTTACTAGCAAGGCCACTAGCACGGGGTTGGGGGAATGCCTCTCCTTGCATTCCTTTGGCCCAAATCCAGTCACGTGCCCACCCTCAACAGCAAGGGATGCTGGGAAATGTAGTCCAGCCACAAGCCAAGGAGGTGGCCAGGAACAGCCTTTGGCCAACTCGGAGGCCCTGAGTGATCTGAGTCTGAGCT
0.6559624856502466 CTGTGGCAAAGACTTCATACTCATGATCCCTCAAGACCCATTCTCACTTGGTTTTCAGCTGGGGCAAATGGCTACACTGAATAATGACTACATCTCCCAGCCTCCCTTGCAACTATGTGTGGCCATGTGGTACGTTCTGGCCAATGGGATGTGGGTAAAACTGTGGGAAAGTCCTTGAGAGTGTTGCCCTATTTCTCCTCTTTCCGCCTTCCACTGATCTGGATTGCAGGTGCAAT
0.3745037925021905 AGAAAAAAAAAAAATCAACCTGCCAATCTGGTCTTTCCTGCAGTAAATGAAAACTAGCTCTGTTCCTGCATAGAACAGAAGAGTCCAGGCAGCTAAGTCACATGACCGGAGACAAACCAGACAGAAAGAAGTCACGTGGGACCACAATGAACAAGAGGCAGAGACAGGCCGGATGATGGCCAAATGCACAATGAAACTGGAACTGAGGTTCCTAAAGATGCTGGCACAGCGTTGCA
0.2415034262217769 GCATGATTGCACAACTGGCCCAATTCTTCATCTCTTACTGGAAACATGTCACTGTCACGTGATTCTGTGGTCCCTGCCACTTAAGAACCAGGATACAGTTCCTCACCTCTTGACTTTGAGTTTGATCACGTGACTTAGTTTGGCCAATTACGTGAGGGAGACGTGCCAGTGTGCCGGTTTTGGCTTTTGCCCAGGGTGTCTAAGACCGTAGGGAAGAGATTGTCTGGGAAACTCTG
0.356897485604393 AAACTCCCACTGGACCAGCTGGGAACCTGACAGCTGCTGCACTGTTGGTTCCACTTGCCTGCTGCCGTCTTCTAGGAGCAGAAAGTCATGTGACCCGGGCCTGGCTACTGTGATTGGCTCTGTGATGAGCACATGACAAAGCTGGGCCAATCAGAATCTTCCCTGAGACTTTTTTTGCCAGATAGGAAAAGACTCCCCAACCCTACCGTTGCTAAGCTGGTGCCCATTGGGAACAC
1 CCTGGAGGTGAGTGGGAGCAGTTCCCTCACATAAGAGTCTCAAACACTCCGGCTTCACTGTGCCCAAGAACAGCACGGTCCGGGGTGGTCCAGTCTGATCCCAACCGGCCCACCCGGGGCATCCGGTGGAAGTCTTCGCCGGAGGATCCGAAGGCAGCATCAACGCGGTTGTCTCTTGACACTGCACACAGCATAGCATTTAATCTTCGGATGTTCTAGTCACCACACAAATAAAG
0.906887967771617 GGGACCTGGAGAGACTCAAGGGAAACCAGTAAAGCAAGAGGCAGGACGGGTCATAAATTACATTTCTGAGACACTTGACAGCCCACCACGTGATCTCCATCTGCAGGGCTCCCCAGGAAGCAGGTGATGTCAGCCCCATTTTACAGAAAAGGAAATTGAAAGTTTCAAATGGAGAGTCCAAAGTCTGCCATACTGCTCTTCTGCATCAATATTACACGATTTCTTTTTTCTTTTCT
0.9061282488469321 CAGTGGGGCTGGCTGCAGGGGTGGGTGTTAAGACCCAGGTCTAGCCATTCAAGACAGTTCACCCAGCCTCGCCAGTCTCACTGATTGGTTCGGGTGTGGTCATGTGACACTCAGAAGGGCCAATGAGGCTCAAACCCAAGACATCTGCTGCAGCTATTGGACAAGACAGAGTGTATTGCCTTGGGGTTGCTAGGTAGGATAGAGGCAGGAGTGGTTGGGTGTCACCTTTGCCTCTG
0.4270747607040947 GAAAGCATGCAATGTCCCTTAAAGTACACTGTCCCTTCTACTCACAAAGCAAGTCACTTGGCCAAGCTCAAAGGCAAGGGACCAAGAAGGAAGTACATTCTACCTTTGTGGTCACATGACTGCAGAGTCACATGACAGAGGGCATGCTGTTGGGAGGAGGGGAGTCGATGATTCATATGTTCACAGTCCCTGTCAAGATAGCCATAATACTGAAAATAGCACAATAGCTAACACTT
0.3226689267638616 AAAGGGCAGGGACCACGCCTCTCGCGTTGGCATAGTGCCTAGCTCAAGGCACTTTCTGGGTTAACACTCGCTGAGGACCGGAGTGAACGCCCCCGCCCCAAGTCGTCACGTGACTGACTTTCTCCAACTGCCGGTTTCGGCTCACATAACACACCTACTATCCAAAACATTTCTATTTTCCTAACACAAAAACTATAGCTAAGTTTTTATATTCTATGTAGCCCCAGCCTAGGACG
0.908165201417467 TTCTCAAGTTCACATTCAGCATGAAAAGGCTGATCACCTCTTCCAGTCACTCAAGCAAAAAGCCCCAGGTTTGCTGCAATGGGCTAGAATAGTTTGACTGTAATCACATGACCACCTCTAAGCCAATCTCTGTGGCCAGGCACCCCAGTGGTTGGTTTAGGCCTGGATCTTGTGACACACTCCTGAACACATGACTCGAGGGTGGGGCAGAGGCAGATCCTCACACAGAAGCTGGT
0.4086337013352987 ACGCCCCACACACCTCAAAGCGCAGCCGAGCCAGCGAGCGAGCGGCGGCCGGCGGGGCCAGCGGGCGCGCGCGCGGTCCGCCCAGCTGAGCCGCTCACGTGACGTGCCTCCCGGCGCCGCCCGCCCGGCGCTGAAGCCGCCTCGGCCGCCATGTTCACTGTGGGACGGTAGCTGCCTCTCCAGCCGGACGCGATGCCTGGAGGCTGCGGGCGCGGTCCTGCTGCGTGAAGCCCGAG
0.8139309589192909 GACAGCGTCTTCCCACTCGCAGTTCCAGAGAACTGATCTAACTGCCAGAGAACTGATCTAACTCCTAGCTTTCCAACAGGGCACATGACTCAGGCTTGGCCAATCAGAGCATTCCTTTCCCAATCTGAAGATTGGTTCAGGGACAGGCATATGATTAAAACTGACCAATGAGAGCTTTTCCTGGTAGCATCATTGGAACCATTAGGAAAACATGCCTTCTTTCCTTTGGGCTTTGA
0.3925143223884416 CCCCGTCTACAGCAGGGACCCTGAGGCCTGTACCTTTAAGAGCAGCAGAATGTTCTGCACTATGCAGAGGCCGTTTGTCGGATCACGTGACAGCACCCGCGTGTTCCCCCATCACGTGCTCAGAGGTTTTCCCTACTTCCGGGTCCTCTCTGTCTTCGCTTTGGGCCTTCTCGGCTTCGGAGCGTGAAAAAGGGAGGGGCTGGAGAA
1 GAGCCAAGCACTTGGGGGTGGAGGTGATAGCGAGGCTGATGGCCCCTGTGTTCTCAGCTCTCTGCCTGGGTAGCCCCTGGGTGATGGGGGAGAGGCCAGCTGTCACGTGGGGTATCAGGTGGCTCTGCCAGAAACTCCCTTGGCACACAGAGCACTGGGTCGGCCCTCGGGTGTGGCTGTTTGGGCAGGACAGCCCTCTGTATGTAGCCTTGAGCAGGTAGGGGGGCCACCTTGAG
0.5576096349022721 TTGGAGGAGACCGAGGGAACCCTGCTCAAGTCTGGGAACTAGAGGCGCGGGAAGGTCCTGCTTCCCCGCCACCCAGAGATCACGTTTCCCAGTAAACCCAACTTCCGGGTCCCATTCCAGGCCTCCAAGCCCACGTGACAACAAGCTCCGCCCTCTGCTGTCCCGCAGATGCCACTCGGTGATTGGCCGCGTCTGAAGCCGCGCCCCGGCGTCGCGTTGCAGCCTTAGGTCCAGCC
0.2984053077832321 CCGGGAGCCCGATGGAAATCCGGTACCCTGAAAACGAGCCGGAGAGACTTGATTGGGCCATTCACGCCTCAGGATGAGGACTGGCCAGTCTGCGCCTGGAGGGCGGGCCGGTCCCGCTGATCACGTGACACGATTTTTGAAAGGTGATTGGCTGTCAAGGAGAGGGCTTGCCACCGAGGAAGGGGCGTTTCCTAGGGGACTGAGGGAGGGCTGGGGCGGTACGAAGCGGGGGTGGG
0.1887421297349424 TGCGGAGACACGTGAGCATGCATCACATGACGCCCGCTCGGGCGGCCGCGGGACACGCTGGGAGTTGTAGTTTCCGCAAATGTGA
0.1312296953692017 CTGCCACGCTCCGCCGCCTCGCCCTGGAACCCGGGCCCGGACCCCGCTCCAGCACACCTGACCCTGGCCGCTTAACAACTCCCGCCCGGCACTAGCGGGACTCACGAGACAGCGGCCATGTTACTCGAGTCACATGACTCTACAGCACTTCCGCCTTCCGTCGCGAGGGCCCGCCCCTCTCCAGCCACGCCCCCACCGCAGGCCGCAGGTGGATTGGCCACGCCCTCGGAAGGCTC
0.4883759671018907 TACCCACCAAAATCTGTTCTGCCCTTGCACAATAATAGAGTTGTAGCTGGGAAGAGCTGGTCCAGCCGGAACTACATCTCCCAGCCTTCCTTGCAACTTGATGTGGCCATGTGACTAGTTCTCACCAATGGGGTTTAAGTGCATGTGACCTGCTCTACTTCGGACTGGGGCAGCTGTGCCGCCTCCTCACACTCTCCCTTGGTTGGCTGGATGCGTGGGGTGAAGCGGCCCTGGGG
0.3551973427957297 GGCGGTGGCGCTGTGCCGGCTGTGACGTCACCTCGCCCGCGGTGGGGCGGGTGGAGCCTTTCGTAGGCTCGCGACTGCGTCAGGGGAGGGCCGTGTGGTCATGTGACCAGGGGCTCCGCTCTACGATCCTGGGGTTGCTTCCTTTCCCAGAGTTGGGGTTTTGCTTTTCTGTCACCTCGGCTTCCGTCGTTTTTTGTCCCTGTACCCTCTTGCGTTGCTCCTCGCATTGCCTGTTG
0.3212727368260579 TCTCTTCTTCCACAGTAATATAACATTAGCTGTCCACCTCCCAACCCCCAGAATAAAGACTACATTTCCCAGCCTCCCTTGCAACTAGGTGTGACCATGTGACCACATTGTGGCCAATGGGATGTTAGTGGAAGGTCATGGTGGTGGCATCTGGGGATCTTACTGGCTGGCAGGCAAGTGCCCTCTGCCCCTCCCCTCTCCACAGTGTCTGTAGCTGTCCCCTTGGACCCAGAGGA
0.7860020847537375 CACTGCAATGCACATCTGCGCTTCTTCATTCACCAGCATCCCTTTCTCTAACAACTGGGATCACGCTGGAGCTGCCAATCATGAAACCCCGCCTCCCTGCCCAAAGGCGTGTGCACGTGACCCAAGCTGGGCCAATCAGGGTCCTCTTAAGAGATTGACGGACACTGAGGAAAGAGGCCTCTCTCTTCTGGGATCCTGACCCAGAGGGACCACCATAGCATGGACCGTTTCTTTGG
0.5613431109978857 TTCTGGAGGGAAGAGACATCCCAGAAGCACCCCCATGCAGACCCGAACCCAGCGACCTCGTCTCACATTTCATTGGTCAGAACTGGGTCACATGTCCATTCCTGAACCAATCACATGCAAAGAATGGGATCACATGATTGGTTCAGATTAATGGTTGGGCGTGGACTGGAAACTGAGCGTCAAGCTCCTTGTCCTCTGCCCTAAAAGACCAGGATTCTATGGGCCTTGCTGGGCTC
0.1059874576541201 ACATTCAATAAAGCAGGAAGTATCAGCCCGACGAAGACCGCCTTAAGTTTTCCACTTTGATGAACTCGATCATCCCCGGGGATGAAGAACCCGCCGGCCCAGCCGGAGCCCCGTCACGTGACCCGGCGGCCGCGGGGAGCTCTGTGCGCAGGCGCGGATCCGCACGCCCGCCGCCTGAGAAGCGAACTCCCCGTGGCGCCTGCGCTGTAGCGGGGGTTCGGCTGGCTCGCGCGGGT
0.8387664854562056 AGTGGGTGGGGCTTTGCCAGCAGTGCCCACGGGGGTCATGGGGCCAGGCGCGCTCCGGCGCCTGCAGAACTGATCGGGGATAGTCTCAGGAGGCGCTAGTCACGTGCCCCGGTGATCGGGGATAGTCTCAGAAGGCGCTAGTCTCCTGCCCCGGTGATCGGGGATAGTCTCAGGAGGCACGAGTCGCCTGCCTCGGTGATGCACCGTTTCTCACACCGGCTGCTCTGGCCCGAGCT
1 CTGTCCGTCCTCTCTCATGAATGAAAGTCCTGGCGCCTCCGACCAGCAGGTGTCCCCGGGGAGCCGCGGAGAGACTGCCGCTGCCATGGCAACCGGCGGAGGCGTAGCTCGCCCACGTGCCCAGTGACGTCATCGGCTTCCTACTCTTCCGAATTAGCTCAGAGCTCCCGGCGGCCCTGCCCCCTCCTGCCGCCAGGAGCTCACCTGGAGAGGCCAGGCCAGCCCTGGGCACAGCC
1 GGAGCCCACTACAGCCCCGCCCCTATCTCCTCCTTTATGGCCCCGCCCAGCGGGTATCCCCCGCCCCCGCTGGCCGATCGGCGATCGATCGCAATGTCTGCGCTCTCCGCGTTCTTCCAGCGCTGTCTTTTTAGTACCACATGCGCAGGCAGGTGATGGCGGCGCTGGTCGTATCCGGGGCAGCGGAGCAGGGCGGCCGAGACGGCCCTGGCAGAGGTGGGTGCTGGAACGCTGCG
0.7419926072991704 GAGCTCATCTCGCCGAGATCCGGCCCCACGAGTCAGGTGGCGGAGGTCAGGTGACAGCGGACCCGCCTCTCCCAAAGTCTAGCCGGGCAGGGGAACGCGGTGCATTCCTG
0.6897385345741951 TCTCCTCTCCAGACCCAGTTTACCCACCACTAACCCTTCCGTGTGGCTCTGGGTGCTGAAACGGGGATGACTTGGCCCGCTAGGTGAAGAGGAGACGGAAGCTTCCTGGCAGTCCCCGCGTCACGTGGGGCCCTACCTAGTCAGCCTCCTAACGCCCCTCCTTACGCATGCGCCCATTCACTGCTGGTCCCCAACAATGCCTAAATCCCGCCCTGCCCTTCTCGTTCCGCCCCTGC
0.2947552842384519 AGAACGCTTAAGTGCCAAAATGAGTAGACCAATAGGGACTGGAGAGGAGGTTGGAAAGGTAGGGACTACGCCAGCGCGGAGGAACACTGCGGGACTTGAGTTAAATCATGTGATCTCAAAGAGGGCGGAGCGTCACGTGGCGGGTGCGCGAAGTAGGGCCGGCTTGGGAGGGCGCCGGGGAGGCGGGGCCGGCTGGGCGACAGCTGGGAGGGGGACCGACGCCTTCCCGGACAGCG
0.353431630731422 CACCGTCTCTCTGTGTAGGGGAAGCTCCTCACTCCTCAACTCCCCATTCCCTGATGTGTTGGTGCAATGACAGCCAGGAACAGGCACGTGACCCAAAACTGGCCAATTAGAGTACTTCATCCTTCTGACTGCAGATTGGCTCAGGGAAGGGCACATGACCCAATGTATGACCAGTAAAAATCCTCCACAGTGTTGTTTGTTTCTAGCTTTGTGGAGAGTGTGAGACGCCTTTCTGT
0.9110685962470879 TGCGCAGGGGTTTGAGAAGCCCCGTGGATGTGGTGAAATAGCTGTGGGGAGAGTATTTGGCAACGCTCAATAGATTCAGGAGGAGCTACTAGGATGAATGGCTGCCTTGTGCCACAGCTCTACAGGCTTTCACGTGTGTCATCTCACGTGATCTTCTGGGGCGCTGGTGTCTCCGTTTACTAGAGGACCAATCGGAAGCTTAAAGAGAATGAGTAATTGGCCCAAGACCACCCAGC
0.1679049719770794 GCGCCGCCAGCGGCCATGTGCCAGGCCACGCCCAGCCCCCCATGGCCACGCGCCAGGCCACGCCCTATCACGTCCTGCCAATTGCCACGCACCAGGCCACGCCCCCGTCACGCAGCGCCAACGGCCACGTGCCAGGCCACGTGCCAGGCCACGCCCAGCACCCATGGCCACACGCCAGGCCACGCCCCCGTCACGCCCCACCAACGGCCACGTGCAAGGTCACGCCCTCAGCCCCC
0.397807613050977 AGAAAAAACGTTATAAGAGGTTGGCAGGCTTTTTTTTTTTGCTTCACCAATGGTTTTTATTAAATTGCTGATGGAACCCGTCCTCTCCCTACATTGAGAGTATGGAAGGTGCGGGAGACGGCCGTCACGTGACGCGGAGAAGGCGCGGCGCCCGTGGGAGGTTGGTTGCAGAACTCGGAACCGCTGTGCGCGCGCATGTGTGGGATTCGGTCTTCCTCCCTCAGTGGGTCTTTTTT
0.1065281570569965 AATTCAGAGTTCAAAATGGCCACTTGTTTTTATCCAGGCAGCAGGAAGAAGAAAGGAGGAAAGAATGAAAGCCACCCCCTAACCCTTGCGCCACCTTCTTCTTTCATCTCATTGGCCAAAACTGAGTCACATGGTCTCACTTTGCCACAAGGGAGGCTGGGAAATGTAGTCTTTTAGTTGGGCACATTGCTGCGCTGTCTAAAAATCAGGATTTGTAATTAAAGAAGCAGGGAAAA
0.2276934515208243 ATCTAGGAATATCCCCGCCCATAGAAAGTACTGATTGGAGAAACATTTGTTTTCTCTACGGCTGGTTGGTGTAAGGAGTGTTTCACCACACGGAGATGTGGTCACGTGACTTGTCAACTTTCACCCAGGATGTCTCCCTTCTGACTTCCCCTTAGCAACCAAGTCGCGGCGCTTGGTTCCCCAGCAACCGGGAGACGCGTCTGCTGCGTGGAACCGCCGAGTTCCCAGCGCTTGAG
0.9006698589306137 TAATCGGACTCCTTCTTGCGGGGAGCCGCCAGACACTCCCATCCAAGGCCTCTTTCTCATGACTTTTTAATCTCCTGCTCGGAAGTCTACGAGGACGCTTCCGGGTCACGCGGCGCGGACACCAGGAGTCATGTGATGTCAAGATGGCGGCGCCGCGGTAGCAGGATCCGGGTTGTGGCGTCCTAGGAGCCGCGACGGTTTCTGCCCTCGGGCAGTGAGGGGCAGCAGCGCTTGGC
0.7340012738296446 AGAGTAAGCCTCTCCAGTCCCGGCGCAGGGATGGAGACGGTGTTTCGTGGGCTCCGATTGGCTCAGTAGCCTATCTTTGGAGCGAATCAGCGAGCGGAGAGGGATGAACTTCTCTGACTGGCCAGATCCAGTCACATGCCAACATGTGACGCGTGGAATCTACGCCAGCCACAGCAGAGAGGTGGGGGTTGTGACCGGAGTTAGATGCCAGCGCAGAAGGGACGTGAGCCCAGCCG
0.898322102362701 CGTGGCCGCGCTCGGCTCCCGCACTGCTCACTCCACCCCCTACATCCCAGCCCGCTGCCAGAGCCGGGGAGAGGGCGGGGGCCGCGTGGGCGAGGCCGTGAACAGCGGCTGTCACGTGGGCCGCCCAGGCCAATAGGGGTGAGGCTTTGGGTCGAGCTCAGTCCTCCCCCGGCGCCTCCGACTGGCAGTGGGACTCAGCGGGCGTGGAGGTCGCGGCTGAGCGAGCGAGCCCTGGG
0.4519395092545064 ATTATCAACAAGCCGCCCGCCCGGAGTTCCGGTCCTTCCCCGCGCTAGGCTTCACGGGAGGTCAAGCGCCGGCCCCGCCCCTTTTCCCCATCCCCCTCCCGCGGGTGCAGGGGCGCACGCCCGCATCGCCCACGTGACCCGCGCGTGCTACCCGCGCCTCTTTCCCGGGCCCTGGGTGCCTGGAGCGAGCCACCGTTCCTGCAGCTGTTTTGTGGCGTCTGTCGCCGGCCCCCGGT
0.1280353140740885 ACCGCAGGCGGCGGCGCTGAAAGTGACACTCGGCGGCGGCGGCAGCAACAAAAAGGGTGGGGGGGGGGCCAGGAAATCAGCTGTGAGGTCACGTGCGGCGCGCAGCCAGTGGACGCGCGGCCTTTTTGTTTTGATACATTCCAGTCACCTCTTAAAGGGGCCGCGCCGGCCGCGTTCCTCTCGCAGCCCCAAACAAAACAACACGGGCCGCCGCCGCGCCGCGCCGGCTACTTTTC
1 TGACCCCGCCGCTCCACACCACCCCACTCGCGGCTGAAAAGCTGAAGGCAGCCGCACACTCGCCCTTGCAGCTTGCCCTGCAGCCCGCGCGGCCATGTGAGCAAGCGCAGCCAATCAGAGGCTCGCCCTGGACTCCGTCCCGGGCTGGGGGGCGTGGCTGGAGGGCGTGGCCGGGCGGTACCCGCGGCGTCTCTGCGCTGCCGCCTTTGCTTGCGCGGCTGTGTAGGGGGTTGTGG
0.3972868709080001 GATTATTCGCTCCTGTAGCAGTCAGTGGTTCACGGTGGCGACGGCGGACTGAGTTCTATCCCTTTTCTGCCCTGCCGGGTGTGGGTTCATCCACTTCCTCGCGCCGCTCGCACCCCATTGGCAGTATTGGGTCACATGGCCAGCCGTGGCCGCAAAGGACGTTGGGAAATGTAGTCTTCATAAGGGAGCCAGTCGCTCCCGGGACAGTGGGGTCCACGGCTGCGGGAGGGGAATAG
0.3312231133972733 TGACGGAAAAGATGCGTCCGCCATCCCTTTTGCTCCACCCCTGACGTTGGCCTCGGCCTTCGATTGGCTGCTCCTCCCACCAGCCCCGCCTCAGGGGCGCCCACGTGACCCGATGGCCGCCGTGGGATTGGTTGTTCGGCGAGAGCCGCGCTAGGCTGTAAGACCTGAGCCGGGCGGAGAAGCAAAGGAGAGGGAAGCTGGAAGCACCTTTGGCCCGGGACAGAAATCTGGAGAGC
0.6243220516142163 GATGGTGGAGGATCCTCCAGAAACAAAACCTCACCTCGCTTCGACATCTTGAACGCCGGAAAAAAGAAAAAAGGAAGTCGATTCAAAGGACACTGGGATATGAACTTTAACGCCCCGCCCACCCTCCTCACGTGGCCGGAGCAAAAACCGGCCTCTTCCGCCTCTGGGCGCTGCCTTATTACGTAATAAGTTTACGACGTCGCTTTTAGCCCTCTCTGCGAAGTGGGAGTTGAGGT
1 CATTCAGGTTCCTGAATCCTGGGTTTACCAGGGTACAGCTTTCTGCCATTTCTGTTCTGGTCTTGCTTTGTGGACCACAGGCCTGGCTTCCTTCTCTGAAGCATCACGTGCTCCATGCTGGGCCAAGCCCAGTGCAGGACCCGTAGGGGCACGTGGTTTCTTCTGGCACTTTGCCAGGGAGTTGGGCCCACCCAGTGAGTGTGTGAGTTTGGTGTGCAGGGAGGCCTCTATGTTCT
0.6312905240500137 ATTTTTTCTCAGCTAATAAAACATCCACCCACAACCCCCCGAACGCCCGCAAACACCAGGCCACTCTAGCAAAACCTCTCTCACTCCGCCTGCGCAATCCAGCTGACTTCCGGTTACAGATAACCACGTGATTGGGAACCCTTGCTGCGCATGTCTAGTAGGAAGTCGGACTATACCACTTTCCCTACGGAAGGGGTACTTTTTTATGTTTTTAAGTTTAAAACCGATTTCTGATA
1 CCACATTCACCCTGAAGGGGGCACTTTTGTTCAGTCGTTAGCTGGTGCCAGCTGAAAGCGAGCTCCAGGAAGGAAACATAACAATTGGTCACATGTTGGGGTGAGGGTTCTCGCAGGGGCTGCTGGGACAGGGAAGGGAGGTCCACGTGGAGTGGGCGGAACGCGCTGAAAGTTTTGGCGGGGCTAGCAGAGGGAGAAAAATACCCAAATTTGAGTTGTGATTTTTAATAGGGGGA
0.8273097519015913 CGGGTCCCCTTCGGCCCTGGAGCCGGGGTCACACGCTCCCCACCGCGTGCGGTCACGAGACGCCCCCAAGGGAGTATCCTGGTACCCGGAAGCCGCGACTCCTGGCCCTGAGCCCGGGCTTAGCCTTCGGGTCCACGTGGCCGGAGGCCGGCAGCTGATTGGACGCGGGCCGCCCCACCCCCTGGCCGTCGCGGGACCCGCAGGACTGAGACCATGGAGGCGGTGGCGGTGGCCGC
0.5508285544604958 GGCTAGTCAGTCCCCTGACCCGGAACCGCACTGGTGCCGCCGCTAGCCGGCTGCCCACGTGCCTGCAACAGTGGCCACGTG
1 AATGCCCCAGACACGCGCTATCATCTCTAGCAAACTCCCCCAGGCGCCTGCAGGATGGGTTAAGGAAGGCGACGAGCACCAGCTGCCCTGCTGAGGCTGTCCCGACGTCACATGATTCTCCAATCACATGATCCCTAGAAATGGGGTGTGGGGCGAGAGGAAGCAGGGAGGAGAGTGATTTGAGTAGAAAAGAAACACAGCATTCCAGGCTGGCCCCACCTCTATATTGATAAGTA
0.7891929098105668 GACGAGTAGCCCAAGACGTGGGCTGCTCCAAAGAGGGTGAGAGCTGAGGATGAACGAATCTGATCAGGCGCCTCGGGACCACCCTGAAAATGGGGGGAGGGGCCTTCGGGCAGATCACGTGGTCAGGCTGTTAGCGCAGTTGCTAGGCAACCACAGCTGCGGGCGTGGTCTGCGCGGGGTTGCCCTCCTGTTCTGGTTTATCAGGGGATCCCCAAAGAAAGCAAGGGGACCAAGGC
0.4161081744762499 AAAGAACTCATAGCCATTAATTTCTGGGAATTGCCCACAAAATATACTAAAATTTATTCCGACCCCTGACTCGTTTTCCTGTTTCCGAAAGCCCTCCTACTTACTGTCAAGTGAACAAAGTTAGGCGCCCACGTGATCCTCCGAGCCAATGGCCGCCCCGCCTGCGATTCCCGGATAAGGAAATCTGCTCACCCGGACCCCACTCCAGCCAAAGAGGTTTATTTCCCCTTCTTCCC
0.6450461223897795 ACATCCCAGGGGCTGCTGATTGGCCTGTACAGAAGAGGGCTGGTTCTCCAGCGCCACCAATGAGAAGACGCAGAATAGGGGAGCGTCACACCCAGTCCCAGGTAGTATGCAAATATAATGTCACGTGACGTCAGGCTGAGCTGGAGAGTGGGCGCGGCGCTGGGTGTAGGTTGGAGTCAAACACTAGTGAAATAATTTTTGGGGGCGGGAGTAGGGAGCAGTGTCAAACTTTACAC
0.8793717204684508 AGGAGTGAACACAGGGGAGGTGGGAACTCGGCGCGGCCTCCCCAAAACAACAGGCCGCCCCGGCAAAGCGTGGGTTAAGGGGGCGGGCCCGGGGGAAGCCACGTGCCGGGGCGGAAGGCTATTGGTTCGCCCGGAGTTGTTTGTGAGTGGCCATTGGCGACGTCGAGGCGCCATGACGAGCCGATTGGCTGGGCGTTGGAATGCCCGCCAGGGCAAGGGTAGGGAGGAGGCGGCCG
0.6260436414223766 CCAATGTTACTAATACTTCTACAGAGAAAGGACCCACCCAAATCCCCAACCGCCAAGGAACCCGTCCGTGCTGCTGAGGCAGGAGAAAGACAAGTGCTCTTCAAACGCCCTCACTCACGGCTCCACCCAGGATGTGTCACGTGACCAGCGACACCGTCCCTCAAACCTGGAGTACCCCACACACTTCCCCTCGCATCCAAGGTCCTCCGCGGGGATCAGTGTCACCTCCTTCCCTC
0.06542607546466421 CACCCGGAAGATTGGCCCTCCCGGAGGAACTCCCACACGGGGCGGGGCTGGGTAGGGGAGCGGGAGTTACGTAGAGGGAGGGAGTGCTGGTCACGTGGCAAGAGGCTGCGCAGGCTCCTTCCGGCCCCCGGGGCTTCGGCGGCGGCGGCCCGCGAGGGGCCTGGGCGCATGCGCAGCGAGGTTCCACGTGAGCGCCTGCGTTTCTCCTCAAACCTAACGATGCCGCCGGAGCGGAG
0.4999709671902897 CACGTGGCTTCTACAGATTCTTACAAGAAGTAGAAAGAACATGGAGGAGCACACACGGGAGGCATTCCAGCCAGGCCCAGTGGGGATGGAAACATCACTTCCGCCTTCATTCCATTGGCCAGAAATGAGTCATGTGGCCATCCCTAACTACAAAAGAGGCTGGGAAATGTAGTCTAGCCTGTGCCCGGGAGAATGAGGAAGTAGGTTTTGTGTATAACCAGCCAATTTCTGTCCCA
0.3713325012438817 GCGCCGCCTACCCCCATTTCGCCATTTTTACCGGCGCGCCCGCCCCGAGGCGCAGAAGTAGGGCGAACGGTGGCCGCAGCTCCTTTCTCCCGGCTCAGCCGCCGGCCAGCAGCCGCGCCGGAACCTCGGCCCACGTGACGCGGGCGCGCGCCTATGGAACTGACGGTGGAGTTCAGCGAAGAAGGTGCCGCAGAGAATTCGCAAACACCAACCGTAACCAGAGCAGCTGGGGGCGC
0.9184741060922524 AACAGGACACATTTTCATACACTTTAGTACCATTTGAAGACTCTGGGTGTCAGTTGTTGCTGGGACCTGTTTTTGACTCTGATGAACCTTTACTGGTTGTGGTTTGTCTGGCCATCACATGACTTCTCTGAAAATTCCCCCTCCCCTTCATTTCCAGTAAACTGTTTGAGCAGGAGTGAGTCACAGTGAAACCAGCTTCCCTGTAACCACAGGGCTTGTTAAAGAATTTGTCAGCG
0.5328745688354813 ATTTTGTGGGCCCAGCGGGCGGTGTTTTTCCCCCTTTAATCCGAATTCACGGGTTTTCCCTTCGCTTTAATGGCGGCCACAGGGACCAGCTCGCCCTCTCTGCTCACCCATTGGCCGCCTTGAGGTCACGTGGGCCCGGGCTCGGTTGGGAGGGGGAGAGAGAAGTGAGCGAGGGAGGGCCGGGAAGCTTTCGGCGGAGGCGGTGAGCTCGGGGGACGGGGCAGCCAGCTGGTGGC
0.9560511244302941 CGGTGGAGTCGCTGAAACGCAAATGGATTTGAGACTGAGCGACTCCCATCTCTATGGTTGGTATGTGACCCATCTATCCTCTGGAGGACTCAGCAAGGACTACCAGTCACCAGACAACTTTACGCGCACGTGGTCGCAAGGTGAACTTGCTATTGGTTAATGGCAGTAAAGCCCGCCCATCAGCGCTGGTCTGCTCCTTTAAAAGAACGCCATCGACGCTCCCCTGTCTTTCAGCG
0.5557229481535665 TCCCAAGCCCAGCCCCGCCCACCCTCGCCACTCGGAGATGTTTACGTCTCCAAAGAGCCCTCACGTCTGTAACCAAAAGAGGGGGAAGGCGGGGCCTGGCGTTGTCACGTGGCTGTACCACCCCGGACCACCGAGAGAGCGGTCCGCACTACTTTCCCGTTGACGTCGGCGGAGGGATACAAAACGAAATAGCTCACCGGAAGTGCGCTGCTCGCACCCCGGGACCCGCCCGGGCT
0.8171746389115472 TGTAAGAAATAAATGTGTTTTCTTTACAAATTACCCAGTTTCAGATATTCCATTACAGCAACAGAGAACAGATGCCAGCTCCCTTTACACATCTCCTTACACCCCATTGGTCATAAGTTAGTCACATGGTCACAAATGACTGCAAAGAGTGCTGGGATATGTAGTTTTATTATGAACAGCCCTGTACGATGGGAGGATGTAGGAGTGGATGTGGAGATTTCTGGAAATCTCTGTTC
0.6399015203692474 AAAGGAGCTTATTTTACTTAGCCGCGCCCCTCTCGGGAGGCTCTCGTCGCTCACTGATGACGCAGACGCCCTTGCCATTTGATTGCGAATCCTCCCACGTGACTTCGTCCTAGCCAATCACGAGTCCGGCTCCAAGCGAGCCTTCCCGCCGTTGGGAAATAACCAGAGTGCGGAAGTCTGGGGCGAGGGAGCTCCTTCCCGGAGCCCAGCAGCCTCCTTCTTCGACCCCGGGTGTT
0.3531901809310003 CTCTCCAACAGGGGTCCCGAGACTCAAAACGCAATGAGCTTGCGCCCCTCTTCGCCCCGCCCCTAGTGGCGTCTTCTTATTAGAGTCAGCCAATCAAAGCTCGAGTGCGGAGGCTGGCCCAAACACCTGACCCGAACGTCACGTGGTAATAGTTTACTCCCTCCTTCCAGTTCCTCCTGCGCAACAAACAAGATGAAGACTACAATTCCCAGCAGGCAACGCCCCCGCAGCCTCGG
0.1419723898940985 CCTCGGGAAAGGGGCTCCGAAGGTCAAGAAACTGCCCTGCTGGGCGTCCGGGGAGTGGGAAAATAAAGCACTTTTTGTATCCCGCCCCTCCCCCGTCACGTGACCACGCGAGGCGGAAAGAAGAAATCCGAGGACCGGCGACGCCTAGAACAGGTTGGCTGGGGCCTTGGGAAGGGGGCGGGACAACGAGGCTGAGGAGGGATTGCGCCTGCACTTGCCCCCCTCTTACCCCGCGG
1 GGTTCCTGGCTTTACTCCCTGTGATATTTCGGGCCCAGGAAGGAGGGGGTAGGGCCCGAGTCAAGGGCTGCACAGACAGCAGCTGTGGCTCAGGAAGGAGCCCCTCTGGGAAGTGAAACTGACCAGAAAGTGTCACGTGGGTACATCTGTTACCTACGGCAGAACAGTGAGCCCCCAGGCCAGCCCCCTTACCTCAGGCAGCATGCTGTCCTGCTCGCCAGGGGCCTGGGTCTCTT
0.7283980336843818 GGGCACACACACTGGCCGGAAGGTTTCACTCTCTTCACCTCAGTCATGCGGGCCGGAAGATTTCACACCCTTCACCTCAGTCACATGGGCCGGGAGGTTTCACACGCTTCACCTCAGTCACACGGGCCGAAAGGTTTCAGACCCTTCACCTCAGTCACATGGGCTGGAAGGTTTCACACGCTTCACCTCAGTCACATGGACATGCACACTGGCTGGAAGGTTTCAGACCCTTCACC
0.6352281898962938 GGGGCTGGGCTTGGGCTGTGCTCCTGTTGGGTTTCCATTAACCAGGGGACCAGCTGGGCTGCTGTGATTTCACTTTCGCAGAAAATGAAACTGAAGCCGTGGTCACGTGACAGGACATGTAGTATATAGCAGGCTGCCAGCGACTCCTGCTCTTGCTTCTGGATCTGCAGGGCAGTCCCAGCAGGACCCATGGAGTGTCCTTCGTGCCAGCATGTCTCCAAGGAGGAAACCCCCAA
0.3130539253235142 TTCCAACCGCACGCCGATCGCCGGCTCCACCATAAATAGAAACGGGTGGTCTCTAATTGGCCTAGCTCTAATTGGCCTAGCTGTTGTCACGTGCTCTCCGATGGCCCAATCACTAAGGCTGGACGATGCTGCACTGTGAATGGCCAGGCCCGAGTCATGTGCCCGGAGAGGGCGGGGCTGGGCCCTTCCGCTCGCCGCGTCTGGCGATCGCGGCTACGGAGACCCAGGAGGGCCCG
0.5306941753514701 GAGTAAGTGTTATCTTTACTTTGTAAGCTGTAAGGGCCCAAATCAATGTACTTGGTAAAACTATCCATAGTGAACACACGCAAATGTCAAATGGCCATCATTTAGCATCTGCCCTCGGGCTTCCGGGTCCATCACGTGGTTACTGACAGGCAGGCCGCGCATGCGCGCTGCTACTCCGCCGAGCCTACGTGACACGACGTCAAGTGGCAATGGCGGCGGACGAGGGCTGTGCCCCC
0.4586131165036825 GCCAAGTGAGGGCGGGGCCTCGATTTTCTAGTGCCTCGGGCGACAGGAGCCTTACTTTGTTTTAAAAAAAAAAAGTTTCTTCCGGTCCCCATGGCAACCCTGCGGCAGGTCACGTGGGACTGAGAGCCCAATTGCCAAAAAGGAATGTTAAAGTGCAAAAAAAGTCTAGGGAATGAATGTTTTATAATCCCCTTTTGATCACTAGTAGCACATCTCCTTTGCTTACTTACATCTCC
0.1288035122500262 TCCCCGCCCTGCGGCTCGCGGAGCCTGGCTGAGCAGCAGGAGGGGCGGGCGCCGGGGGGCGGGGCGGTCACGCCGCCCGTCCCGTGCCCGCGGTAGTCACGTGTCCGCGGGTGTCACGTGCTCGCGTCGCAGCCAATCGCGGGGCGACGCTGTCCTGGGAGCGAGGAGGCTGTGGTGAGAGACGGACCGAGACCGGAGATGTTTTCAAGCCCGGCTCCGGCGGCTTTACAGGCGGC
0.6474874238580384 GCAGCCCCGCGCCGCGCTAGGCCGGCCTGGAGGGCGGGACAAGCGCTAGAAGCTCCCGGCCGGGGGCGCGCACGTAGGCACGCAGAGGCCGTCACGTGGGTCGCCGAGGCTCGCAAGTGCGCGTGGCCGTGGCGGCTGGTGTGGGGTTGAGTCAGTTGTGGGACCCGGAGCTGCTGACCCAGCGGGTGGCCCACCGAACCGGTGACACAGCGGCAGGCGTTAGGGCTCGGGAGCCG
0.420014803816625 AGCCGCGCCCACTAGCAACGTGCTCGCGACCTCCAGTGCCCGCTCAGTGAAGCTTCTGCATGCCGCGCGCGGCACGTCGGGACTCGTAGTTCCGGCGCGGAGGACGTGCGTCGCGGCACTCTCGCCTGACCGTCTCCACGTGACTCTCGCACCTCCGGAAGTGACGTAAGCAGACACGCGTGGCGCGGGCCGCCGTTTCCGCAAACAGAATCGCGTTTGGCTGTGCTGGTGAGTGT
0.6987280031632853 GACCGCCCTCGGGGAGAGGGGAGGAGCCTCCAGCGCCGGGCGGGGCGTGGTTAAGGCCGGTGGGCCCCACCGCAGCCAGACGCTGCCCGTTTAAGCGCAGAGGGCCGCGGGTCACGTGGTGGGCGGGGTGGGGGCGTGGCACCAGGAAGCGGCGTCCGCGCCGGGCCCAGAGCCGCAGCCGCAGCCGCCGCTACAGTCCGGGCCGGGCTCCACCGCGCATCCTGCTCCACTCTGGC
0.3998357618623039 ACGGCAAAACCTTGGTCACTGCCCGGCCGGAACCGCCATGTTGAGGCCGAACCCTGACCAACCGGCAGTACTACTCCCAGCTGCCCCCGCGCGCGTCCCTCACGTGACTGTGTTAAAGGAGACGGTAGGGGCAAGGGAAGAGAGCTGAGGAGAGGGAAGTGAAAAACGACGGAGGCCGGTTGGGAGGCTGGAGCCGGAAGTGTTGTGACGGAAGCTCCCTGGGCGGGGCGGGGCTA
0.2175702009439866 CCAGATGTAGGCCTGCCCCGGTGCCTGCCTGGAGCTGCTGGCGTGGTCACGCCGCGACCCTGTGCGAATTGAGGCGAGGTGATGAGTTAGCGGGTTGCCATGGCAACAGGCTGGCCACGTGACCAGGGTGCTGCTGCCGGCGCTCTGACGTCAGCTGCCAGAGGGCGGGGCCGCAGGAGGGCGGGGCGCGAGCGAGAGCTGGGAGAAGGCAGTGAGCGAGCAGGCGGCAGGCACGG
0.612694014340271 TCTATATCTGTCCAACACAAAAGCCACAAGTCACATGTGGCTGTGGAGCACTTGCAATGTGACTAGTGTGACTAAGAAACTGAAAATTTAATTTATTTTTAATTAACATAAATGTAAATAGAAAGAGTCACATGTGGCACTCTCGTAGCTACTGTATTGGCTAGAGTGGCTCTAGTATATGCTGCCAAATCCCACAACTGTTATCTCAGTGCTACAACCCACTTCAACAGCCGCCC
0.1900313253172968 GCCAGGAGGCGGCGAGAGAAGAGGGAAGCGACCGAGAACGCGGCTAGGGACCAGACCCCCAGGCGCGCGCGCCAGCCAGGTGGTCACGTGGCACGCGGCGCGCGCGGGCTTCTGGAAACTGTAGTCCTTTGGGTGTTATTCGTGCCTCCGCCCTCCTAGTACCTCCTGGGCTACCGCAAAGCCACGTGGCGAAATCGAGAAGCGCAAAAACAGCCGTGCGCGGTGGCTCACGCCTG
0.7369839335848848 ATCACAGTTGGGCTCCCATTGGCTCTGAGATGTGGGCGGGGTCACCACTCCTGGAGCTGCCACTAGCTCCACCCCATTCCATGCAAATGAAGTCAAAGCTGTGGTGAGTCCACGTGATTAGTCACATGGTTGATGACACACTCTCCCCACCCCTTTAGTGACGTCATTGCCCACTCAAACTCTCACGAGAGTTTGCACAGATGTGGAAAGGAGCTGGCAGGGCAGTTCCCTGGGAC
0.03369801808586043 TGCCCACTTGCAAGATGGCGGCAGCCTGGGCAAAGCACGCTTCCCGCCGCCTGACTCGCCACGTACCCACTCTCAAGATGGCGTCTCCCGCAAAGCCACGCGCCAGCTGACTGGCTCAGACGCCGTCACGTGATCCCATTTTCTCCCCCTCCCCCGACTACACAAGCCGTTTCCGCCTTCGGCCTTGAGGAATAACCGCCTCCCCCAATAGGCGCCTGCGATTTCTCTGGGTCCCG
0.5855012649313788 TACTTCCTGATCCGGGCGTTTAGGTGCGTCAGGCGCACGTGGGCGCCGTCTCTCAGCCTTGGCCAATTAGCGCGCGCCTA
0.6748212222519666 GCGGGACCCGAAAGCCCAGCGTCGACGACGCAGCCACTTCCGATTCCGGTCGGAGCACCGCCCCGTCCCCGAACACGTGACACACACTTCCGGCCTCCTCTCCCGCCGGCCCGCCGCTCATCGCGGGGCTCCGCCCCGTCTTAAAGGGATAGTGCCCTTGAGACTCGGATCTCAGCCTCTCAGGCGAACCCGAACCTGGACGCGCTACGATGAGAGCGAGTTCGAGTCCAGGCTCC
0.5061959893833958 TCCCAGCGGCCGCCACTTACCACCGAGGCCGCCTCTTCGTCCACAGCCTGACGCCAGCCACCGCCGCCGCCGTCTCCACTGCCGCACGCACGCCGCCACTTCCGCTTCCGTCCGTGCTGCGGCCCCGCACGTGACGCAGCGCCTTCTCGCGCCCAGACTGAAGCACCGCCCCCCCTTAAAGGGGCCGCGGACTAGAGCTAGCTGGATGCAGCTTGGGATCCCGGCCTCGCCACCGC
0.3175699239359737 TCACTTTGTACTCACGCTCTGCCTCCAGCTCGTCCCGAAGGGCCTGCCGCGCATGCGCACGAGGCACCCGGCGCGTCTATACAGCGTGTTGCCGCCGGGGCGGAGCCCGGTCGCATCACGTGACGAAGAGTCAGCTTGTGCAACAGCGTCGGAGGCTCACTAGAAAAAAAAGGGCAGGGTCCCATGCATCGCCTGGGTCCTGTTTACACTAGCTACACTAGCCAGTGACCTTTTTC
0.4464544945967461 TGGCTGACTCCAGCCGGTCGCCGAGCTGACCACGTGGTGCTGGGCCGGCCACGTGGTGCAGCCGCGTTTGGACACCTGGACTCCAGAGCG
0.2630123390908092 ACCATGGTGGCGGATGGCGGTGGATTCTCCCAGGTAGAACCGAAAGAAGCGAGTCGCGCCGAGGATGGCGGCGACGACGGCGGAAGAGAACGCTGACGTCAACACTCAGCTTTTTATAGGCGGACGCCGGTTGGGCGGGTCATGTGACTGCGCTGCGAAGGCGGGGCGAAGGGACGCCGCGCAAGCGCACGGAGGCGTGTCCCCCCGCCCGTTAACCCATTCGGCGCCGGCGCGGC
0.6198886523193368 CCCGGGTTCAAGCGATTCTCCCACCTCGGCCTTCCAAGTAGCTGCGATTACAGGTGCCTGCCACCACACCTGGCTACGCTTGCAAATATGAAAGACTACATTTCCCAGCAACCCTTGCAGCCAGGTGTGATCAGGTGACCGTGTTCTGGCCAATGAGGTGAGTGGAATGCTGGTTGTGACAAGGGACACATCTTTTTGTTTTGTTTTTAGACGGAGCCTCACTCTGTCGCCCAGGC
0.8712259108319574 GTCTCTGGGTTACGCCCCTTGGGTCTGTCCGTTATCCAATCCCGTTAACTGCTGTGCTCCAACCTCTGTTCTTATTGGTCGCCTCCCTTCTCTGTCCCCTGCACGTGGTCCTGATCGACGGCTTTGCCGGCCCGTGACGGCCGGAGGGCTGAACTTCCGTTGGCGCAACGCCCAATAAGCGCGCGTCGGCAGGCTGCCCAGACAGCCTCCCCCGCCCCCTCGGCGTCCCGCTCCCG
1 GGACCCTCAGCGCAGCCACTTCTCCAGGCACTCGGCAGAGAGAACGCGCGTAGGCGTTGCCCTGGCAACGCCGGGATGCCCAGCAACAAGTCCGCGGCGTGTATCACGTGCTCGGCGCGGACCAATCCGAGGGCCCGCCGGGAAGCAGGTCAGCCTGGGCCAAAGTCCGCCTCCTCCCTCGCGGCGAGAGGCTCCCAGCTAATTACCGTAATTGCGGTGGGAGAGCTGCCGGATGC
0.5158043780963061 CCTCCACCTTTCCTGGTATTAGAACCCCGACTCGGGAGGCACACGGCCGTTCAGAAAGGACTACATTTCCCAGGGTTCCTTGCGGCAGGAGCAGGGCCATGTGATTATATTCTGGCCAATGGGATGAGGGCAAAGGCCGGTCTATGCCCTCCAAGAAGAGGCGTGCACTTCCCGCTTCCTGTTCCCTTTTGCGGGAGCGGGAGCCACGTGTTTTATAACAAATAGCCAGGCAGAAG
0.3369148302160898 GCTCGCCGCCATAGCCCGGCCATACTGGCGGCTCACACAACTCGCGTCATTTCCGCTCGCCGCGAAACGCACGTGACGCCCGGCGCGTGCCTCGGTACCCGATGGGCGCGTGGCTCGAAACAGCCGCTTCAGGGAGCTGGGCCTACGCGGAGAAGAGGGGGCGGAGTTCGAGCATCGGATCGTCTCCGCCTCTTCCGGTCTCCCACTTTATGCGCTGAAGGCCTTTTCCGGTCACG
0.9752545625040597 CTTCAACCCCAAGACCCGCCAGTAACGGCCGCTGGCAGAGCACATGCGCCGTACGTCCATATGCAGGGACTACAATCCCCAGTATGCAGCGCGGGCCTGGCCTCAAATCCCACCTGCCCTAGCATGCACGTGGTGTCCTTCGCGCATGTGACAGGCCCCAACGTGCACGATCTCAGGTACCTCCGCTGACCACCCTGCAGGCGGAAGAACGGCCCGGAATGAAGAGCCGGTGGCTT
0.5328857146595489 AGGAGCCAGTGTCAAATCTGATTAGTCAAATCTGATTGGTCACCGCCTGTCTGGTAGCGGGTTGTTTGCCTGTTTTGAATAAGACCCCTGGCAACAGGTGATTCAATTCTCTCGTCCCAGCTGATTGGGTCAGGTTGGACACGTGACTTGAGCTGGGCCAATCAGGTCTCCCCAGAAATGTGGGTGGGCTGGACCACAGAGGCTAGAGAGTGGAGAAGAGGAAGTTGTGCAAAGAC
0.1338963609219001 TGAGTTCCAGGAAACAGGAAGGTCAAAAAGTGAAGGGAAGCAACTATCCTTCCTTTTCAAGGAAGTGCTTGCGCTAATAAATTCCGCTTACAACCCATTGGCCAGGACTTTGTCACATGACTCAGGCAAGGGAGACTGGGAAATGTAGTCTTCATTCTGATTAGCCATGTACCCAGCTGAAACTCCAGGGTTCTATTACTATCAGTAACAGAATTTTGTGCCTCAAGTGCAAATTT
0.5768220334960572 GGGAGTGAATATTATGGTATGTAAGTTACAGCTCAATAAAGCTGTTTCTAAATTAAAAAAAAAAAAAAAATCCCTCATGCCCAAGCCAATCAGCATACAGCATTCCTCTGGTCACATGATTGGGCACTGGATGTCACATGACCTCAGTCTAGCTGGGAATGCTGGGATGCACTCTGTCTTCCTCTGGGTTTGGCACTGCAAAGAAATGAGGTTTGGAACCACTACAACCACCGGTG
1 AGTGGAAGAGACAGGTCCGTCTGGAAGGGACAGCCAGGACCCGGTGCAGAGGCAGGCTGTGGTTATCTGCAAACAGCCCCCTTCCTTCCAGCATGTCACGTGCTCCCGCCTGAGCCTCTGGCCGCAGGAATCAGGTGACCCCAGGCAGCGGGCCAGGCTGCAGGGGCGGGTGAGTGAGTCAATGTATGCAAGTGTGTGTGTGTGTGTGTGTGTGTGTGTGTTTTCATCTCTGGGAG
0.8333958062581998 CCGGAAGTGCCCCCAGGTCTGTTCCACCAGGTGCCCCTGGCAGCCTGCAGTAGAACCCTGGCACTCACGCCTCCCCGGGCCATGGAGGCGGCCATGACATGCATCACGTGACTCACCGACTGAGCATGCGCCGCGCCAGGGAGGCGAGGGAAAGCCCATAATCAATGGAACATAAGCGCAGATGTTTGCTTAGGGCCTGCGGTGACCAGGTGGGAAGAGCAGGGCGGAATCCATCT
0.2190713085635985 GCGTGTTGTGGGTAGGAGTTAAATGGGCCCCCAGCCAGGACCAGGGGTTCAAATCCGTTGCCATGGTCCCCCGACGCTTTCCCGGGCTCCAGAACGGATCGCGTGGTCACGTGACAGCGGCCAACATGGCGCCGCCCACTGTGTGGTACGGCCCACGTGGTTCCGACAGTCAAGATGGCGGGAGCAGCTACCCAGGCTTCCCTGGAGTCGGCCCCACGGATCATGCGGCTGGTGGC
1 TCATCTTCTCAAAAACAGGTAAAATGGGGCGGCCTGAGGTTCAGCAGGAAGTGGATGTGGATGTGTGGTTGCCAGGAGTTGCTGGGGGCGGAGGGTGGAACTTGGGTCCTGGGCTGTCATTGGACATTGAATTCACGTGTTCCACATGTGTGAGGAAATTGAAAAACGGCTCAGTGAACACTTACACACCCACACTGCAAGCCCTCAGCTGTGACCAGAATGCCAGGTGCCATGTG
0.1014640004897762 GCAGGACAGAGGAAGGGACAAAGGAGAAAGGGTGCAAAGGTCACATCCAGGTGTTTGTTAAGAAAGGTTCCCGGTAGCTGATGCAAGGTGCTTCAGCTTTCATTTTGTTGGCTAGAATGTAGTCACATGATCACTGCCAGCTGCAAGGGATGCTGGGAAATGTAGTTTTCAATCTGAGCGGCCATGTGCTCAGCTGAATTTAGGGTTCCAGTTTCCATGGACAAAGAGAGAACATA
0.5443271860903448 TGATTCAGAATTACTTTTATTATTATTAGTGGCAGAGACTAGCTAGTGGCCCTTAAACAGCTTTGCCCTTCCTGGGTGTACAGCTAAACTAAGTTTCCTGGCCTTTCATGTGACTGGGGTCATGTGACTGTTTCCAGCCAGTGAGGTGTGAGAAGAAGAGAGGAAGCCCATTTCCAGGCCAGATCCCTCAAATGGCCCATTGAGGGTCATTGCTGCCCTTTTTCTTCCCTTGCTGA
0.3344872471820604 AGGCATAGCTGGGGCCCCGCCTCATCCCCCGAACTGGTGAGGAACCGGCGGGGCCAATCTGCGCGTGGCGCCACAGGGCTCCCCCGGGCACGTGCCTGAGCTCGCGGCTGCGGTCCCCAGGGTCACGTGGCTGCGGCCACCAGGGCCTACGCGCCTCGCACGCCACCTAGCGGCCGCGCCTCGCTCCCCGCCCCTCTCTCTAGCGGCCCGCAGGAGGCGGCGGCCTCAGCATCCTC
1 TACGGCGGCCCAGAAACGCGTTAAACCCCGACGCGCGCGTCTCCGCAAGAGCACAGGAAGTAGGGAACGTGCTTTGGGCGAAAGACCGGAAGTTGGTTTATCACGTGACCATTTTTAGCCCCTGTAAACCAGGTCGCCGCCATTTTTGTGCGTGTGTTCCGTAATACGGAAGCCGCGAGGAGCCTTTAGGCCCTTTCTTTCTTTTTTTTTTTTTTTTTTTTTTTGAGACGGAGTCT
0.8587678095672666 GAAAATATAATTTATATTTCTCCTAAAAGGCAAGTAATGAGGAAATTAACTCATGCTCCTAGCTTCGCTAGGAATGTGATAGAGAATTTCCCCTGTAGGTTCTTCGTATGGTGCGCTCCGCTGGATCACGTGAGCCAGTTCCAAAATGGCGGCAGGGGTGGCCGGGTGGGGGGTTGAGGCAGAGGAGTTCGAAGATGCTCCTGATGTGGAGCCGCTGGAGCCTACACTTAGCAACA
0.1661974474960075 GAGTGGGGACACCAGAGTCACTTTGCAGCCCCGTGACGTCACCGATAACGGGCATGGCGTCACTCAGGAGACCACGTGTGCGGGCCGAGCAAGAAGCCCCGCCCACAGCGCGGAGTTTAGTCTGCGCGTGCCTCGCTCGAGAACGCGCTCGTGCGCATGCCCACAAAGGCCAAGGAGGGAGTGCGCAGGTCACGTGCGCCGGTGGTCAGCGCGCGCATTGCCTGCCCCGGAAGTGG
0.7237896296052353 GCCCGCCCCGAGTCCGAATCCCTCCCCGCGCTGCCTAGCCCGTCCTCACCTGCTCTCGTAGCCACAGAAAACCGAATTAGTCAAGGTGCACGTTTCCCGAATTAGGACCTGGGCGCCGCCATGTTGGCACAGTGGGTGGGCGAATCACATGATAGTGGTTGGCCAGTCAATGAGGAAACGTACGGTGGGCGGCCGGGATCAAAATGAAAGCCATAAAGGAAGCGCGCTGATCGTGC
0.8506854608097137 TCATAATAGGAAACATTTGAGGAGCTTGAACTGGGCGCCCAGCAAAGGCCACCCAGTTTAAGGAAGTGACATCACTTTTGCTTGCCTCCCATTGGCCCAAACAGTCACATGGCTACATTTAGCCTCAGAGGAGCCTGGGACATGTAGTCTTTGCTGGACACTGGAGACATGGCCTTGAGCAAAAAAGGCAAAAATCCACACTCTCTCTGGACATGGTGGGTCACACCTGTAATTCC
0.1571701013162148 GGATGTGGTTCTCCCACACCAGCTCGACCCCCGACGCTATTCACCTTCACCTCCAGGATATGGCGCTGCCTCCAGCAGAATTCGGCCCCCTCCGTGTCACGTGACCCGGGAGCGTGGCCGTGCCCGGGTGGCCCACTTGGCTCAGCGGCGCCCCGTAGTCCGGCCCGATGCGCATGCGCACAGTCGGAGCCCCGCTCCGGGGCCACCCGAAAGAGCCTTGCCTCTACTGGCCGCCT
1 AAGCATACTGAGAGGCAGCGATAGTCTGGGAATTCAGTCCAGACTCTGGAGTTGAACATAGCTCTGCTGGCTTCTCCCTGTGCTTGAAGCTAACGTCTCTAAGCTTTGGCCAGAGTCAAGATTTTCTGCCTTGTGGGCCACGTGGTCCCTTTCAAAATGACTCAACTCTGTCGTCATCCCAGGAAAGTAGCCATTGCCAGGCGCAGTGGCTCATGCCTGTAATCCCGACACTTTAG
0.2505095132599841 TAAAAAAAATAAAAAATAAAAACACCCCACCCCTCGCCCGCCGCCAAAAACCCTGTCTGAAATAAAGACTACATTTCCCAGCATTGCCATGAAGCTAAGTGTGGTCATATGACTATGTTTTGGCCAATGAGGTGAGAGAAAAAAATCACGTGTACTACTTCTCCACTGTGGCTTAAAAGGCAGGGAGTGAACCCCAAACTTTCTCCTTCCTCTAGCCGCAGTCTGCAATGCTTGTG
0.1959398967363702 AGGCGTGAGCCACAGTGCCCGGCTCCCTGCCCCACTTTCTGAGACCCAGATCCACTTCCTGGTTTCCTGTGTGGTCATGTGACCACACTTGGCCAATTGGAGCCTTTTGTTATCACAGGCACAGGGATTGGGTCAGGGCTGGGCACGTGATCCTGCCTGAGCCAATCATGCTACGAGTTTGGAGACTCCCTGGAAGAAGGCCTAGAAGTAAGGAAAACCATCTTGGACGCATGATG
0.1975530968117034 CCTCCCTTCTCAAAATGAAGGCTGCGTGTCACAAACCGGTTGGAACTGGCCGTTGCCATGGTTTTCACGTTGGAAGGCACAGTTAAAGGGTCATGTGACCAAGGAGGGAAATGCCTTTGTCACATGACTTTTTGGTGGCCTGATTAGCATACAGGAAGTTCACTCCCTGCTGGCTGCTGGGATGCTGAGTGATCATTGATGGGTGGTGACATCATCTCTTGGATGAGTTATTGATT
0.105952158206372 TCACCTGACCCACCCGCGGCTCACGTGATCCGTCCCCAGCGCCGCCATTTTGGAGCTCCGGATGAGGAGGGGGAAACCGGGGGAAAAG
0.7673952473234475 TCTCACCCGCGGTCCGGCCGGGACACCCATGCCCCTCTCCACGCCAGCGGGAAAGAGCGAGGGAGGCGCAGCACTCACCCGGTGGCCGCCGCCATGTTCGCCCGGCACCGGCGTCACGTGAAGTGCGGCGTCAGCTGAGCCCCTCCGGGTGCCAATGCATGGGGCGGGGTAAGGGCGGGGCAGGGGGCGGGGCATGGAGTCCTTGACCCACCTCCTCCAGAGCCAAATTCCACGGG
0.7681358334820694 AAGCAGCCTCTCCTACAACCAGAGAGAGAGATGTCCCCTTCCACACAAACTCTTTCCCAATCACTGCAGAAAAAGTCCCAGGCAACAACAACAAAAACCCAGGCCCAGCTCCCATTGTACAGATTTGGGTCACGTGCTCATCCCTTGGCAAATCACTGTGCACCGGATGTACGCGGTAGGGGTGGAGCGGGGTGGAGTGGGAGGCGCTAGGCCTTCAAGAATCGTGTGACCTGAGT
1 GCCGCCCGGAGCCGGCGGGCGGGCGGAGGCGGAGGCGGCGGCGGCTGCAGCGGCTGCAGGAGCGGCGGCGGCTGCGGCGGCGGCGGCGGCATCTCCTCCTCACATGACCCCACTGTTTGTCCCCGTGATCAGCGCGAGCGGCTCCCGTATCTCCTCCGTCCCCTCCTGCCGCGCGGCGTGAGCGCCGGGCTCGGGGCCCCCCCGGCCGCCCGCCCCCTCCCCTCCCTCCCTCCCCT
1 GGGCCATAGCGAGTACTGTGCACCTGCGCAAAGCCGGCCCTTCGTCACCCCGACTTTCATCACG
1 ATCCCTGTCCTGAAAGAAAAAGAAGGTATCTGTCCCGAACTATCATGCAAAACCTCAGAGCTCCTGTCTGATTGGACTAGCACTGGTCATGTGATCTTCCCCGAACCAATCACTAATAAGAGGGGTGAGCTCACACTAGCAGGCTGGTTGCAAAACCTGCCATAGAGGAAGGGCGGGCTGGGTGCTGGGATTGGAACCAGGACACACATGCCACTGTATCTGCATTCTCTTCCTCA
1 ACCACCAGCCCCTAGGGACCCGGCGTCCCGCCCCCCACCCAGGAGGCCCTCCTGGGCCTGCTGAGACCGGAAGGCGGGGCCCGACTGAGCTTGGCAATCGGCACCTGCCATGGCAACAACTGTACCATTGGTCGCTGGTGCCAAGAGCTCAGCCAATCACAGCCTAGGGCAGCTGTTGCTAGGCGACGAAGAAGCGGCCCGCGGAGCTGAGCCCAAACAAAGGGCGGGAGTGGGGC
0.6608318129363602 GGGGAGCCCGAGCTCAGACCTGCCCACTGGCTGAGGGTATCCGGCGGACGCGGCAAGCCAGGGCCCCGATTACCCAGTAATGCAACCAGCAAAATGGCGACCACAACAAACCGGCCCCCCCACGCCCTGGACTCCGCCCCCATCCCTCCCTCTCCGCTCCCCTCACGTGACCCACACTGACACTCCGCCTGCGCGAGATGGCCGCTTACCTGCACGCATGCGCAGCGAGCTACCAA
0.8709996526921748 ACTTACCTCTGGAATACATCTTCAATCAGGTTTTCTCTCTGTGGCAAGGTGACTCTAAGCAGCTGCTTAGCAACTCTTTCTTCCCTAGCAACAGCAAAAATCACAAGACTGATTTTCATTGGCTTGAATTAAGTCAGGTGGCCATTCCTGAACCAATTACTGTGGCCAGTGTGATGAAGGCCTTCCATTATTGCAGCCTGGATCATGTGTCCTGCTGTATTTTTAGTAGAGGCAGG
0.1182045033190371 GCACCTCCCACTCCCGGAAAATGGCGGCCCCCGCACACTGCCTTTCCCATATCACGTGGTATTACACGCAACAGTTCCCGCCCATTTTGCGATCACGTGACAGAAAACGCAGCTCTGGCGGGGGTAAGAGGCGGGACTCCAAAAAGGATTGCCTCCGGAAGA
1 AACTGCGGGGGTCGGTAGCGCCAAAGCCTGTTGAGACTACATTACCCAGAAGGCAAAGTGCGGAACACTTCCGCTCCCTTCACAAAGCAGGTGGCCGCACCACGCGCGGCTAGGCGCGGGCGTTTCTGGGAGTTGCAGTTTCCCAGCCAAATGGTACCTGCTGCCCTCTGATGGCAGCTCTGAGTCAAAAAGTAAAAATTTCAGTCGAGCCCCTTGGCCTAGGGATTCCAACGCGG
0.1912350016389602 CATTCCTATTGGCCAAATTACTGGTTACACGTGACATACTCGGCTTTTAAAATCCCTATTGGTCCACTCCAGACTTTCCTCGTCGCACAACCTGGAAGAGCCGGCCCAGCTGTTTCTCTATTGGCGGTTCCTCCATTCATGTGACTCTTCTGCACGCTCACTCAAAGCTGATGCTGAGAACTTGCTTCCTGATTGGTAGCCGGGCGAATCCACGTGACTTGGCCGCTAATGCCCGC
0.8637651762056288 CCCGGGGGGCCAGTCGGCCCCGCTCCCGCATCCATCGCGGAGGCGCGGCCCCTTTAAGGCTCCCGGAAACGGTCCCACAGGACCGGAAGTGACCCTCTTTATTTCCCTTCCTCACGTGGTGCAGGCAGGAAGTGACGCGCCTGGCCCGGGAGCTGCGGTCGCAGAGGCCGACGGAGCCGGAGTCGCGGACGCCGCGGGGTCTCCGGGACAGGTGACCTGGGGGAGGGGGCCGGGAG
0.9869900191999046 ACTTGCCTGATTATGATGGATAAAATGAGAGCTTTTCTGTCCTAGCAACCGAGTGTAAATTCCACAAAAGGGCCCTGATTGGCCCTTCTTGGATCATGTGTCCGCTTCTCAGGCCAATCCTTGGTTAGAGGGGGAGTAGACTACTAAGACTGGCCAGGTCTTTGTTACTTGCCTACCCAATAGGGGTTCTTTGTCTTAAAGGCCCTCAGAACCATGTAGAATCGAGGAAGGGCTGT
0.6892031846357165 GCCCCACGGTGTTGCTGCTGGATCCTCCTCCACCAATCAGCAGGAGCCCTCGGCTCGCGCTGGGGCGGGGGGTCCCCCACTCGCCCTCCCCGCGGAACTCTGGCACAGTCAGCTGACCGCAGACACTCACGTGACAGCTCGGGGCCCACGCCCGGGTTTGACAGTTCTGCGCAGAACTTAGTCCCGCCCCCGCGGCTGGTCTCGCCGGTTTCTTCACTTGGAAAGGCGTTTGTGGG
1 AGAGTAAGGATTATGGAGGACATTTCAGGCTGAGTCTAGAAATGGGCTGTGTCCCTTCTGCACCCATTCCATTGGCCCAAGACCAGTCACATGGCCTCAACTTCACTGCAAGGAGACCTGGGAAATGAAGTCCTCCTGTGTGCCTAGGAAAGAAGAAACCAAGTTGGTGAGCATCAAAGCTGCAGTGAGCCGTGATTGCACCACTGCACTCTGCCACCTACCCTTCGACTTCTGGT
0.8683197442197723 GAAGGGGTAATGGCGCTTCCACTCACAAACATGGCGGACAGAGCGTGTGAACGAGATGAACAGCCCCTCAAAAATATGGCCGCCGAGGCTGGACGGCCGTGCCCCAGCAGCACCGCCTCCGCGCCCCACGTGATCTCTCGCCGGGCACAGCGCTGACCGCGGAGGTCCAACCGGAAGAATGTCCGGATTGGACATTCGGAAGAGGGCCCGCCTTCCCTGGGGAATCTCTGCGCACG
0.5030756938981987 GTGGTGCAGCTCTCAGACCCTCCCACTTGTTTACTTCGTGGCGAGAGGGCGAACACTGCGCCTGCGCACTCTCCGTAGCCGGATCCACCTTCAGCGTCTGCGCCACGTGACTCCGATCCACCCTCGAGGTTCCAGTGGAATAACCCCCTTCTGAAAAATGGTTTCACCCGCTCCTTCTCTAGAACGGGTCGGGCCGCTACCACTGTCCGGCCCGGAGGGGAACTGTTTTCTCCGGA
0.6940486435971347 GGCTCAGGGACACAGGACCAGGTGACAGGCACAGGACACAACCTCCCATGTGACATCACGCTTGGCTACACACACTCTTGCAAAGCTGCAGGGTGACTCATACAATGTGGTCACACCATGATACACACAGCACATGACACTGAACCAGATAGGTACAACCACAAAGATCCAGTCACATGGTAAATTACAGTGATATCATAATCCAGAAACAGCCTCGGATGAATGGAAATGCCTAT
0.5492963833150266 AAGCATCAGGGAGATTGATGAATGCAAGGTATCTCACACACCCACGCCCCTTGTGGAGAATTGCCTTCCCATAGCACTAAGTGGCCATGTTTCATATCACATGACTCCAAGTAGCCACTGATTGGCTAAGATTTGGTCACCTGACTGGGATGCCATCAAATGATTGGCCATTCAGTGACCAATGATGTGGCTGAAGAAGAAAAGGTGAGCTAGATGAATCAGATTCTCTTTCATGA
0.5637503536052835 ATGAGTGTGAGCATGAGATAGAGTGAAGGTGTGACAGAGTCAATGTGTGAGAGTGGTTGTGAGATGGAGTGAACATGAGAGTGAATGTGTGATAGAGTGAGCATGTGATAGAGTGAACACGTGATAGAGTGAACACGTGATAGAGTGAGCACGTGACAGTAAACATGAGCTAGAGTGAATGTGTGAAGGTGAACGTGAGGTGGAGTGAACGTGAGATTGTCGATGCGTGAGAGTGT
1 CTCTGCCAGTCATCGGCTGCTGCTCCTGTCCCTTTGAGGAACTAACGACTGTTCTGTGAGTCAGTAACTAGGGGCAGAGGGAGGGGTGACAGACTCATTGCAGATATCAGGTGATCACTGCAGATATCATGTGATCGCTGCGGCCTTGGAGCCAGAGGCGTCCCTGTTTCTGCTTCCCCAAGAGGACATTCTCCTCCCATGGGGAAGGCCCCCACTCACTATACATTTGCGGCATC
1 TTCTGCACTTTCTCTAGAGAAAGCTCTCACACAAAGGCGAACAGACAAACAGGGCCGCCTTCCCCTGGAGGCCTGGGGTAAAGACGAAATGAGAGCTGAGTTCACGTGAAGTGCCCCACGTGGTGGCAGTTTCCTCTCTTTTCCTGTGCAGCTAGGTCACCACCCACTTCTCTTTGTACCCAGTTCTCTACTAATCAAACATACAAGACAGCTCAAAAATTGTGCGTGGCGAGTTG
1 TGAAAGGGGTTCCAGGAGAGCATCCCCTGAAAAGAGACCTGGAATAAGGGGAACTGAAAGGAGACCACGGCCGAGCCACATCCTCTCCGGGGCCTTAGTCTCCTTCCTCATCTGAATCAACCAGCTGAGCATGTGTTCTATGTCAGCTGACTGCTGGAACCGTGACCGAGCCTCCACACCCTGATTAAGCCACTGTCCGTTGCATATTGGCAGAGCCTAGGCCACTGCCCACCCCG
0.05995466439492114 CTGGAAGGCCTGGGCCGTGATTTGCCAGGGCCACGGCGTGGCCACCAAAGCGCTCCAGGACGACTCGGCAGAGCGCGGGCACCGTGGCTCAGGCGCGCTCCCCGGGGGCGGGGCGAGCAGGAGGGGTCACGTGACGCCCGGCCCGGAAGCGCTCGCGCAGGAGACCCCGGGTGACGGGGCCCGGCGCCGCTAACTGGAGCGAACCCCAGCGTCCGCCGACATGGCCTGGACCAAGT
0.5368589784684892 ACCCATAGGTTCCCGGGTCCCGCGTCGCGATCCCAGTGGGGCGGGGTCTCAGAGGAATCGGAGGGTGACTCATCACGTGACTCGCTCCGGCCGCAGCCCCCTCGGAAGCTGCTAGGCGGAAGTAGAAGTTCAGAAGAGGGCTAGGCGGAGCCGAGCCCACATCCGGGAGAGGAGAGCGGAAGTGGCGTTGGTCTGGCCGGAGCCCTTGGGTGAAATTGTTAGGCGTGGAGAGGGAG
0.5150192102485258 AGCCCCCCGGCCACCCGCTCAGCTGTTTCCTGCTCGTGTTTGTTGTGCCGAGGGAGGCCCCGCCGCCACCGCCGCCGCCGCGCTCTGCCGCCCCGGTCCCTCCCGATTGGCCGGCTGGCGTCACGTGGCCTCCATCAGCTGGGCCGGCGGGGGCGCTCGCGGGCCCCACTGCGGCTGCCGGGTGAGCCCACCCGGGGGTCGCCCGGGCCGGCCCAGCTCCGCCAGCTTCGGGCTGC
0.9495040231432895 GAGGCTCTATTTTCCAAAACAAATTTTGGTGGTCACTAGTGTTAGTTACGAATTTTATCTCTCTTCTTCAGGATTGCATTTCCTGCCTCTTTGAGATTAGGCATGGCCACATGGCTTGCTTTGGCCAATGAAACGTGAGAGAAAGTGTCAGGTGTCAGTCCTGGGTGAAAACTTTATGCATGAGTGTGCTATGAGTCACACTTTCTTTCTTTCTTTCTGATGTTATATCCAGAAAG
0.8276663251885357 AGATATGTGGCAAAGGACTATAGCCCAGTGCCTGGAACACCAAGACTAGTCTCGTTTCCCATTCCACACACAATATGTTAATGACATGTCACGTGAGGGGTTCGAGGAAAGTTGCCTAGAGAGTTCCCAATTCATTCCTTTCCTCCGGTTACTGAGCGCCTCCTACATGCCAGGCGCACTACAGAAGGTGCAGTTGATTCAGACAGGGCCACCATGACCGTGAAAAGGGTGCTTCC
0.4852978764122205 CATTCTGATGCCTGCTCAAGTTTGAGAAGCCCCGTTCTAAGACAGCCAATCAAACAACCAAACACCACCACCAACAACAACAAAGAGACAAAACTCATTTCTTCTTCCAGTGATTGGTTTGGGGTGGGCACGTGACCCTGCTCTGGCTAATGCAGTGCAATGGGAGGCTTGTTTAGGGGCTTCCGGGAGGCGGTCGTGCTCTTGAAAAAGATGCTTGGGAAGAGTAAGAGGCATTG
0.9936548159169946 GGATATAAAGGATCCACACTCCAAACACAAGCAATGTACATCTGGAAAAAAATCAATTAGGTATTATGATGTAGTCATGTGAGAATCATGAGATGCAATGTGAAACTGAAAACGGAATCCTAAATGAGTCTGCCTGCTATGCAGCATAAAACTACAATCTTTAAGTTGACATTGGGGTGAAAGGAAGGGGCCATTTCCTATTTTCCTGACAAGATAAACTAGTCATTTATGACTGT
0.9289542671653803 TTTTAAAGTTAATTTGGAAAGGAGCCGGCAAGCAACCTTCAGTCGGTGTGCGGTTTTTACAGTTGAACTGTTTCCAGCCGCTAATTATGATTGTTTTAGCGGTTCGTCATCTGAAAACTGCATTCTGCACGGCGGTGGTGGGGGGAGGACGAGGATGGAGAAGCCTGGGCGGACATATTTATTAGCTGCGGTCCTAAGTCACGTGTGACATTCTGTATCCAGTCTATCGGTTATCC
1 TAAAGATCACTCCAGCTAGCACATGGTTGAGTGGCCTTGCAGGATGGGGGAAGCTAAAAGTACAACTGTGACAAGTAATCAAAAGTAGCAAAGCAGAAAGAGCCCATGTGACCTCTGTGGTTTGAGGAACTTGTTACACAAACCCTATCTTGCTATTCACTCCCATTTCTCAAAGCTTTTTTTCTTTAAGCTCCTGAGAGAACCTGGAGCTAATTTTTACAATTTAAAGAAAAATC
0.2584905477406136 GACAGAGAGACAAGCCGGGCCAACTCCTTCCCATGAAACCCCGCGCTCCAGCCGCTCGCCAATTGGCGCCGCGGTCGGCGCGCGCCGCTCCCCCGTCACGTGACCGTACCCTGGGCGGGTAGTTGTTGGGGCGGGTCGGCCGGGAGGTTAGGATCTTGTGTTTGTGGCCTCCGCAGCCAGCTTAGGCTGCTCGGTGTCGTGTCGCAGTTATGTACTGCCATTTATTATGACTCTTA
0.8682651458431127 TGTCAATTATTTTGGAATAATTTTGTGATTTGTGTATTATTCCTTCCCTTTTATTACTTTGGATGATAACATTGCTTGTAATTGTTTTATCACATGGTTGTTTTATCACATGGTTGGTTATATCACATGGCCTGGAGTAGTGACTTCTTGAAATGCCATATTTTCATTCCTGTTACAGAATAGTCATGCATATGTTTCAACATTTATAGAGTAGTTGCTTTATGAAGGTCCTGTCC
0.7232570106531629 AGGAAGAGAAAGCTACCTTTCCACCCAATAACTCAACGCTGCGACCGAGAAAACCAGGGACGCGAGAGGCTCGCGTCATCCTGCAGCGCCGACACCACAGACACTAGAAAGCGACGCCTCCGGTGGGACGACTGGAGGTCACGTGGTACACTATACGCCACCTTTCCCTTCTGGCGGAAAAAGCCATAGAGTCAGGTTGACAAGGCCTGAGAGAAATATGTCTGTATTAAATAATT
0.9598063934926794 CCATCATCCGGTTGGAAGCCAGATGTGACAGAGAGCTCTTTATATTTCGGGAGTGGCTACCTCAGGCACGTGTAGAGCCATCTGGGGCACCGGAAACAATGTTTCAGAAGTGAGATTAGGAGGAATCCGGTCATGTGGCCGAGAAGATGGGGCACGCAGTATAGACCACCTGTTTGCATAAGGGACCAGCTTTGGCTTGTCAGGTCTTCCGTGAGATGGGGAGATTTTTAGAAATA
0.9956010439480816 TGCAGTTTGAACCGCTTCGGAAACAGCTGGCCCGGCGCGCGCGGCGGGAGGGACGCGAGTGCTCGGAAGAGCCGCCCCACGTGCTTTCGGGGAAACTGCCCGGGAGCGAGAAGGACTGGGATTGAGAGGAAACCGAAAAGCGAAAGTTAGAGCCTGCGGGAGCAGTACGCAGGCGCAGCACGCAGGCGCAGCGGGGCTTTCCCGCAGCCCGCTTCCTCCCAACGGTTTCTCCCTGG
1 AATGTACTCTCTTTTCATAAAGTCCATCAGAGCACCAGGGGTATGAAGTCTTCCACAGAAATGCAAAATACAGAGCTAACCACCGACCGCGAAGCAGAGGAAGTGCAGTCATGTGCTCAGGCTGTAGGTCTCCATGGAGACACCCTTCTGTCTACATCCTTATTTATCATCTGGGTCTCTAGTCACTTCATAACCACAAGAGGAAAAAAGAGCCATGGATTCAACTTGCACTGGCT
0.4421448554379284 GCCGCCCCAGTCTCTCTGTCGCCGGCATCCAGGCCAACCTGCCCGCTGCGGGCCGCAGGGGGCGGGCCTGAGAGGAGGGTTCGGGTTCGCTCCAGAGCTTCAGCGCGGGGACCGCACCCGGAGTCACGTGACGCCCCTCCCGGCAAGCTCTGAGAGCGACGTGGGCTGCGTCGCTACCCCTCAGGCGCCGGGCCAGGCGGGCGTAGAGCTGCTGAGGAAAAGCCCGCGCCCCCGCA
0.3646579872357777 AAAGCTCCCAGCAGCCAGCGATGAATGAAAACCCGAGTCTGGGATAGCGGCGTGAGGGGCTGGGCAGCTGCCAGGCGGGGGCGGGGCAGCAGGTCACGTGCCTGGCTTCGAGGCGGGCGCCGGAGGGGGAACTCTGACCATGATTGGTTCCTCCTAACCAGGTGACCGCAGGTCGCGTTCCGGTTGGCAGGCACCGGCCAGGGCCAGCGGCCTTCAGTCGGTAGGCGGCGGCGGAA
0.4306613889959017 CCTCAAAAGAGCCGTCACCACACCCCCAATGGGTGAGGCTCAGCCGATGAGGCAAGAGGCGGGTCCAGGAAACCACGTGTTCTGCCTTCTGCGCACGCGCCAGCCAAAACAAAAGGGAGGTCTGCCAAGCCCCACCCCCCACGTGACCGGCGTCCAGGTCCGCCCCCACCCCTCCCTAGACCCCTTCCCTCCCCAGCTGCCAAGGCTGTTAGGTTTAGCCGTTTAAATTTGGCTGC
0.7584370876807893 CCAGGCGCGCCAGGCAGAGCCCCACCCCATCCCGCCGTTCCCTTCAGCCCCGGGGCGCGGATCTTGCATCTGAAACTGAGCAGAGCAGGGCGCCGGGCAGGGCCGGCGGGCCACGTGATAAGCCCGGAAACAGCTCCGCCCCCTCGCTTCCTGAGCCGCCACATCCCGGCAGCCCTCCTACCTGCGCACGTGGTGCCGCCGCTGCTGCCTCCCGCTCGCCCTGAACCCAGTGCCTG
0.6445961452577658 CTTTGAAGAACATGCCCCCAATTCAATAGGCTGGCTATAACAATGAAGGTACCTTCCATCCCTCACCCCTAACCCTCAACAGGAAATGGACATGTGACCAAGAAATTGACATGTGACCAAGATGAGCCAATCAAACACTCTTTCTATAATTTGCTTCTTAACGGCAAAGACTCAAAGTTGGAAAACAGCTGGAGTTGAGGCATGAATTATTTTAAGGGTAGCATCTTGAAGAGCAG
0.8210648517749007 GGAGCGGGGGGAATGGTGCAGGCAACGAATGCAAATTAGAGAAGCAGAGCCGGCTTGGTCACGTGCCCAGGGCGGGAAATCTGACGACCAGGCCGAGCTGGAAACCTCCACGGAATCGTGGCTCGGGGCTGGAAACAGACCTCACGGAATCCTGGCTCGGGGCAGGACACAGACCTCCACGGAACTGTGGGTCGGAAGCTGCCCTTCCGCCAGCCGCCTTGCTCAGCGTATCTGAG
0.5354246633062668 TGTGAATTAAACTTAACCGCAAGAGGAGTCACCTGCGGTCACCTCGTTTCGCCCACAACAAAGATGTCTGCGCATCGCTTACCGTGGAGCCGTTCCAGTGCGTGGGCCACGCGTCCGCCCTTTTCCGCGTCACATGACCACGAACACTCTTCCGCTACGGCTCCCAGAAGGGGCCAGCCCGCGCCTTTCGCGCTTCTGCCCTGGCCCTCTGCGGGCCGCTCCGCCGGTGCTGTCCC
0.9920179564376708 ATGCGATGTTATATAATGAAATGAAAGACAAGTAATGAGGAAATCAGATTTTTTAAACAGGAGCAGGACAGCTGTTGGTGTGAGTTCAACTTGCCATAACACACGTGACTTTCTTGTTTTGGATTTACTGCTCAGCTGACCGGGACACTCTAAACATAGCAGTTGTTGGTGGCTGGGATTAACTATTTCCTCATGATCTGTGAACCCTTTCACCCCTCAGCCTTCCTCTACCTTCA
0.4169101906685625 CGCGTGAACCTTCACCACTGCTGGGCTGTGGACCCTCACTTCCGCCGCCAGGAAGTTTCGGGGTCGCCCACCTTCCCTCCCAGGCTGCTCCGCGTCGGCGGCGCCCCGCGCGATTGGCTGCGCCGCCCCCACGTGACGCCGGGGTGGCGGCGGCGGTTGCCCGGGTGACGGCTGCGGAGGTGGCGGCCGGGCTGGGATAGCGCGAGTGTCCGCGGCCGAGCAGCAGGTAAGCGCGT
0.2506848508186306 ATCATTAAGGCACTTAAAAAAATGACTACCTTGATTTTCTCATGAAGCTTATGCCTTTCCCAGCGAGACAACCCCGCCCCTTAAAGAGGCGGCGCGGCCACGTGGGGGTACCTGGTAGGCCACCACGTGCCCGAAACACAGCGCAAAAGGCACGCGGCAGAGCCACCTTCCGGGGCCCACCACGTGTCGGCTTGCCAGGCCGGGGCGGAGACATCCGAGCGCAGCCGGGACTCCGA
0.7277499198452477 GGGTGCTGAAGATCCCGGAGCACGTACACCCGAAGGCCAGCGAGAGCTCGAGACTGAGGCGAAAGACTGAGCCTGCCCAGTAATCGCCTGTGGAAAGGCGACGACGGCGCCCTCGTGACTCCGCGCCGACCAACCAAAGCTCGCGGCCGTCCCCATGAGCCAATCGCGAGCCTCTAACCGTGAACGGCGCGGGGCGGGGAGTAGGCGGGCCGAGGCGGCCACGGGAGGGGGAGGGG
0.01282890526216549 AGGAAGGATGTCGTGGGAGACTGGAGAGTGGGGAGGGAAGCGGGAAGGGGCGGGGGCGGAGCAGGGGGCGTGGCGGAGCGGGAGCGCGGTCACGTGACGTGCGTGGCGACGTGTCGGCCATCTTGTGTTGTTGAGGCTGAGGACTGACTGGGGTTCTGAGACTCCCTGTCCCGGACCGCAGGTAACCAGCCGTTCCGTGTCGCTCCCCTGCCCGGCTCTGCTCCGCGCCCCGGCCC
0.754691035201095 GGGCTGGGCTAGAGGAGTGGCCCTGTGTGCGGGGGCTGGACGGGGGCGTGGTCATGTGCGAGGAGGCTGAACAGGGGGCGTGACCACGTGTGGAAGGGGGCTGATCGGAGGTGTGGCCACATGTAAGGGGGCTGGGCAGGGGGTGTGGCCACGTGTGAGGGGGGGCTGGGCCGGGGCGTGGCCACACGTGTGCTGGCTCTGCTGTGGGCTTCCTTCCCTTCCTGTGCAGGTGGTGG
0.9542953934829805 AGTGACATCTAGGTTTTTGTCTGCTCACTGGTCATTTCCCCATATTCTTTTGGGAAACCACCTCTTCACCACTCTTGATTCTTGTAGCTCAGACCAGGCAAACCCCACACCCACTTCAGAGGTGGGCACATGACCAGACCTGGCCAATTAGAACACTTTATCCCTCTTGCCACAGAGACTGGCACATGGTTGGGCGCGTGACCCAAGGCAGGCCAGAGGGGGCCTTCCCCAGGAAT
0.6802543993569957 TTCTAAGAAAATGGATTTGTTCGAGTGAGAAACTAAAATGTCAGGTTTAGGAAGGCGGCTTTGGATTGAATGACTACTAGTGTCTCAGGCAGAACTGTCAGCCTGGGAGGTGTCACATGATTCCTGTGTCTTCACATGATCACTGTTTTGGGGGGGTGGGGCCAATCATGTGAATTATCCTGGGTGGGGGAGGCAAGAGAAGAAGTTTCTAAAGATTGCTTTTAGCACAAATGCTG
0.4469664263242494 CGCCACAGGGCGCAGGAGCCAGGGCTGGGCCCACTTGGCGGGCGCGAAGCCCAGGTACGGGCTGGGGTCTCGGGGCGGCAGCCAAGTGAGGCTGCCCACAGTGGTGATGGCCGCGGCGGCGGCCTCGCCACGTGACCCGGACGGGCGGAAGCGGAAGTGCCGGCCTGGAGCCCGCTCTAGGTGGGTGTCCCCTCGGTGCTTCCCAGCTGCCGTCTGCACCAGCCATGGACTGCTAC
0.1565179056473004 ACGCTTTTACCAACTCACTGGAGGAGCCGTGGGCGCTTCGGGGAACTCACCTAACAAGGAACTCACAGCATTTGCCTCAGAGCAAATGTCCCAGAGAAAAGCCACCTGACCCACTCCCGTGACCCCTGAATAGAGTCACGTGACCTGGTTTCCCTGTTCTGGGTCCCGCAGCTTCCTGAGCTGACCTGCGGGCAAACTCTGCCTCAGCAGCCCCCCAACTACGTGGCACCATGGCC
0.996837327610833 CGCGCCACACACACACACGCCCTCAAGCCCTTCATCTCGAGCTCTTCAACTCCAGTCCATCCCCACTCACCGTCCGCAGTCCTACCAAGCCTCACGTGGGGCTCACACCCACAATCCTCCGCGTGACGCTCCGCCGTAATGGCAAGCGAACTAGGCCAAACTACTTGCACGTTCCCTCGAGAAGATCTTTGGAGTAGACACAAAAGCCGCGCTGGCGCATGCGCACAAAAAGCGCC
0.3746877408898236 CTTAGCGTGGTAATGTGGCTTTGTACCATGTCAACCTAGCTAAGCGGGAACTACGTTTCCCAGAATTCCTTGCCTGTAGGTTTCCGGGGTTAGCACACGCCACGTGACCTGATGCGGGCTTCGTGAGGCGGAAGTGACGCAGTGTTGTCGTCTCGTAGGCTTGAAAGGTAGGTGCCCGACATTAGGGACTGTCGCAGCCCGGGGAATTGTCCCCATCTGCTGGCTTACCTTGTGGG
1 TCTATTGATTGCCTTTTTCTTTGAATATGTTTCTGTATTTTTTTGATATAATGGGATTGAATTCTGAAGATTGTAAAACTAGATTTTGTTTTGTTCCTCTGAAAATTTTGATAATTTTTTGTTGTATTTGTTGTATTTTGTTTGATTTTTTTTCTATTGTATACTTTGCAATATATTTTCCTCCAATGGTTTTAACATTTCTATTTCTCAAAATATTTATGTTTATGTTAAAAATT
1 TATTCTGAATCAATTTTAACATCTGCTGAAATCTACCAATTGTCATACCTTCACAAACTAAATCGATACTGAAGCTCAAACTTTGTTATACCTGAGATTTCACTAAATTTAAACATTGCATCCCCTAATCCTAGCAGAGTAACTGCATATAGAATAGAGGGCACATACTTATGCCTCACATTTGTTACCTTGACTAAATTTCCCGTAGTCATAGAAGTCTTTGTCCATAGGGGACC
0.5581867639344267 GCGAGACCTCCATACATCTCTAAGCAAAAAAAAAAAAAAATTCATTGTAAAAGCAATTTTCTTTTTGGTTACTGCCATAGGGATTTTGTAACTGAGTCACACCGGGCCGAGGCGGGACCTCATTGGCTGCGACCGACCACGTGCCGCAGTCGCCCCGGCGGTCGGGGCCCCGCCCCTCGGCTACCGTTCTGTGGATCAGGGGCCGAGCTCCGCCCCCGGCGCGCGGCTGAGACCCT
0.2436107330085053 CCAGAAGTCGAGTCCAGGCGATGGTAGGAGCTACTCCCCAGACCTGAGCACCTCTCCTAACAGCAGCTCAGGCAAAGGCCACGTCTCGGAACAGTTGGCTGCACAGGTCACGTGACGCGCCCCTAGCCCGGCTCTATTTGGCTGCAAGAGCGCTCTGTCGCCTGCCTCGGACTCTGTTTCCCAGAAGTCTTCCTGGAAACTACATTTCGCAGGGGGCTTTGCGGCGCCTACTTCCT
1 ATGTTTGGATGGAAACATTGGGCTCCTTGTCAGCTGTTCCCTGGTGCTGTGCACAGCTTGCAGGAACGGCTCTGATTTTGTTTAATGACTCTGACAAGAACGCCAGACTTGGCCATGTGACTTGCTCTAGCCAATGAGACAGCAGCAAACATTATGCAAGCAGAAACTTGAAAAGTGCTTGCTCATTGGCCTTGCCCTCTCACTGCTCTTGGTCAGACCCATCACCATGAGAACAA
0.2045644374334641 CAGGGAGGAAGCCCAGACAATCAATTCATGGAGAGCCGGAGCCAGGAAGTTGCACACAGAACTTCTGCTCTTGTCTCATTGGTTAAAACTCAGTCACATGGTCACACCCAACTGCAAGGGAGGCTGGGAAATGTAGTCTATCTACATTTCATGTGCTATCACAAACATCCATCAGTCTTTGCCACAATGTCTTAAATATTTCACAATAAAGAAATGTCAAATGTTTGTGTTAGACA
0.4134590766665541 TGGGTTCTCTGCATCTAGACAGACAGGGATGGAGAAGCTCACCTACTTCCTCGAGGCCCTGCCTGGAAGTGACACTCACCACTCCTGCTCACATTCCATTGGTGGAGACTAGTCACATGGTCACACCTAGATGCCAAGGATGCTGGGAAATGTAGTCTCCAGTGGGGCACATGTCTTCCAGAGACAATTCCACACTATGGAGTCTTTTCCAGAGTTAGTGCACAAAGTCCTCTTTA
0.2223261130422229 GCCCGCGGACCTTGACCCGGCATTGACCGCCACCGCCCCCCAGGTCCGTAGGGACCAAAGAAGGGGCGGGAGGAAGACTGTCACGTGGCGCCGGAGTTCACGTGACTCGTACACATGACTTCCAGTCCCCGGGCGCCTCCTGGAGAGCAAGGACGCGGGGGAGCAGAGGTGAGCTGGCACCGGAGGCTGGAGGGGATCC
1 AAGAAAACATCTATTATCTCACAGTTTCTGTGGGTTAGGAATCCAGAAGCAACTTAGCTGGGTGGTTCTGATTAGATCACCACTGGGATCAATGTGTCAGCTGGGGCTGAAGTCATATGAGGCTTGACTGCTGCGGGAGGGTCCACTTCCACTTCCACTTCCACTTTCACTTCCTATGTGGCTGAGGGCTGGAAGCTTTGAATCCTTGCCATATGGACTTCTCCATAGGCTGCCTG
0.3246934985358313 CATTCTAGCAGGTCTGGTATTTGAAGGCCAAGCTCAGAAGGCTATGTACATTACATTCTACTCACTTCCTGTTAGCCCCAGCTTAGTCACGTGGCCACAAGTAGCTGCCAGGGAAGCTGGGAAATGTAGTCCATAGCTGAGTGATTCATACTGTCACTCAATCTGGAATGCAGTGGCGAGATCATAGCTCACTACAGCCTCAAACTCCCAGCCTCAAGCAATCCTTCCACCTCAGC
0.3118786969308527 TGGGCAGAACAAGTGACTCTCTCCCATGTCCTCTCTCCCCTTAGCCACAGGAGTGACAAATCTGGGTACCGACATCCAGGATGAAGACTACATTTCCCAGCATCCCTTGCAGCAAACAGAGGTCATGTGACCAGGCTGTGGTCACTGGGAGGTTAGGCCTGTGCACAGTGGCTGCCTTTAGAGGAAGGAAGGTTTGTGCCCTCTTGTTCTCTTCTCCCCTCCCTGCTGGCTGGCAG
0.01242710297323619 TATCAGTTTTTCCCTTCTATAGAGGTAAATGCTCCGTGGAAACACATGGCTGGTTGCAGTAAAGACTACATTTCCCAGCCTCCCTTGCAGCAAGAAGCGGCCATGTGACTGAGGTATGGCCAATGAGATGTGAGCAGAACATGGGACAGCAAACAAGGTGATCAGCCATTTGGACCTCTGGATGGGGTCCACATGCTGGTGAGAATGGGACAACAAGTTAGGGGCCCAAGCCTCTG
1 CCATCTCAAAAAAAAAAAAAAAAAAAAAGAAAGACCCTGACCCCACCCCACACTGTTCCTGAACCAAGCCTTTAAAGGCATGATTTAGAAATGGTGCACGTCACTTCCACTCAGGTCCTATTGGTCAGCATGCAGTCATATGGCACATCTAGTTGCAAGGGAAGTTGGGAAATGTAGTCTTTAGCCAGGCAGGCATGTGCCCAGTTACAATCCTGTTTCTATGAAAGCAGAGAACT
0.1563602446049606 CTAACTAAAGCCAATCAGCTCAGAGACATACATATGACAAGACCAAACCAAACAACTCAGGACGGCACACGTGACCAGGATGGACTAATCAGTGCAGGGATGCCCACATGACTGGACCTAACCAATCAGCTCAGGGATAGGCACATGACCAGGTTGAACCAATCAGCTCAGAGATTTACGCATGGCCAGGTCAATCAGGATTCCCCCTAAGTTGTACCCTGGTGACCATCAAGCCT
0.2988048528042047 TCAGCTGTTTCCACTTTTTGGTTCCTATGAGTGGTGCTGCTGTGAAATTTGTGTGCACGTTTTTGGTTGAAGGTCTGTTTTCAATTCTTTTGTGTCTGTCTATACCTAGAGGTAGAATGGCCGGGTCACGTGACAACTCCACGTTTACGAACTTTCTGAGAAACAACCGAACTGCTTTCCAGGGTGACTGCATCGCTACATTCCTACCAGCAGGGGGGGCGGTGTCCACACATCCT
0.5655621765478467 GTCGCTGACAAACCAGACAGTCCGGACCATGCAAAGCACAGTGCATGGTGCTTTAGCCACAAAGTTGATTGAAAAGTCAGAGGCAGTGAGCCACAGGAAGCGCCACGTGACCCAGACTGCGAGGAGGACACAGGAAACCAACCCTCACTGTGTCCTGCTAGGGGGTTAACCCGTCTACAAGCATCAGGGTTGCCATTTCAGAGATCAGCAAACTGAACAGCAGTCGTGACTTGTCC
0.1978398162711947 GTGGAAAGGGGGAAAGGGACTGGGCACAAGGGGTCGATGATACTACCAATTTTTTGAGGGCAAGATCAGGATGTGACCCTCATCACTTCTGCTGGCTTTACCTCGTCACATGACCATGGCTACTGCAAGGGAGACTGGGAAATGTAGTCTTTGGCCAGGCAGCCATGTTGCCAGCTAAAATTTATACTACAGAAGTATAGAAAAACAAAAATTGGGAGACAACCAGCCACCTGCCA
0.4741862415478438 CCTTTCACCTTGTGATGCTGCCAGATGTATGACTTACAGAAGAAGCGAGAGGGTGGGTCATTCACACGGAGTTAGGCTCATCCCTTTGGTGTACATCTCATTGGCCAGGCCCAGTCATATGCCCTCAACTAACAGCAAGGGAAGCTGGGAAATGTAGTTTTCCTGCATGCTGAGGTGGAAGAATGACGTGGTCAGCACAGCGCAAGTCTCTGCCTCAGCATGTGATACCTGGAATT
0.4933533137237346 CCAGCCCCTAGGGCCGGCCACCGGCAGATCCAACGGTGGCCCCTTTAAGGCCGGCGCCGGTTGGGTTATTGTACCCCGCCCTTCCAGGAGACGGGGCCAATAAAGGAACGGAATTCTCTTCACGTGACCTTCCTTCTGCCGCCCGAAGCCCGAAGCCTCAGGGCGGCCATGTTGGTTAGGGGCAAAGTCCTCGTCCCCAGTTCCGCTTTTCTGACAGCTGGTGCCAGCTGAAGGAC
0.0642865578766007 ACCCCCACCCTGGCGCAGGCGCACAACGACCCTCCCCGGGTGGGAGCCAGCGAGCGCGGGGGCGGGCGTGATCCCGCGGCTCGCGACGGCGAAGGAGGGGGCGGTGGGGTGCGACTGCGCACGCGCGCTGCCAGCCCACGTGACGCACCTCGCTTCAACGCCGCCACCCGCTCCCTCCCGCCGTCGGCTGACGTGGAGGGCCGGAGGTGGCGGCGGCGGCGGCGGCGGCTGCTGCT
1 TCCCCAGCCCCTACCCTCCCTCGGCCTAGCCGTCCCCCTCCTCTCCCCTCCCCCGGGCGAATCACGCGCCCTCCTCTGACACTCGTAGCGGACCCGAGCTCCGAATTTATCCTTCACGTGACCTGAGGGGGTTGGGTGGTTGGCTGGGGACAGAGGGGGAGACGGAAAGGAGGGAACGGAATCTGCCGTTACCTGAGCAACAGGCCCCGCCCGCCGGCTCGGGGCTGGGGGGCGGG
0.510762383143357 ACCACGCCTCAGGGAATGAGACCTCTGATGCACATTACCTGTGCTCACAGCTCATTGGCCACAGCAGCCATGTGACCGCACCCAACCACAAAGCTGCACAGCTCATTGGCCACAGCAGCCATGTGACCACACCCAACCACAAAGCTGCACTTGTATGAGGGCAAGACCAACTTCTTCAAAGCCAGTCACTCAAAGGGGATTCCTTAGAAAGGAATTCCCCAGGGTTGGTTGTCAAC
0.1125633023803377 CGGAGGGCGCCCCGCACATCATCTTGGCGGCGACGGAGGGAATCTGGCGAGGGGACTCGGCGAGGGGACGCGGCGGCTCCTCAGCCCAAGTAGGCGCTGGGGTCACGTGACGCGCGGGCGGAACCAAGGGGCGGGGAGGAGGCACTTTGGCTTCGGAGTCCCCTGCGGGGTCGCGGTGGCCCCGCAAGAAGGGACGCGCGGGGCGGGGCGCGGGGCGGGGCGCGGGGCGGGGAACC
0.741431645425457 GCTCGAGTTTAGGTTTGAAAGGTGAGGTGAGAGAAATCGGCAAAGGGAACCCCTGCGCAGATCTCGGGTTCCTTTACTTTATAACCGCGGGTTCCGGTTCCTGCCAGGTGACTGCACAGTTCATCCTCATGACCCTTCTCAGCCAATGGGAAGAGAGCGACGCCCAGGAAGTCCCGCCCTGTCCCGGCCTGTGGGCGCGTCCTCGGGTCCTTCTACGTCGCTGACTCGTGACCTGA
0.5932716907826688 GCTAGACTGAGTACTACTCAAGCTACACGACAGTGGGGGTTACTGCAGTGAAAGATCCAGATGGGGAGCCAAGACGTAACCCTGCCTCTGACAGCCTGGGGAGAAAATGATCACGTGATATCAGGATCACATGACCAGAAACCTGAGCTCTCAAGGCGGTCTAAATGTTGCCTATCCTTAAAGAAAAAGGTAAACAGAAGGGTCTACATCAATATTTATTCCTGTTTGTGTCCAAA
1 TCCCCTCAATTGCCCAACTCCCCCCCCCCACCGAACTGCCCAACTCCCCCTCCCCAACTGCCCAACTCCCCCACCCCCACAATCCCCTCCCGCCACAACTGAGGGAGGCGGTGCTGAAAAACAGCTGACTCCAGCAATGCTGCTCACGTGACCACTGCAGCTGCAGCTCCCGTTCCACTCCTTGTCCTGGGCTAGGTGGGCACTACCAGGGGCTCCTTTGGTAAGGAGTACCGGGT
1 TCAGCTTCCCGAGTAGCTGGGATTACAGGCGCGCGCCACCACTCCCGGCTAATTTTTTGTATTTTTAGTAGAGTCACCAGGTTGGCCAGGCCTGTCTCAAGTGATCCGCCCGCCTCTGCCTCCCAAAGTGCTGGGATTACAGGCTTGAGTCACCGCGCCCGGCCCACGTGGCGAGTCTTAACCACGTGACCCTCCCCGCTCTCCAGCCCGGCAGGTACCAGCAAAGGACTAGCAGC
0.8688197382158875 GACTTCTAGGGGACTCTGGCCTCTTCACTGCAAAAGTCAACAAACTGGTTCATTTGTCTCCTGGCAGGAAAACTCCCCTGTCCAGCCCTAGGAAAGGGATAGGTCTAAGCAGGGTCATGTGACTCCCTCTGGCCACAGAATGTGAGCAGAAGGTCTATCAACCACTTCCACTTCTGACTCATCAAAATTTCTCCTTTCAACAGAAAACCAAATACTGAATGTTCTCACTCATAGGT
0.3387271578496369 TGTTTCCCAAGGGTCATATGACTGCTCCTCTCCACCCCACACTGGCCCGGGGCGGGCTGGGCGCGGGCCCCTGCGGGTGTTGCAACGCCCGGCCAGAAAGTGGGCATCAGCTGTTCCGCCTGGCCCACGTGACCCGCCGAGCATAAATGTGACCGGCCGCGGCTCCGGCAGTCAACGCCTGCCTCCTCTCGAGCGTCCTCAGCGCAGCCGCCGCCCGCGGAGCCAGCACGAACGAG
0.4364004557651593 CACGCGCTGGGGGCGACGGGGGTGGGGCGGGGGAGGCGGGGCGACGCAGCGCGGGGCGGCCGGCGGTTGGTGCTCGCAGCCCGCGCGCCCGCCTTCCCGGCCACGTGACCTTTGGGCCCCGCCCAGATCGGGAGTTCCGCGCGGACTCTTGGTGCGACCCCGTCCCACTGAGCGCTCGGGTCGGGACCTTCCCGGTGTCCCTGTGGGGCAGAGTCCCGTTGTGCAGAAGAGGCGAG
0.1831598502917707 CGTGCGGCGCCTCGTGCACCGCCCCGGGCCCCGCCCCCGCCCTCCATTGGCTGTTCCCGCGCCTTCCTCCTCTGCCCCCTCCCCCCGCGACCAGACTCGGCTGCGGCTCCACGTGACCCGCGGGGGGTGGACACGCCGCGCGAGCAGGAGCTCGGATAGGTCGCTTTGGCCGGCCTGGCCGCTCCGAGCTCCGCCCCTCTTCGGTGGCGCGTCGGGAAGGTTGCAAGTCGGGGACA
0.2675187468463662 CAGGGCGGGCTCCCCTGGCGGAGGCCGCGGCCGCCTCGCAGGGGCCGAAAGCGGCTGGGCTCGGGGTTTTTTCTCTCCATTCTCCCAACACACAGGAAATAACAGAGCGTCAGGTGACGGCGCGCGGCCAATGGGGAGGCTCCGGGCCGCGGCGCGCGGGCGGGCGGGAGGGCGCGCGGCGGGGCGGGGCGCGCGGCGGGGGCGGGGCGCTGGGGGCGGGGCCGGGCGCGCGCGTG
0.8675862594652701 GGGGCCCTGGGGTTTGGAGGAAGCAGTGCAGGAAGTGTCTGAGAATGAGCTTCACGGTGGGCGTGATTAAGGCTGATGTGCTACGGGAGGCGTGTCACGTGGTGGCCTGGGTCAGAAAAGGGAACTGTGACCAACTGTGGGCATTCAGAAAATGGAAAGGAACGCCGGAAACCCCCAGGGCTCCCCACAGAAGCTCTGGGGACGTGAAAGGACAGCGTGTTTCAAACTTGGGTTCA
0.1715545134606553 TGATGGTGGTGTAGGTAGCCATGTTTGACAACATGTGACGATGCCTGGTGGTCACGTGATTCCAAAGGCACCACACCATAGGTCAGCCCAGGACCAATAGCTGGTGGCAGGAAGCA
0.8503415157145703 GTTTCAGCGTGATTCCAAACACGAATGGGGATATCTGTGGCCACTATCCCCGGCACATCGTGTTCCTGGAGTATGAGAGTTCTGAGAAGGAGAAAGACACGTGAGCATCATGTGACCGTAGTGTACATGTCTGGGGAGTCCGTGGCAGCTAATCCCTGTGGCCAGGAAGTCTGTAGCTGGGCAGGGCAGAATCACTTTCCCCAGGTGTTAATCCTTATTGGCATTTTTATTTACTT
0.9202359958746622 GAGCTTCGGGCATCACACTTACATACACGCACAGACTAATACTCAAACAGGCTTGACACACACATGTCCAGGCTTACACACATGGCTGTCACGTGGTCACACCCCGTTCTGCCTCAACCTTGACCCAGTCTTGAAACAGAAATAAAGGGAGCAACTACTGAGCATCCTGGGGGTGGGAAGGGCGGAAGCCCATCTTTTCACCCCTAGGACGGCTGGGCTGGGAAGCTAAGGGCGCT
0.5668067847145326 CGCGTACCCCTCTACTGCCCACTGTCGACGAAAACAGCCTCGCCCTGCACCGCCACCGCCACGCATAAGGCGGTGTGTGGGCAGCTCGGACGTGGCACCTGCCCTCAGCTGCTCAATCCCGGGCGCCGCGACGGTCACGTGCACAGCGGCAGGCCTTTTTGCCCCGCCCCCGCGGCCCGGCTCCTGCGTGGGCCCGGCCCCGCCCACAGCCCGCGCAGTCCCGCGAGCCTGGCCTC
0.4325821930640197 AAAACGTCATAAACTTAATGGCTAAAAGTAATAACTGTTTTATCTCTTCAATTCTGTAAAATGACTAGACTCAGCTAGAAAGTTCTGCTCCATGTGATGCTAGCTGGCTGCCGTCACGTGGAAGGTTGACTAGGCTGGAACATCCAAGATGGCTTAGTCACATGGCCAGCAGTCAATGCTGCTGGCTGGGGGCTCACCTGGGGTTATGTATGGCCCAGGGCTCCTCAGTTCTCCTC
0.5859332167275274 TTAAAATAAGAGGGCAATGACATCTCTATTCTTTACAGTCCTTTTAGATCTGACAGCTCAGTAATTTAGACAGGAGAGAGAAAAGACAAAGCCCAGTGGTCAGAGGGAAATGGGAGGTGTGTCCCCTCCCAGCTACAGTGAGGGGGCCACGTGACGCCTGTGGCAGCATCTGTGGTCACATATGTTACAAGTGAAAAAAATATCACAATGAGGTTGGTAAAGCCTTGGGCATTACC
0.577065234944415 GTGCTCAGTACACCACTGCGGCAGGAAGGAGGAAGGGAAGAATTCCAGATGGGGAGAAAGTAATATTTTGCAGCACAGTACAGGGTAAACTGGGTCCAGGTGGGCGTAGCCGCCGCGACACCTTCACGTGACCGCGGACAGCTTAAGGACCCCGCATCCAGTGCGCCTGCGCTGGAGCTCCCGGAAGTTGCCGGACCCGGAACGCAGGCGGAGCGCAAGTCTGTCAGCCAGTCAGT
1 AGCAACAGACATGCACTGAGTGAGAAGTGTCATAAGTCATGTACACCCTGTGGAATGCAGCATTATCTACAGTCACACATGCCTACGTACACCCAGTTTGCATACAGCTTCATGCACACGTGACACATCCCAGCTATGCTCCCCTCTAGCGGATGCTGGTGGTATGACACTCTGTCTCTCTCCCTGGCTCTGGCAGGTGGAGCTCTCCTGGAACAGCTTTAATAAGGGTGACATCT
0.8015149197131403 GTTCAGACGTTCCACGCAAAAGCAAAGTTCCCTGCAGACGCTCCATTAAGTTCTGGGTGCAAGGAAGCGCGGATCCTTCAGTTCTGGGCGTTTTCACCAGGTGGCACTCAGAACACCCTCACGTGACAAGCGTCCCACCCGGAAGCGAAATCTCCCCTTCTACAGAGTTCCTCCGGCGCTTCCTCCACCCCGGGATACACAGAACCTCATCTCCTACGGTGCTGAAGCCTGCAGCA
0.4502636083322005 ACTTCGCGGGTCTTCCGCCCCGCGCTAGAGGACGCACTCCGTGACGGGAATTGCGGTCTCGGCCGCCCCCGGCCTCAGGCTTTCCGGGCTCTGCTGCCTCCAGAAAACTACAAGTCCCAGGATGCTCGGCGCGGGACGGTCACGTGGGAGGGGCCGCGGGCGCGGCTAAATAGTCTCCATCGGCCATTTTGTGCGAGAAGCCGCAGCGCCGCCTCTTCTCTCGCGCCCTCGCCTCT
0.6893375440719977 CAGGTTAGGCCGGAGGCCGCCACAGCCCAGGGTCTCTGCCACCTGGCCCGCCCCCTCCGAGGCGCCGGAGAGCGATTCCCAAGGGGCCTGCCGGAGCGTGGCGTCACAGGAGCGTCGCGTCACGTGAGGCTGCCATCCAATCGCGGCGCGCGCTCTGCCCTGCGGGCAGCGGGTGCCAGGCACGGTGTCAGCAGGCAACATGGCCGAGAGGCCGGGGCCTCCGGGCGGCGCCGTGT
0.9083308401619501 AAGCCTGGGATCGCCGAGGGTAGTTGGACCACAGAAAATGGGGAAGGAGGGTAGGTTGTTTAGAAGCCTCTGGTTGCTAACGGAAACCGAGGCACGTGGACTGCAATTATGCATTTTCATTGGTCCTCAGGATCACGCGACAGGAAGTATTGCGTAACCGGTTGACTGCCACATGCGCATTGGCTTCCAGGGCCGGAAGTCCCACCTTTTTGTGCCAGTTCACTTTTGGGAGCTGA
0.5810238552227545 AATTGTCCAAGAAGCCAGCGGAGCGCCCCGAACAAGCACTGTAAGGGGAGGCCAGCAGGCGCCTCCTTTTAACTGGCCGGCGGCGGGTCACGTGGCACAGGCAGTTTTCCGGGCCTGAGGGTCCCGCCTCATCCGGCCCCCGCCCTACCCGGAGGGCTCGGCCCCTCCTCAGCCAGGAAAAGGCTGGAGAGTGCGCCCGAGCGGGACGCGTGCTCCTCCTAAGCCGGAAGGAGCAG
0.5641391187767933 AGTCTTTTTGCTCGTCGCCAGGGGAAGTGCTTCCTGCTGACAGGTCAGCTCACGTGTCAGTCAGAGTCTGCCTCTCAGGGCCTCTGCCGAAAGCGTGGGGCACGTGACTGTGACGGCATGGGTTGGCGCATGCGCTTCGTTCCCGGAGTGGCTGGCGGCGGAGTTTTCGCTGGCTACTACGAGGCCGGAGCGCCCTTGGCCTCTCTGCGTCCCTGGCCCTCGTGCGGTACCGGCGG
0.846142887574345 AGCGTGGGCGACAGCAAGACTGTTTCAAAAAAAAAAAAGAGGAAGAGTGAAAGGATGGACGAAAGGAACTCCTGTGGGGTGGGGCATCTGGGGCACTTGATGCCCCACGTGACCATTCCCTTCCCGGAGGTCTGCCCCAACTGCTCCAGCCCCCATAGCCTGAGGCTCCCGGCACCTCCCACCCAGCATCTGTCACAGCAAATCAATCTGGGCCACATGCTCCTGAAAGGTCCTTG
0.6676264010245888 GTGGAGAAATCCTAGAAAGGACCAGCTTTGGGAAGGGATCGCGAGCCCTTTAAGAAAGCTTTACAAGCGGGGTGGTGACAGGCGCCCAGTGAAGCGCCACGTGACTTTTTCCACGGGGCCGGTGGGAGGGGAATGCTCCTTTATAATCAGCTTTCCTTCCCCTGCCTCCCTCTCAACGGACCAATCAACTTCCGCGGTAGGCGGGCGCCTGCCATGCAGATGGCCAATCCTGGCCG
0.9249789572710146 TCCTAGCGCAGTCCAGTCCCGGGCGCAGGGAGGAGAGCTGGTCAGCCAAGATTCCAAGACAGGTGTCCACCTCCTCCAACGAAGCGGAACACGTGACACCACCCTATCCACTTCCGGCTTGGAGGGCATGCCCTCCCGTCACCAGCATGCACTTTCGACAAAACCGTGGAATCTAGTATTTTCCTCTGACACCTTTATATTTTCTTCACTTCCCTATAATTCTGACCTATCGTGTA
0.7217907053483706 GTTTGAAGCTTCCAGCCCTTAACTAAGATGGCGCCTGGAGGCCCGTTAAAAATTACCTTGCCCTTTTTTCTGCCCTCTACCAACACGGCTTCCGTGGCGTCGTTCACGTGACATTCCTGGACTACGGCGCGGGAGAGGGGGTAGGAGGGCCCTTGAAGGGTGCGCGTTCCCGTGGCGGTGCACCGGGTAGGTTTCAGTCAGAGTCACTATGGCGGCCGGCGCTGGCAAGGTAAGCT
1 TGTTCGCTGCCGGTGTGCGTCAGCAGATGTGGCAGGAGGAGGTAAATAGCCACGTGCCCTTGGGGTGAGTTTCGGTTTCTCCAGCTTTCAGGGACTTCTAAAAAGTGAGCCTGGTTGCAGCTTCTACAATGCAGTAATCCTGGCCCTTCTCTGAAGGTCCTTTGAATCATTGCTCTTGGAATCACTTCTGGGTTGCTCATCACCTCAGCTTTTCCACCCTCCCTTTCCTTACATCC
0.5293798418002137 GAAATCTGTGGAAAGCTCAAGTTTAAGTTAGGTGTTTTAAAACAAACGTAGTTAACAATCGGCCAGATAGATTGGCTACCCTCCAGCACGCCTCAAGTTTTAAGATCACGTGATTGGCCCAAACCTCAGAGCCTGGAATTTTACCGGCGGACTCCAGAGGGACGGAACGCCACCGCCATTTCCTGTCCCTCGATTGTGGCGTGAACGTCACTTCCTTAGCAATGCGCTTTAACTCT
0.7956421415418181 GGGCAATTCCAGGCTATTAAGCAAAGGCTTAGTTTACAGGCTGGACTAATCCGATTTGTGTGCTGTGTCCTGGGCTCCCCTGTGGCAGTGATGCAATCATGTGACAGTTGGTGGTCATGTGCTGGGTAAGGACACTTTCAGGAAGGATGATATCACAGAAGTGATATAATCACCAGATAACTTTCTGAGTAGGAGGCACATGTCAGGGCATGAATTCAATGGTGACAGACGTGAAA
0.1217246242338427 GAGGAGGAAACTAAGGCACAGAGAGGCTTGTCAACCTGCCTGCTGTTAGTTGCCCCAATTCTTGTTCTGCCCTACAGAACCTTGATGTTTCCTTCGGTACACAACTGCTCAGAATAGAGACTACATTTCCCAGTCTCCCTTGCAGCTAGGTGTGGTCACATGACCACGTTCTGGCCAATAGAAAGCAGGCAGGGGCTGTGTGCACATTCTGGGTTGACGGCTTATTTTCTCCTTGC
0.7592021754413723 AGGTCCGTCACCGCCGTCACGACGGCCAGAGATTATACCCGCCGAGATGCCCGCGGCCCAGGGCCTACAATTTCCTCCGGCCAGCTCCTTTGGCCGCGCAAGCGCAGTGGGGCCGGCGGGAAGCGTAGGCGTGTGACGTCATCAGGCGGCGCGGGCCAGCCAGGTGCACGTGACTAAGGCCTTGGGCGCGGCAGGTGGTAGCCTTCCCGCCCTTCTGGCCTCTCCATCCCCTGCTG
0.3752926006566848 TGTTACAATTGTATAATTTTAAGTACAATTGTTGGCACTCACTGATATTTCCAGTGCTGCTTCTCTTTCTGAACACACATGGAAGACTACATTTCCCAGTTCCCTTTGCAAGGCCATGTGACTAGTTCTGACCAATGGGTTGTGAAAAAAAGGAAGTGAGTGTGTAACCTAAGTCAAAGCATTTAATTGCTAATGTGAAGCTCTTTTATCCTCTCTTACCCTACCACTGAGATCAC
0.7833864416002604 GGGGGCTGGCCGGAGGAAAGCAGAATTTCAGGGAAAGAACGATCGGGACGGGGAGGACGGGGAGGGCGGGGCAGAAGACGGAAGAGTTGAAATCAGCTGACTGGGTCTCGTGACAGCCTGGGCGGTGGCGACGCAGGCGTATTAGAGCGCGCTCGCTCAAAGCCTGAGCGAAGATGGCGGCCTCCAGAGTGAAACTCTGAGAGGCAGAGGGAGGAGGCGGAGGGGGCGGGGAGGCA
0.3112780100379012 AGGGGTGTCTCCACTCCTCAGTGCAGTAAGAAAAGAGCATGAAAAAGTGCACATGGGAGTTTTTTATGGGCTCTGCCTAGAAGTGGTGCGTGTTACTTCTACTCACATTCCATTGGCTAAAACTCCATCACATGACCACAGCTAACCACAGAGGAGTCTGGGAAATGTAGTCCTTGGTGGAGCAGCCACTTAGCAGTGACAGCTCTGGAGGGGTTTCTGAAGAAGAGGTAGTTCTC
0.5595678606637345 CTGAATTCCCGGACCCAATAACGCGACCAAGCACCGTGACTCCCAGGAAAACTAGCGGAGTGAGCGCGGCTGAGGAAATTACTGACACCGGAAGTCACGTGAGCGGCTGCCCCTAAGGTCGCTATCTCGACAGTCGACTATTCAGCCTTGCAGGCGCCTCTGGCGGGCTTCACTGAGATCCGCTCTTTCGGTGCTCGACTCGCCCGTGCTGCTGCCGCCGCCGAAGGAGGGGCAAA
0.3144764275995828 GGCGGGACCCGGTTTGGCGAAGAGCAAGCGTCCCCAGGATTGGCCAGCTTGGCGCCACTAGATAGGCTTCCGGGCGTGATTGGGCGAGCGGGCCAGACTTCCGGATTCCTGACAAGCCACGTGACCCACCCACCTGGAGGAGAGAGAAGGGATTTGTAGTTTAGTCGGTGCTTTAAAAAAAATTAACAAAACTTTATTGATATTCCACTTCAGAGCTGCTGACAGACTCACGAGTT
0.9463444012722786 TTAACACGTTCTTTACTATGAGCCTGGAACATGATTTGTCTGTTTTAGTTCTAGCAGGAAGACTCAGCCATGCTTCACAGTTCCAGACCACAAAAGTGAGCTCAGGCAATCATGTGTTTTAGAAACAAGACACGTGATCAGAAATTCTTATGTTTGTCAGCTACATACATTTCCTTTGAAAACATTAGTAAAATTTAGCCTATTAGCTGTTTGAAAATCAGCATGGTGGTGGGGGC
0.7649188405467511 GCTTGGGAAAGTAAGAACAAGATGACTGCACATAGAAATTAATGAAATAGAAAAGGCAACATGGAGCAATGGGTTTGCCATCACGTGTTCGTGATGCTTATTTGTGTATCATGTGAAGGCTATTATTAGTATGTGAAGAGAAAGTGAAAGGTTTACAGGAGGCAGTGGGTGTTGTCTAGAAGGAAATCCAGAACTGCTTCACTGTTTCTGAGACTGAACTTTTTACTGTGACCTAA
0.2252745602096098 TATTTAAGATGGCAATAAGCCAATGAATAACGAGTGGCAAGATTTTTACTAAAAATAACTTGAAAAATGCTTCACTTCCTCTTTCCCTCTTTTTATTCATCTGATGCTCAGTGTACCGAAGAACTGTTTGGTCACGTGACATTTCACCTGCTATACTACCCAGCAAACAGAAGTTTCACAAAATGCCAGGTGTGAGTTACAGATGCTGTGGTGAGGGATAAAAAGAAATGCTTAAT
0.3151066893628341 CCCGCCCTTACCCGCCCCCACTCAGCCCTATTTCCGGGATAGGCCCCGGAGCGTCACAGGCACCGCCCTCTCGGGCTACCATTGGCTACCAGATTCCCGAGGCTCCGCCCAGTCACGTGAAGAGCGCCCTGGCAACCCCACGTGCTGCGGATTAGTGCACTTCCGGCGTGGAGCGCACTTTCAGCAGTCTGGTTGCCGAGGGTGAGCTCGCTGGCAGAGGAACTTGCGCCTTCCAA
0.5643217171171098 ACTTTATTCTGTGAGCACTTATCTCAAACTAGTTCAGAGCAGTGGTCCTTGATCTTTTTGTCTTTTCATCTCATCATATTTGAAGGAACACGTGTCCTTGTGAAACAGTAATTCTCAGTCTCTATGGAGGAAAGTGACATATCACGTGACGGGCCTGTTAGAATTTCTGAGTAATATGTGTAGTGTGAAAAGATTTCCCAGATGACTCTGACCTGCTTGATACCCACTTTTGAAAA
1 GGAGCCTGAGCCTACCTTTGGGCTGATCCAAGAATGTGAGGGCGTCTCCACGAACACCAATCAAAGACCAGAGCCCGGCTTCAGTAGCGACGATTGGGCAGTCTGGCCACGTGCTCGTGGGGGTGTGGCCTTTGTTTCTGCGTCCCCTGGGGCCTGCTCTGACTAAGGCAAGGGTTTTCTCCATCCTCCCCCTCTTGGTTGCCTGTCACTGTTTCTTCCTGCATCCCGTGGGGTTT
0.8723508287414866 AAGCAGAGCGTCTCGGATTTGGAGGTTCCGGTTCGAGGCTCGAGGGGCCTGAAGGTGGCTCTCCCTCCCCGGGCCCAAGACGATGGTATGGCCTGCTCCGCCACCATCACGTGGGCTCCTCCTCTGTGACGTCGGCGCCTTCGCTGTAGCAAAGCTCGGCCTCTGGAATTCTGAGAACTAATTTGCTATTCGGTGACATAAGAGGGGGAGTGCGCTTTGCTTTCCCGGGGTCTGGG
0.7116676495940369 CACTTTGGTAAATGAAAGAACTGAAAAACTGCCTCAAGACACCCACATACGGCCAACGCCCGCTAGCCTTTCTTCCTCCCACAGCCCCACTCACGTGGGCCTCCAAACAGCATTTATTGGCCGGCTTCGCGCCACGAGACGCGATGGACGTGATCGCCGCCCTCATCTTCTGCGGCGAACTTCTAGCGGGTGACGCTGTCCAATCGGAAAGCGCCTTTCCGCCGGCTGGGCCCTCC
1 TTACCTGAGAAGGCGGGAAGGTGCGGCCGCGGGGTGAGCGGCGGACTGACCCAGCTCCAGCGCCTCTGCAGAGGCTTGCAATGGCGTCTCTCGGGCTCTGATTGGTCAGGCCTCCACACGTGAGCCTCTAGGAGCCAATCATGTCGGCCCACCTAGCATGCGCTGATTGGCTCAGGCTGGCCAGGGGCGGGCGCGGTCCTTCCACGGCCCGGTCCCCGCTCCCTTCCCCAGGCCCG
0.9437816845316667 CACCCCCGGCAGCCTGCCTCGCCCTCGCCGGGAGCGCGCCTACGTCACCGCGCAGACCTCGGCCGCGTCTTTGCGCCTGCGCCTCCTGGGCTGGGGTGAGCCATTGGCTGTCGAGCTCAGGGCACGTGCTAGGGGGCGGGGCCTTGACCGGAAAGGGTGGGGCAACGGCGAGAAAGGCCGCGTCGAGCGGTAGGTGCAGTCGTCGCTGTGGTGACCCCAGGTCCTGATGCGTCCGG
0.8395623680863327 CACCTCACTGTGAGCATGGAGCTCCAGGAACATCCCAGACAGGAGTGGGCAGAAGGGCAGGGATGCAATGCAGCTGTCTCCTTATATCCTATTGGGCAAAATGTGGTCACATGCCACACCTGGCTGCAAAGGATGCTGGGAAATGTAGTTTTTATTCCCAAGGGTCCACTCCCTGCTGACAATTCTGTTCCTGCAGATGAAGGGAGAATGAATGCTTGGGGACACTAGCAACAGCT
0.7496417205061596 GGGCCCTTCTTCAGTTCTTAAGGGTGAATCTTGGTGAACCTAAACAGATCATGGTAATACCATCTCCCTTGCTAAGAAATGGTTAAGACATTGCCATGTGACATCATCATGTGACAAGGTCTCATGCGACCACAAGCCCCAGGTGATCATTCTGACCAATAAAATGTGATAGGAACTGGGTTTCTCGCTCTTGAAACACACACACACACGTATGTGGGAAGAAACTTCCTTCTGCC
0.7328605903627572 AGGCCTCCTTTGTTTTCTCTGCAGCATGGGTAAATAAGTAAGCTTGTGCTGAACAGAAACTGAAACAAAATTTCACAGGACAACTTTCTAACTAGAAAAGATCACGTGAGGAGAATACCATTAAGTACTGCTTCATTTAAAGAAGAAACAAGTGAGCAAAATGGTTTAACTACCATTATATATTTAATCTGGCCAATACTTACAAGTAATAACTAAAATGATAAATTACAAGGTCC
0.7064625592104674 AAGCCAGGAGAAAAAAAGGAGTTGCTCAAATAAAGCGTCCCTGGCAGTAACGAATCATTAACTTTCAGCCCACTCCAAGGAATGGGTGGCCTGAGGGTCACGTGCTAAAGAGGAAACCCTGAGTGAGTCAATCATGAACACATGACTGTTCTTAGTTCCTTATAGGTTTGCTTCCTCAAATAGCCTTCCTGGAGTGCTGAGCCAAGAGATGGATTGGGACCAGTTTCAGTTCTGGG
1 AGCCCCCTGCAATGTGCTTCTCACAAATGCATACTGCGCAGACCATTCAGTCAGCCCTGCCCATGAGAGCAAAGGAAGGTGTAACCCCAACATGATGGTCCCCATGTGACCCAGACACTGGGGTCAGGTGCAGGAAACTGTTCCACTTTTAGTCAAAGCTCACTGATGTATAAGTGAGTCTGAGACAGGGTGTCTGGGGCTCTGGAAATAAAGAACCAATATTTCCACCGGAGACA
0.3124077260902363 CCCCTCCAATGAGGCCTTGTTCCGCCTGGCCACGCCCGTCGGTTGGCGCCCCGCCCCTCCGCGTCTATTGGCCGCTCCCTTTTTCTCCCATCGCTGCTTCTTCCTTCTCTACGCGGTCAACTTCCGGCGCGGAGTTTGTCACGTGCCCGGATATAGGAAGTGTTGGGGGAACGGCCGCTTCCCGTTCAACGCTTTATTGAGGGGCGTATCCTAGTGGCCCCCATCCGGTCTCCGTT
0.8448251468897572 GCCGCCATCTCCTCCACCTCCCCTCACATTCCACCGATCCTTCCCCCAGGATAAAAACCACGCCCAGAGAAGCTGCGCCTCTCTAGCACACCCCTCCCAGCCCCAGCGGCCACTAGCGACAATATGGCTCCTAAGCACGTGACCCGGGGCAGACGGATTTCCGGTTCCCGGGGCTACGAGGCGGAAGCGAAGGCAGACGCAGTCTCCGTCGTTGACGTTAGTCGCAGTCTTCGCTG
0.6328816285007601 CGGAGCCCGCTTCTACATCCACCTTGGGAAAAGACCCCAAGTTAGCTCTCAGGGCTCGCGGACCGGAAGCACGCATAAACTTCTACCCTGTCCAATCATAAGCCTCACGTGACCTGCCGCGTAGGGAGGGCACGAACAGAAAGGTGCTGCGCATGCGTATTGAAAAACCTCACCTACTCTCGCGGGTCCTCAGCGTTCTCCTGCGGAACCTTTGAACGGGGTACTCGAGCCCACAG
0.9152347781028388 TACCACAACCCTGAGAGGTCGAGAGTTCCTTCCCATTGTGAGTTCTTTCGTGGAATGCGGTATACACAGGAAGTCAAGAAATGGTCACTGGGAAGTCAAAAATAGTCACATGGTCGTAACTCCATCACATGTTCTCCCTCTTTCAATTTTAGCAGTAATGTGATCCTCAAAAATGCATTAATACTAGTTGAAGTAAATAAACGGAAGAGCTCCAAAATGCCTGCATTAAATGCATT
0.542256783474964 ATCTTAGATCGATCTGATCGCACAACCGCTCCAGAAGGGGGGGTAAGAGGAAAAAAATGAGATTCAAACCGGATTGGCCAGCTTCTGGCCACGTGACGGATATGTCCGTTTGGCCCTGGCGGCACCTGCGCAAGACTGCGGCTGCGTGAGTAACGAGAGGCTTCTGGGAAGTGGAGTCTCTCCCCCACCTTTTTTTTTTTTTTTTTTTTAAGGTAAAGAAATTTTTTTTAAAAAGG
0.9564029614231953 GACTAGGCCTCAAAACCAGGCAAAGTAGCGCCAGTTACCTGGGGTTTCTGGGCTGCCTGGTTCTCTCCGCTGTCACTTCAGGGACAGCTTTAAAGACAGGTTCCTCCTCAAGCCACCGTCACATGATTCATGACCTCGTCTGCGCTCCAGGAAGCACTTTCTAAGCCGCCGTCGCCCTACGATACGGGATTTCCGGAGGGGCCCGGCGGAAGCTGCGAGGGCGCGTCCGGCGGCCG
0.8807202004571416 CCACTGCTGTCACACAGCCTTGCCTATGCCTTGGTATATTAAAGAGTGGTGAGTCACTCACACTTATGATAACCATTCATAACTAGAATTTTAGAAGAGGGGAAAACCCCAGGGCTGTACAGAATGACACGTGACACTCTCCAATGGAAGGACAGAAAGAGCAGAAGCCTCTTGCTAAATCTAACCATGAGCTCTTTCAGAGAAAAGAGGGCCGTTCAGCTTTTCTGCGTCACTAT
0.5957346606696409 TAACTCCCCTGCAACCTCAGTAAGTTCTGATAGTAAGGCGAATTCTCGCGATATTTCCCACTCTGGCGGTCAGGGGGAGGTAGTAGGAAGGCTGGGTGTCGGTCACGCGACCCGGCGGGGGCTGACGTCATTCACATCACGTGAACACGTCTAGACTGTTTCGCTTTGCAAAGGGAAAAAAGAAAAGGGGCCGTCGTGTGTGCTTTTGCTTTCAGCCAGATAGTGGCAATTGAGTG
